0,1,2,3,4,5,6,7,8,9,10,11,12,13,14,15,16,17,18,19
-2.2199714,2.0745046,-0.10800034,-0.7609998,-0.92299974,-2.5104942,-0.17200051,-0.16000028,-0.9344992,-1.4559983,0.87400055,-0.59200054,-2.4709983,-0.47000027,-0.9134938,-0.8119997,-1.0639994,1.2315073,-0.6554957,-0.5360002
0.9082728,0.38212553,0.44300547,-0.77591056,-0.21029723,-0.95339257,0.666457,-0.14540735,-0.53160286,-0.76432985,1.5601974,0.51808435,-1.723763,-1.286314,-0.39039633,-1.4414371,-1.3567612,1.1563091,-0.22680345,-0.38272798
-0.70085573,1.5688382,0.3858984,-1.0494221,-0.77039653,-2.3231752,0.63720405,0.013206009,0.6184018,-1.9119929,0.10610123,-0.9272008,-2.414583,-1.313499,-0.91589016,-0.12540086,-1.6439977,0.49070776,-0.25120014,-0.3686001
-1.9076489,1.8630521,-0.5237001,-0.8059997,-0.9454994,-1.9285889,-0.22820064,0.1354992,-1.2379984,-1.6187956,2.5410047,0.042600024,-2.6417978,-0.6406001,-0.412199,-1.2041987,-1.2819995,1.1846154,-0.9199936,-0.5710005
-0.48730725,1.0068434,0.5027485,-1.0351778,-0.84871066,-2.218807,0.52359587,0.16431998,-1.190209,-1.7142057,1.5088044,-0.6443403,-2.4704607,-1.663697,-0.5743191,-0.898454,-1.7956948,1.107776,-0.2218025,-0.41380134
-0.49935827,1.1744837,0.5358812,-1.2312769,-0.62259716,-2.3178298,0.67090243,-0.113577604,-0.95661557,-1.5905278,1.7355527,-0.26749995,-2.587321,-1.3572183,-0.54211766,-0.71153694,-1.7979956,1.205969,-0.04060681,-0.17672095
-0.695558,1.528325,0.34059912,-0.9959995,-1.0195965,-1.6075773,0.1523995,-0.3056008,-0.5596014,-1.3569963,0.79540056,-0.46800062,-2.4989898,-0.77359974,-0.9279948,-1.0992981,-1.2875978,0.083597675,-0.19949973,-0.48650017
-0.16419624,-0.69684124,-0.23541887,-0.008722892,1.2514368,-0.03999137,0.36528882,-0.4546084,0.42319804,-1.4584846,-0.6586905,-1.0295954,-1.3539078,-1.1820354,-0.8039579,0.38583866,0.3671326,-0.49639818,-0.948838,-0.46464133
-1.215772,-0.5078165,-1.1663191,-0.40700102,-0.0022619236,-0.6887989,-0.696999,-0.42270526,-1.0469997,-0.005601124,-0.6559384,-0.3189809,-1.6062921,-0.23796073,-0.35539943,-0.237,0.35975945,-1.3338133,-0.23390593,-0.47930023
0.07778678,-0.64460343,-0.21250087,-0.6439018,-0.4833062,-0.780699,0.3957022,-0.75776935,-1.0186938,-0.7320009,-1.3496917,-0.45539483,-1.6703562,-1.1147968,-0.4000822,0.087900855,1.2408458,-1.0996766,-0.8277907,-0.32430127
2.4314878,0.3615895,-0.24868697,-0.63049227,-0.3511233,-0.50815594,-0.29443744,-1.0470215,-0.42969143,0.0054169,0.050858825,-0.5448758,0.12708455,-0.46607915,-0.45511383,-0.30659997,0.22345343,0.19644466,-0.38540077,-0.35574982
0.7752901,0.25375018,0.97941154,-0.5611253,-0.9519862,-0.7121111,1.4875057,-1.286417,0.117372125,-2.242918,-1.095217,-1.2533005,-1.9964888,-0.971288,-0.25669202,-1.326242,-0.7718795,-0.015250065,-0.14164661,-0.7427407
-2.6743817,-1.474798,0.15360013,2.0836139,-1.9359968,-0.97878474,-0.17260024,-0.8425962,0.36040038,-1.5975993,-1.1551994,-0.28440017,-0.7894001,0.62660074,-1.2609893,-0.9037998,0.1509998,-1.9363979,-0.070799336,-0.75199986
-0.14999098,-0.62583923,0.091273054,-0.1155895,0.6990379,-0.42604658,0.707264,-0.37215686,-1.1932137,-2.4552507,0.12637827,-1.7692499,-2.3450577,-0.9756521,-0.13750449,-1.4250351,1.0981808,-0.97994643,-0.34210995,-1.1031376
-2.0589886,-0.69099903,-0.23000056,-0.47100055,-0.863999,-0.97699636,-0.9529992,-0.31399944,-0.7339997,-0.7019998,-0.89549965,-0.43250024,-1.3059957,-0.53800005,-0.72099644,-0.9209996,-0.08499995,-1.185496,-0.26750165,-0.61899996
0.5502131,0.15131827,0.7752695,-0.432477,-0.24150263,-0.6706165,1.2255286,-0.9897256,0.6022301,-2.0517774,-1.1469872,-1.3369868,-1.7465376,-1.2501146,-0.7728399,-0.5522012,-1.0898205,0.5555087,-0.3560195,-0.6065016
-1.2292228,-0.851814,0.18981415,1.1542302,-0.98528963,-0.8327228,-0.19635282,-0.6465277,-0.43722087,-1.340728,-0.7812028,-0.8225589,-0.9624032,-0.5054814,-0.92875445,-1.0029986,0.5446979,-1.0036143,-0.21091422,-0.65095973
-1.6919471,0.81169915,-0.011200875,-0.7861994,-1.3187987,-0.6025842,-1.3161993,-0.20250231,-1.241999,0.325104,1.8873191,-1.4025977,0.5542991,0.5146997,-1.4739646,0.32879925,0.6938005,-0.8044827,-2.529288,-0.1841003
-0.034579888,-0.9966531,-1.3000087,-0.14696442,-0.2160007,0.3717639,1.262106,-1.121278,-1.287133,-0.9315528,-1.1075146,-0.8658156,-2.6381474,-0.7056937,-0.53370863,-0.6870162,1.4934313,-0.9948149,0.01990486,-0.5263996
-1.2325675,-1.1159979,-1.822693,-1.1923956,-1.2839913,0.4781952,0.9500091,-2.0386736,-1.2333993,-1.2039986,-1.1429994,-0.94749904,-3.1769958,-1.4593991,-1.6292481,-0.7619994,2.953789,-2.0121956,0.23160188,-0.9365997
-1.2748256,-1.1043986,-1.8282936,-1.0797957,-1.3867044,0.5901647,1.0087732,-2.52131,-1.1463994,-1.4399986,-1.3729992,-1.1072993,-3.1291964,-1.2619992,-1.8618886,-0.8029996,2.7916453,-2.3077962,0.2814636,-1.0251995
-1.5436325,-1.5015982,-1.9092972,-1.3457978,-1.2367864,0.24566458,0.6174719,-2.230375,-0.90139955,-1.1999991,-1.1469994,-0.97099954,-3.068997,-1.0309994,-1.8182012,-0.8559997,2.6917589,-2.158197,0.6680671,-0.9199997
-2.594992,-0.7663991,0.23760004,-0.42920068,-1.2649992,-0.881296,-1.2139993,-0.62519807,-0.5387006,-0.48670065,-0.38490057,-0.41640028,-0.32400218,-0.43490037,-0.69079703,-0.5322,-0.571,-1.7188951,-0.41659945,-0.4197002
-2.657993,-0.6743991,-0.61399996,-0.57600003,-1.1809994,-1.103796,-0.9799996,-0.3086005,0.113000005,-0.2968007,-0.28700054,-0.5310003,-0.46259722,-0.3420003,-0.9571972,0.28039986,-0.64099985,-0.77019674,-0.93299854,-0.6443999
-0.089078456,-0.38796198,-0.8437725,-0.06958145,0.100116506,-0.2924657,0.9705499,-0.35899,-1.0395935,-0.8234956,-1.3150935,-0.89819646,-2.5626664,-1.3283966,-0.28653014,-1.0079969,1.5366783,-1.6206198,-0.033300716,-0.42170104
-0.116264984,-0.7465999,-1.1220849,-0.015800614,0.12979566,-1.1819781,1.562047,-0.8832921,-0.9181992,-1.5739986,-1.6339984,-1.1914995,-3.5484958,-1.1579993,-0.3666931,-1.0109994,0.7258217,-1.9582936,-0.46319395,-0.7759998
-2.7547934,-0.97939897,-0.12470065,-0.31380036,1.1934112,-0.56559604,0.325396,0.015201146,-0.557,-1.0799996,-0.8949996,-0.7559999,-2.2429984,-0.70399994,-0.78749716,-0.8423998,-1.1931964,-1.6623982,-0.89479494,-0.84799963
1.2031451,-0.37553698,-0.45379665,0.44723907,0.68678206,-0.5776418,-0.0019072276,-0.47773135,-0.31821766,-1.2017449,-2.0239658,-0.5114218,-0.9204444,-0.41621044,-0.4174632,0.11255961,0.928101,-0.39139515,-0.8027041,-0.16369885
-1.3229071,-0.9857986,-1.034696,-1.0509971,-0.7152185,0.5709987,0.8910058,-1.9172212,-1.0779995,-1.0379988,-1.1561993,-0.9333993,-2.5959954,-1.2839993,-1.3958652,-0.8293995,2.2175071,-1.9679976,0.15380022,-0.6600001
-2.2326002,-1.6399984,-1.531799,-1.2535992,-0.92159724,-0.02200156,0.8490026,-2.1159956,-1.0169997,-0.93999964,-0.99599963,-0.8879998,-2.0869982,-0.9399997,-1.6113837,-0.9149998,2.3080034,-1.852798,0.2850002,-0.7019999
1.666697,-0.9709745,-1.1828417,0.25065878,0.4787454,-0.001005427,-1.0413071,-0.69255483,-1.7545047,0.30844715,0.42869094,-0.024043068,0.14600301,-0.5195428,-0.57238024,-0.40219367,-0.29354346,0.1438042,-0.44680032,-0.37255028
0.02373593,-0.22358453,0.7604684,1.3556368,-0.45828122,-0.20850307,-0.3322028,-0.76567066,-0.3793602,-1.4008585,-1.0929756,-0.5589833,-0.63285434,-0.037603244,-0.5752453,-1.6188886,0.34642595,-1.1102604,-0.31230465,-0.5031029
-3.3799975,-1.0139996,-0.7739997,-0.55200005,-0.4319994,-1.1579981,-0.41599995,-0.8499995,-0.6419999,-0.7999998,-0.78199977,-0.6399999,-1.4319992,-0.592,-1.4579978,-0.8519997,-0.5040001,-1.719999,-0.8239995,-0.69999987
-1.1072232,-0.32503363,-1.1553597,-1.0243999,-0.89507884,-0.9415486,-1.2239996,-0.7085108,0.19851883,0.4317918,0.23147605,0.91659844,-0.2749482,-0.16002253,-1.1890271,0.5983143,-0.77975917,0.2501966,-0.42658892,0.06488037
-0.7426664,-0.3976389,-0.8302989,-0.6307989,-1.3447429,-0.8821651,-1.0879995,-0.9757902,-1.1682972,-0.07180413,-0.58350116,-0.3000997,-0.04840096,-0.9010995,-1.2048663,-0.096900724,-0.6447995,0.20251265,-0.52029854,0.14610024
0.3941562,-1.2848183,0.7957567,1.796972,-0.7347307,0.08679737,-0.6149312,-0.68743813,-0.1752522,-1.6160381,-1.1700898,-0.8968236,-0.3945237,-0.10433045,-0.6141559,-1.7144985,-0.1469897,-0.699002,-0.35398865,-0.21650115
-1.486546,-1.3382939,0.8491156,2.080347,-1.389494,-0.76989144,-1.1565945,-1.0127801,0.41679877,-1.9653921,-1.7625967,-1.667792,-0.2012969,-0.14290024,-0.7879761,-1.1187985,-0.08070019,-1.5186899,0.1014989,-0.41500065
-0.79185826,-0.9534018,0.1410061,0.35550097,-0.12780185,-0.38120806,0.66880965,-0.80898416,-0.33660135,-1.5452936,-1.2800958,-1.2051978,-1.2758776,-0.99759793,-0.59068346,-0.6499982,0.4572966,-1.0508947,-0.43540537,-0.67199993
2.053077,-0.43505886,-0.34944713,-0.47525808,-0.554905,-0.28670877,-0.69813347,-0.46724838,0.0077594332,0.3780543,-0.14384626,-0.6793127,0.43221635,0.27845272,-0.4335576,-0.065671586,-0.7054855,-0.07757595,-0.23506695,-0.52916265
-0.90734756,-0.12362468,0.06873965,-1.0993977,-0.63864034,-0.8278728,-1.0469974,-0.41355783,1.6582863,-0.37370172,-1.1982735,-0.6319804,-0.07912493,-0.3854208,-0.8237997,-0.14995837,-0.5746189,-0.3957472,-0.7256179,-0.52044004
-0.5875782,-0.7778325,-1.3054417,0.32322004,2.0495594,-0.2586322,1.0144466,-0.22330447,-1.0557983,-1.9179976,-0.7948387,-1.3848382,-3.2196949,-1.2736984,-0.8812686,-1.2247987,-0.35190368,-1.2335149,-0.98917705,-0.9165996
0.6420284,1.0123891,0.78428984,-0.85905385,-0.21552254,-0.14517194,-0.6075946,-1.561195,-1.2608514,-1.0301074,0.8263194,-0.7904892,0.3995753,0.3612524,-1.098193,-0.9226976,-0.3709064,-0.433622,-0.2171793,-0.155799
0.6021374,-0.3411239,0.28886628,0.32851523,0.57229906,-0.06333394,0.6893633,-0.68244904,0.40781146,-1.9183265,-1.3393117,-1.1852039,-1.7221287,-0.8867435,-0.5892762,-1.214889,-0.69518155,0.205606,-0.4470477,-0.1847792
-1.7736434,-1.1037982,0.28899974,-0.4994022,1.4748293,-0.96038896,-0.06430079,0.14730242,-0.71349996,-1.3703989,0.26200038,-0.98699963,-2.6746984,-0.93609965,-0.5843988,-1.0989996,-1.034695,-1.3185962,-0.5027955,-0.6089999
-0.041162133,-0.6923697,-0.7631418,-0.5893242,-0.8288785,-0.99835515,-1.1393704,-0.5134674,-1.0936952,0.42011285,1.5767804,1.4852026,-0.6095827,-0.7146083,-0.5894216,-0.23047231,-1.5380422,0.58253855,-0.15313528,0.15318939
-3.7119973,-1.2319994,-0.49800023,-0.572,-0.63799953,-1.1149987,-0.7839997,-0.5779996,-0.5250001,-0.6599999,-0.58,-0.54,-1.4999992,-0.56,-1.069999,-0.71999985,-0.72399986,-1.5619991,-0.9029994,-0.61999995
1.9739002,0.36876136,-0.097274244,-0.059415102,-0.047013894,-0.19070669,-0.32368454,-0.44660112,0.44839722,0.1629222,-0.15359332,-0.45225966,0.06482396,0.44155523,-0.21778242,-0.33114758,0.096771725,0.09901239,0.17288525,-0.45810616
0.6601415,1.0914321,-0.2301138,-0.39030328,-0.05358831,-0.4869174,-0.7431764,-0.73816663,1.276476,-0.3054216,-1.1723523,-1.0832102,0.0923913,0.6591901,-0.87062943,-1.1512626,-0.12184434,0.31621343,0.02313159,-1.3589803
0.85177594,1.5469605,-0.3448079,-0.6403722,0.112637624,-0.2668046,-0.62169266,-0.8349324,1.312954,0.06313802,-0.9570729,-0.9583857,0.5495198,0.6555317,-0.8205162,-1.0784845,-0.35299677,-0.38958386,-0.26078546,-1.2951114
-1.1790657,-0.6552758,-0.20556258,-0.29716256,0.95872825,-0.27851224,1.0627486,-0.64378434,-1.0031996,-1.5163977,-1.2259985,-1.0173992,-2.7077944,-1.1283991,-0.70229465,-0.95579934,-0.055401985,-1.3155937,-0.3337056,-0.8745999
2.0630672,-0.02000216,-0.10204278,-0.10653292,-0.27018756,-0.124819115,-0.21826662,-0.47817233,-0.07668453,0.34289953,-0.0048433784,-0.42117402,0.2732263,0.47739953,-0.055511877,-0.17726794,-0.36655864,0.12292297,-0.08555431,-0.83920485
-1.9167281,-1.0944169,-0.73217607,-0.9495984,0.32482308,-0.3963881,1.4722341,-0.4850221,-0.8519795,-1.2165788,-0.8229395,-0.8975796,-2.5315368,-0.85497975,-0.7738046,-0.9147797,0.5920432,-1.7623757,-0.2847057,-0.7053799
-2.5954235,-1.2249998,0.19859895,0.34899864,1.1914159,-0.4528049,0.10759671,-0.39599988,-0.92599994,-1.2349995,-0.7299997,-0.89399976,-2.3999972,-1.0489997,-1.0743964,-0.9169998,-1.5179935,-1.693397,-0.89579684,-0.7619998
1.9358051,0.27424622,0.27621242,0.0056953607,-0.33909366,0.05528079,-0.73466295,-0.95440954,-0.60264385,0.06735207,0.40753478,-0.8232517,0.49985832,0.8552128,-0.39892828,-0.7715302,0.17666283,-0.49569705,-0.5909057,-0.90665466
1.132376,-0.74796855,-0.6195244,-0.2988477,0.011321626,-0.29724634,-1.1412703,-0.50359374,-0.102029294,0.38564622,0.30561632,0.4187622,0.3619967,-0.39146206,-0.91348803,0.30265233,-1.1580569,0.59736955,-0.15453945,0.30113822
1.7966429,-0.30857176,-0.13015723,0.109909296,0.04563923,-0.08596966,-0.6924207,-0.51538575,0.00090870634,-0.15329492,-0.3828756,-0.7677429,0.54352367,0.17731014,-0.30385906,-0.36309242,-0.7187981,-0.058593445,-0.14690186,-0.2994177
1.4656705,0.037468284,1.0910447,-0.115412444,-0.38927782,-0.41187754,1.13581,-0.95394635,0.3300263,-2.3018565,-1.4338284,-1.5444883,-1.4961934,-0.29143474,-0.25717068,-1.3700949,-0.35233584,0.08715284,-0.2762474,-0.39838123
-0.18804492,0.7918311,0.6714321,-0.4274021,-1.3786842,-0.82575816,1.6232522,-1.2548602,1.0201172,-2.2503967,-1.8401966,-1.2753986,-2.6165843,-1.016198,-0.8441595,-1.4398974,-0.62759936,-0.4502969,-0.25149962,-0.6917999
1.0004064,0.5118298,-0.07314552,-0.35510767,-0.46486947,-0.7153265,-0.78964895,-0.9890501,-1.2792338,0.6783184,0.068985716,-0.6487875,0.35329324,0.60574466,-0.4472171,-0.8238612,0.6349834,-0.9436393,-0.40792006,-0.12738083
1.6333045,-0.83266175,-0.7956334,-0.031222302,-0.4380592,-0.6452564,-1.3781403,-1.1436957,-1.3735417,0.6994532,0.47647893,-0.4030713,0.4740891,-0.30317673,-0.80751514,-0.7773892,-0.075258635,0.01537396,-0.33620778,-0.34856477
0.9724072,-0.35102212,-0.5690169,-1.5205735,-0.6598973,-0.57650256,-1.9860557,0.7607928,-0.62083805,0.13249263,0.546892,-1.6559716,0.73597413,0.20940991,-0.5664228,0.51905626,0.7403216,-0.25377005,-3.0072925,0.30159625
-0.5252178,-0.56494385,-0.9147304,0.080538064,-0.7981281,-1.3339242,-0.72499865,-0.526789,0.124534234,-0.31882033,-1.1695715,-0.75251967,-0.7719625,-0.7851992,-0.81599337,0.6671782,-0.10126638,-0.7687977,-0.66492766,-0.38028073
0.32710797,-0.8223414,-1.1266757,0.20086913,-0.61877596,-1.3725659,-0.56660205,-1.3585284,-1.3876408,0.1669217,-1.7118508,-0.22956218,-0.67563754,0.078088656,-0.98983616,0.3788387,0.075918004,-0.335457,0.02681958,-0.45138136
-1.1394299,-0.6235997,0.5388,0.40760216,0.05479988,-0.23801073,-0.2888031,-0.3622117,-0.576399,-1.7761956,-1.214197,-1.317197,-1.8767763,-0.51700157,-0.81239223,-1.0741994,0.40179798,-1.560789,-0.3823925,-0.6483995
-0.77416825,-0.5162563,0.8128266,1.1902144,-1.4638958,-0.4149482,-1.2467763,-1.0273821,-1.3716756,-1.8333127,-1.5081767,-1.2983963,0.3709959,-0.64600015,-1.1676843,-1.2157575,0.9460107,-1.5836687,-0.20965004,-0.76660055
1.5306625,-0.854883,0.13632742,-0.4587688,-0.16326806,-0.24025093,-0.25551513,-1.0012035,-0.15512753,-1.412593,0.42809612,-0.2536067,-0.654845,-1.0449446,-0.9748457,-0.6689968,-1.4082448,1.0556396,-0.040548965,-0.042871185
-0.908736,1.9646631,-0.7119979,-0.7464978,-0.4041004,-0.8144975,-1.2720962,-0.9715356,2.5171015,0.53684616,-1.3958948,-0.6154593,-0.23470247,-0.17050076,-1.0863456,-0.2972607,-0.15070121,-0.9364871,-0.2882944,-0.60090137
1.3612458,0.31330097,0.7626739,-0.46890542,-0.13007829,0.14006801,0.40701014,-0.8398456,-0.21166931,-0.7768419,-0.41413012,-0.46416813,-0.6234559,0.22271419,-0.4806702,-1.1279782,-0.07625484,-0.2698446,-0.34437287,-0.7830665
-0.7655211,-0.18195915,0.6375172,-0.17489938,-0.53687704,-0.67723626,0.6125058,-0.8702685,-0.723599,-1.2847971,-1.2168982,-0.95639855,-2.0893474,-0.930879,-0.70517665,-0.7966785,0.22959952,-1.1300523,-0.16589953,-0.76967955
-2.6679928,-0.7401991,-0.5774002,-0.79599965,-1.2189994,-1.0879961,-1.1079996,-0.7953992,-0.53099996,0.10579968,-0.18179986,-0.612,-0.16299923,-0.3144002,-0.8413956,-0.4671997,-0.4732003,-0.95959663,-0.9153991,-0.6381998
-1.0695145,-0.32130283,0.48060182,0.044699665,-0.90899545,-0.5119886,0.63411325,-0.9079901,-0.6611988,-1.4919986,-1.273999,-0.87559915,-1.9422911,-0.44290075,-0.71988124,-0.91839904,0.018797237,-1.578794,-0.34510782,-0.5942999
1.4842416,-0.7572322,0.14462154,0.55253315,-0.49242076,-0.31935263,0.50751483,-0.69831336,-0.68041867,-1.1939726,-0.5492758,-0.5644852,-1.0686041,-0.05236021,-0.38861275,-1.2603967,-0.17782263,-0.5731917,-0.29569766,-0.3116594
-0.4589927,-0.6128201,-0.40236467,0.3068998,1.5398979,-0.032380354,-0.061599076,0.11793754,-0.4330001,-1.6599971,-0.835799,-1.1469991,-2.55971,-0.8952596,-1.0889775,-0.2409599,-0.5132964,-1.3348123,-1.1715695,-1.0102596
2.3373013,-0.6309705,-0.20298433,-0.63999295,0.023233682,-0.07154189,-0.8356784,-0.7713946,0.20598198,-0.3720386,-0.055217102,-0.104733095,0.3764853,-0.5215357,-0.6266524,0.23491219,-1.3437228,0.84280044,-0.24345215,-0.73443955
-0.9374699,0.09094307,-0.7659985,-0.47339958,-0.01080191,-0.32828623,-1.0269979,-1.1025703,1.8370944,-0.096132815,-0.5112353,-0.59932023,-0.34956145,-0.83999914,-1.010547,0.041384913,-1.2943989,-0.009829798,-0.77290106,-0.17431772
-0.7002381,0.49389973,-0.25050136,-0.41910106,-0.9909987,-1.1881773,-0.674599,-1.1327931,0.20779894,-0.7280019,-0.6998995,-0.5036002,-1.2725791,-0.86499935,-0.9935872,0.17130025,-1.0851988,-0.12890211,-0.35160366,-0.24140057
-0.81803215,-0.080702834,1.5808864,-0.57270056,0.7090147,0.08018945,1.2740774,-0.7717917,-0.5834004,-1.6315975,-1.2147967,-1.4793979,-2.6353836,-1.265198,-1.3676249,-1.1943986,-0.56159335,-0.6902958,-0.18429835,-0.984199
-1.06544,-0.17577972,0.8899755,-0.8842201,0.18070212,-0.5770824,0.7902164,-0.65059036,-0.7659991,-1.6559983,-0.8145985,-1.0243992,-2.8848953,-0.7724198,-0.88348573,-0.8624196,-0.8016166,-0.92900294,-0.3602846,-0.61942
-3.3399956,-1.0759994,-0.716,-0.53600013,-1.1519995,-1.0039988,-0.95599973,-0.7180002,-0.7079999,-0.6039998,-0.504,-0.47200015,-0.99999946,-0.40800017,-1.0559987,-0.69399977,-0.5520002,-1.5559992,-0.6960003,-0.72599983
-2.2489893,-0.868999,-0.37200135,-0.16200046,0.39899862,-0.8259961,-0.11700033,-0.7819981,-0.36100027,-0.94399965,-0.8929996,-0.7439998,-2.1059985,-0.6,-1.1339943,-0.87199974,-0.70299995,-1.740997,-0.8579985,-0.80799973
0.108424835,1.7040474,-0.080382526,-1.1704959,-0.73398525,-1.6888849,-0.042701915,-0.24374872,-0.985098,-0.532879,-1.4087064,-0.42207986,-0.91993904,-1.5314761,-0.60380864,-0.80680263,-0.05740089,-0.25313163,0.3847214,-0.48548245
-1.3674355,-0.4350484,-0.037050784,-0.3295009,-0.57199883,-0.86259174,-0.79774785,-0.33525217,-0.47660014,-0.6424994,-0.76424915,-0.5396508,-0.93164414,-0.43735093,-1.0779871,-0.6442489,0.4169491,-0.91219616,-0.14624967,-0.64304966
1.8762965,-0.6204294,-1.0960194,-0.3438115,-0.21698964,-0.34498495,-1.2898991,-0.8081517,-1.2482866,0.81789243,0.2162673,0.25976124,0.44438824,-0.04688058,-0.62339896,0.17909412,-1.0300363,-0.040536404,-0.08719557,-0.18077695
-0.9617996,-0.98152274,0.45641637,0.18719923,2.545492,0.11014042,-0.014499554,-0.027502362,-0.99293673,-1.5889151,0.46993777,-1.2193966,-2.921869,-1.323497,-1.1301824,-1.3936373,-0.47668788,-0.5501706,-1.0535971,-0.38770044
-2.8687904,-0.98739916,-0.45740056,-0.075400196,-0.26040027,-0.57459694,0.1570005,-0.5581974,-0.62100005,-1.1239996,-0.93639964,-0.7549999,-1.9469988,-0.7033999,-0.76459634,-0.93299973,-0.10680063,-1.7159985,-0.50200015,-0.7813998
0.32820684,-0.2721303,-0.41865578,-1.4886893,-0.84851694,-0.6717079,-2.0721364,1.2713588,-0.046202213,0.27241054,0.5654326,-1.9236883,0.58026916,0.059690803,-0.80685556,0.48478538,0.9345509,-0.009193266,-3.5432918,0.18555647
1.2836522,-0.13159618,-0.10314187,-0.4266281,0.03127029,-0.17227124,-0.9447327,-0.99639815,0.6348329,-0.94033015,-0.65117323,-0.7675615,0.015462276,-0.9304169,-0.7992104,0.1129664,-1.8211108,0.7603895,-0.47323713,-0.22871749
1.8494155,0.245832,0.5077187,-0.24497642,-0.5192642,0.19713232,-0.7097233,-1.054265,-0.8454761,-0.38048646,1.1080035,-1.2671943,0.5190194,0.44727618,-0.7364563,-0.7084395,0.29505095,-0.3063913,-0.6187603,-0.8557862
-2.1946754,-1.4456979,0.06739985,-0.15459932,1.8762361,-0.24120152,-0.19879997,-0.1276001,-0.9113994,-1.3539991,-1.0803994,-0.9479995,-2.697198,-0.79699963,-0.9453948,-0.9421996,-1.0291991,-1.5945954,-0.7261943,-0.90559965
-2.9380014,-0.9739991,-0.35100022,-0.47400016,-1.1859993,-1.1609973,-0.8929997,-0.4779999,-0.2260001,-0.37200016,-0.604,-0.48300022,-1.0419993,-0.4630002,-1.1139973,-0.68399984,-0.46000025,-1.5089974,-0.6019996,-0.69099987
-0.2882323,-0.44209328,-0.035153456,0.07837134,-0.044571266,-0.39549607,0.968258,-0.72155577,-0.5608687,-1.746748,-1.0587152,-1.1068689,-2.2925045,-1.1383699,-0.674454,-0.9835167,1.0530834,-1.0897461,-0.21368253,-0.56331795
0.8397901,-1.1186463,0.32050887,0.55966514,1.6134738,-0.003738027,-0.008706793,-0.5770236,-0.47623843,-1.8842987,0.0036032628,-1.1775835,-1.3432692,-1.0390407,-0.5610855,-1.0650632,-0.9750626,0.31060538,-0.95515543,-0.07522021
-2.1582994,-1.2003983,-0.44140133,-0.7546,0.9924304,-0.28940868,0.8900268,-0.3070014,-0.9245999,-1.2669994,-1.0891992,-0.8949996,-2.2155979,-1.0455996,-1.0733832,-1.0555996,0.07660039,-2.0177975,-0.32599178,-1.0199996
0.520618,-0.8000054,-0.018465042,1.9209985,-1.1155965,0.09877852,-0.31171986,-0.8667881,0.12637717,-0.7584837,-1.0621828,0.15019427,-0.11490787,0.9252581,-0.341036,-1.0690947,-0.079301864,-0.5044347,0.057186946,-0.5233959
-2.7519658,-2.5037973,-1.1009995,2.6520143,-2.236198,-0.6821659,0.28520063,-1.242175,1.5590364,-1.299998,-1.5451987,0.81581914,-0.52480686,1.886623,-1.7211593,-0.98959833,-1.1291975,-2.3039954,-0.43860352,-0.85559946
-2.2601893,-2.2649977,-0.47120008,2.3288083,-1.953998,-1.230976,-0.9291995,-1.0879897,-0.10600066,-1.3819984,-1.3993992,1.363208,-0.55600184,2.2174127,-1.1395775,-0.8957992,-0.25120017,-2.1501975,-0.41660202,-0.8481998
-2.4901848,-1.9549981,-0.49360046,2.3740098,-2.1099985,-1.2151785,-0.6819999,-1.4595869,-0.21740009,-1.2999977,-1.2549992,1.2904097,-0.4770007,2.4720097,-1.2349758,-1.0189993,-0.16560026,-2.0419981,-0.22920296,-0.75999975
-1.2987481,-2.9518132,-1.6013906,3.3367338,-2.238997,-0.7188266,0.13920286,-1.5244305,0.889737,-1.713787,-1.8742164,0.931642,-0.23104006,2.4996433,-0.9748332,-1.0056993,-0.26220647,-2.0705671,-0.54726565,-1.2086177
-1.3190552,-2.786413,-1.4629922,3.5143368,-2.2707944,-0.53132576,0.3154041,-1.2897297,0.7857462,-1.666986,-1.9170165,0.9864445,-0.28104496,2.7174358,-0.94382495,-0.9556987,-0.54140407,-1.7504662,-0.7302681,-1.078818
-2.1845596,-2.350397,-0.9743984,2.8264115,-2.1179981,-0.77595156,0.22039989,-1.4097675,1.6814378,-1.4569979,-1.6019982,0.37522247,-0.16439934,2.1300266,-1.559143,-0.5459991,-0.9475966,-1.9737921,-0.7236007,-1.0137997
-1.2649331,-0.36109787,0.21759807,1.3161169,-1.5839967,-1.3451632,-0.8010998,-1.3269795,0.04349899,-1.0737969,-1.3124979,-0.8636978,-0.48470217,-0.14530069,-0.93578094,-0.77789843,0.41900367,-1.55459,0.1924008,-0.5728
1.1678176,-0.98014027,-1.0764865,-0.4510898,-0.0033923164,-0.7123421,-1.015183,-0.91014427,-1.5310258,0.5572852,0.25560245,1.256319,0.36463597,-0.46264508,-0.6880614,0.74861526,-1.1587527,0.28318378,-0.4080386,-0.06455654
1.0629048,0.081456825,0.7189491,-0.06360028,0.34784102,-0.6705792,0.6723873,-0.83925796,0.10048781,-1.6455332,-1.8549293,-0.44579208,-1.2002599,-0.5963625,-0.6551974,-0.97920245,-0.2549892,-0.07577818,-0.33226478,-0.5269041
-3.3399975,-1.1699995,-0.68999994,-0.56,-0.9599996,-1.4099993,-0.9699996,-1.0599996,-0.6899999,-0.69999987,-0.7799998,-0.58,-1.2799994,-0.7599998,-1.2599994,-0.8599997,-0.59999996,-1.5999991,-0.8799997,-0.7999998
-2.951997,-0.95519906,-0.39600003,-0.566,-1.2339994,-1.2579979,-1.0259997,-0.9499993,-0.31800017,-0.534,-0.6139997,-0.6039999,-0.49399856,-0.54799986,-1.2699975,-0.6659996,-0.39800018,-1.7135987,-1.0199993,-0.62799996
0.8724245,0.65805143,0.36228856,0.31315136,0.067359604,-0.19220394,-0.27887458,-0.68250895,0.036900066,-1.4665693,-1.1463411,-0.6676539,-0.74649936,-0.06532179,-0.64124423,-0.97728664,0.3173043,-0.3653519,-0.25522542,-0.6940038
-0.56828135,2.09668,-0.48600128,-0.9821991,-0.6459643,-2.462266,-0.26500133,-0.5695779,-0.6851998,-0.7545029,-1.4430975,-0.23770067,-0.7029833,-1.2517992,-0.9545887,-0.6333996,-0.5949994,-0.446816,0.6780075,-0.4732007
-3.2519925,-1.212999,-0.35800168,-0.79599977,0.77600104,-0.69199747,0.15099987,-0.2180031,-0.578,-1.0059997,-0.7219999,-0.7599999,-1.7719989,-0.67199993,-0.8219975,-0.7639999,-1.2159971,-1.7849985,-0.8439989,-0.86999977
0.19328733,1.5697588,0.10495187,-0.55599815,-1.323527,-1.7641797,0.08169826,-0.7340471,-0.23110647,-0.86287516,-1.7456285,-0.8403004,-0.6760898,-1.310534,-0.6592867,-0.66214347,-0.10420062,-0.60898775,0.5451169,-0.7369906
0.50279677,-0.31901613,-0.48697004,-0.18124604,-0.10474125,-0.768594,-0.85581404,-0.9385222,1.390546,-1.171963,-1.0103228,-0.99715376,0.05092865,-0.92059314,-1.1181374,0.9569445,-0.6186306,0.431474,-0.8584208,-0.4064492
-3.0134885,-1.229399,-0.48170254,-0.49560127,1.3870133,-0.2870075,-0.058999702,-0.308601,-0.72899985,-1.0046996,-0.8273998,-0.87519974,-2.0993986,-0.83619976,-0.66199875,-0.83519983,-0.99999636,-1.7443981,-1.0690968,-0.7713998
1.0782348,-0.11213215,-0.560932,-0.42530683,-0.038023174,-0.4704768,-0.81907046,-0.72781265,0.9982182,-1.3226866,-0.9945492,-0.9943715,-0.1549237,-0.56076366,-1.1672052,0.10722849,-0.690777,0.6882229,-0.4308319,-0.15743832
-3.0347962,-0.65899944,-0.23999992,-0.6179999,-1.0539985,-0.86999816,-0.74999946,-0.5219993,-0.63199985,-0.7409998,-0.43500015,-0.595,-1.2089983,-0.6,-0.8319978,-0.67799973,-0.5139995,-1.2779981,-0.4519994,-0.5200001
-2.0373766,-0.78969806,-0.35560006,0.2259992,-1.0961971,-0.7355916,-0.53980047,-0.75739616,-0.5360002,-1.018499,-0.780799,-0.63679975,-1.7907935,-0.64429975,-0.57900375,-1.0114993,1.0746049,-1.4645947,-0.08180116,-0.66650003
-0.59851646,-0.45757473,1.3349965,1.3116094,-0.51559776,-0.24611111,-1.3866943,-0.8132519,-1.7206478,-1.1449808,-1.1844082,-1.3010529,0.5089247,-0.22272173,-1.1677809,-1.5494919,0.1194794,-1.2315091,-0.48714432,-0.6972995
-2.3609085,-1.2075983,0.10151924,1.2820443,-1.3295977,-0.5943974,-1.0271991,-0.683476,-0.85076004,-1.1613989,-1.0981995,-0.55640054,-0.8233577,-0.12740052,-1.19095,-0.8135996,0.6936812,-1.7843971,-0.5146035,-0.6016
0.32477394,0.11062653,-0.27584398,0.6299627,-0.19278143,-1.0632544,-0.41598117,-1.0220624,0.41154015,-0.80514985,-1.7126156,-0.6304611,-0.1829275,-0.4958837,-0.3885765,-0.37953666,0.2757022,-0.49409857,-0.45789745,-0.053439125
-3.0279949,-0.93739945,-0.38800085,-0.16400057,-0.4174022,-0.974995,-0.028000046,-0.4820001,-0.7819997,-0.8949997,-0.82099974,-0.5939999,-1.6689986,-0.54799986,-0.9609952,-0.80599976,0.2639993,-1.6609993,-0.40200195,-0.7329998
0.35395095,-0.2085679,-0.23051031,-0.4384951,-0.24921787,-0.81309,-0.64648694,-0.93936145,1.2024001,-1.0092621,-0.8284237,-0.18804848,-0.2964943,-1.1785856,-1.0955408,0.49060926,-1.0117635,0.77403426,-0.9343364,-0.16965558
-0.512154,-0.2940614,1.26115,-0.22388227,-0.11224056,0.046321597,1.0061237,-0.84421384,-0.27508113,-1.5221918,-1.3791941,-1.3410953,-1.6756644,-1.0312188,-0.985646,-1.013997,-0.3813353,-0.48601833,-0.8055982,-0.5783009
0.30374652,0.033658437,0.5399644,0.11651899,-0.29890126,-0.44194788,0.81280494,-0.75919664,-0.3503523,-1.7449377,-0.3357535,-0.8322133,-1.9799634,-0.6521857,-0.54084224,-1.221514,0.6291886,-0.9537622,-0.18499488,-1.127228
1.6932628,-0.12656763,0.3770365,0.9236089,-0.31440365,0.023729408,-0.71113276,-0.84833646,-0.7338614,-0.14283803,0.18460608,-0.8538133,0.56284964,0.3595947,-0.7432967,-1.2337469,-0.0658059,-0.45481595,0.039573308,-0.5953609
0.8883001,0.45899186,0.36854762,-0.33396807,-0.4021302,0.069931984,-0.5503936,-1.1043211,-0.3691703,0.16678284,1.2173411,-0.943662,0.5596449,0.15323147,-1.1539596,-0.90401024,0.19517627,-0.3563516,-0.5309475,-0.17866449
-2.3343935,-0.5795993,-0.6647998,-0.56,-1.2539994,-1.2485971,-0.8919994,-0.75099933,-0.7319998,-0.08960028,0.30719995,-0.64039963,-0.55899894,-0.5737999,-0.86899763,-0.13600007,-0.80979973,-0.9231966,-1.0479991,-0.604
1.4642813,-0.3889589,-0.5906109,-0.8648582,-0.5352596,-0.6078071,-0.6653761,-1.3371352,-0.44813594,0.21955705,-0.24327184,1.0314336,-0.09908028,-0.95761025,-1.0083565,0.5174408,-1.2188544,0.69091016,-0.6197222,0.14394917
0.5881977,-0.34235707,-0.6659766,-0.73212874,-0.36212415,-0.57778025,-1.6845965,-0.68555737,0.9247156,-0.5409732,-0.501891,-0.7990942,0.2714698,-0.30780438,-1.0265352,0.74990994,-0.9440712,0.700939,-0.9669413,-0.12707199
0.9090694,0.56271297,0.14149827,-0.020104367,-0.47798565,-0.9610936,0.8937302,-0.9989617,-0.08082716,-0.8598965,-1.1058125,-0.52271837,-1.1691273,-1.1553911,-0.4306405,-0.80988115,0.1533178,0.15238827,-0.25362182,-0.18677922
-0.14986843,-0.72958356,0.7753354,1.2036927,-0.28320068,0.00966012,-0.79767406,-0.8945029,-0.6366604,-1.4674256,-1.2042575,-1.1336781,-0.27024403,-0.37958282,-0.6509836,-1.1416353,0.1641181,-0.9227767,-0.483089,-0.6053611
2.32227,-0.69618607,-0.7388849,-0.335151,0.11762415,-0.3710585,-0.7488493,-0.677428,-0.8295863,0.274449,0.44576,0.8509534,0.41842347,-0.5927215,-0.3963252,0.07624926,-1.3584828,0.51829696,-0.10276054,-0.111194864
-0.7856276,-0.53163975,0.18004791,1.4727237,-1.1041139,-0.34367377,-0.91883445,-0.8218218,-0.68093014,-1.2201058,-1.6024193,-0.07421258,-0.5135951,0.06456828,-0.8515106,-0.81338847,0.5303003,-0.9983407,-0.22396557,-0.5887767
-2.6099963,-0.72199947,-0.7599999,-0.61999995,-1.1609994,-1.2179972,-1.0199996,-1.077999,-0.40700024,-0.29300028,-0.70399976,-0.71399987,-0.7269985,-0.65399987,-1.1459972,-0.28599957,-0.73799986,-1.042998,-0.7429997,-0.58999985
0.74983025,0.18962182,-0.6843939,-0.9609963,-0.9604176,-0.89686126,-1.5731981,-0.8568207,-0.27236387,-0.36649412,0.09294156,-0.6084211,0.33459234,-0.9073928,-1.172657,-0.20284136,-0.57019895,0.05676892,-1.0429517,-0.05185928
0.05817127,-0.95577717,-0.79595035,0.28303933,1.6229283,-0.43238235,-0.4209024,-0.37725,-1.4381765,-1.2356681,0.09587955,-0.574357,-2.1245878,-0.9354376,-0.66073745,-0.2931205,-0.01941996,-0.81068844,-1.0229759,-0.17260027
0.3618093,-0.27856886,0.7718403,0.75110847,-1.0002663,-0.35644478,-1.4173903,-1.0565426,-0.82570547,-1.2936434,-1.0857894,-0.9060045,-0.012495322,-0.2651204,-1.0037807,-1.2570893,0.49695686,-0.26225945,-0.49583566,-0.41604948
1.3810624,-0.84524715,-1.2027768,-0.36839926,-0.030667577,-0.64144915,-1.0936869,-1.4236703,-0.9622768,-0.08808862,-0.56475645,0.39708117,0.24871935,-0.9167552,-0.6219882,0.35609755,-0.8502545,0.46626505,-0.3730378,-0.014136074
-1.6509464,0.112618506,-0.63906014,-0.659,-1.0631176,-2.0662668,-0.44499978,-0.56791985,-1.0094988,-0.7064804,1.2951838,-0.19700012,-0.94450706,-0.9925996,-0.59340054,-0.14762127,-0.9029993,1.0703894,-0.54181963,-0.2996206
-2.759995,-1.4267987,-0.5095989,-0.46820053,0.68630815,-0.5998969,0.8007087,-0.4090041,-0.8479998,-1.0339997,-0.6939995,-0.7657999,-1.7319992,-0.6257999,-0.94619054,-0.9219997,-0.10360093,-1.7359986,-1.0685955,-0.84799975
-2.8199973,-0.9649994,-0.85899967,-0.46500012,-1.4019992,-1.0169985,-1.0399995,-0.9229989,-0.7759996,-0.44099993,-0.34800005,-0.4110002,-0.8579984,-0.5220001,-0.90599865,-0.61799955,-0.72499967,-1.1089982,-0.500999,-0.62699986
0.31727278,-1.1770827,0.48537263,0.23883323,2.2013752,0.4930338,0.087698,-0.20442306,-0.8330966,-2.218466,1.1499233,-1.7568724,-1.6666734,-0.8109863,-0.64054495,-1.7370843,-0.7072901,0.07850352,-0.7532658,-0.13480072
-0.7173164,-0.6743977,-0.6396964,-0.45099863,-0.424902,-0.3658959,0.36719814,-0.28799185,-1.1703981,-0.4995968,-1.1458981,-0.80339825,-2.0469882,-0.8273993,-0.68948925,-0.5893998,0.8221033,-1.3323905,-0.42720586,-0.47140056
1.7754673,-0.9966491,-0.7016084,0.35443813,-0.5901013,-0.8938831,-0.57082933,-0.7262973,-0.42271435,0.5484418,-0.5825172,-0.76540077,0.46869734,-0.28409475,-0.42715472,-0.36133662,-0.022149831,-0.81516993,-0.36104885,-0.20487021
0.58041185,-0.9290635,-1.2921317,0.44771862,-0.7524914,-1.7554667,-0.84141755,-0.80197453,0.00332563,0.9097465,-1.4756688,-0.6275807,0.2505753,-0.08486034,-0.70705813,-0.6494844,0.5568804,-0.79759854,-0.035755336,-0.20857939
-2.1719882,-0.36099803,-0.36700037,-0.5750001,-1.1369992,-0.8145936,-0.8929994,-0.22600171,-0.95719886,0.12319946,0.44339922,-0.98239934,0.3079987,-0.20000023,-1.2051936,0.12679994,-0.022000384,-1.4615964,-1.6579973,-0.5363999
-3.351997,-1.0779996,-0.76799977,-0.5599999,-1.0399996,-1.685999,-0.9999996,-1.1799995,-0.61999995,-0.6239999,-0.64599997,-0.578,-1.2579992,-0.52000004,-1.449999,-0.6779999,-0.72399974,-1.4199986,-1.0799996,-0.68599993
-0.21198386,-0.014272782,-0.16150212,-0.41399854,-0.6430389,-1.1793475,-0.7713991,-0.7062727,1.2703665,-0.6687384,-1.4363952,-0.6924827,-0.30136698,-0.6616972,-1.1521902,-0.22629848,-0.36880046,-0.43215814,0.08531734,-0.41480058
2.4326618,-0.486983,-0.40905127,-0.54750454,0.027700644,-0.32342425,-0.90092915,-1.035253,-0.37026727,0.2410726,0.18371533,1.0472751,0.12606555,-0.7635795,-0.48713493,0.49980313,-1.3521175,0.45193842,-0.095086716,-0.3521149
-0.8840371,-1.238997,-0.9752898,0.14029954,0.47410542,-0.15301187,0.90334785,-0.5550839,-1.0311992,-1.3353983,-0.9877994,-0.87819934,-3.0588932,-0.7629987,-0.81819785,-1.0815994,0.86841536,-1.639591,-0.51231074,-0.8576
1.1119933,-0.45348546,-0.28781638,-0.25492877,-0.5370854,-0.31209382,-0.83616406,-0.9516296,-0.34807742,-0.040837996,0.36534098,-0.79830843,0.3735762,-0.4566692,-0.99159205,-0.28394425,-0.01920719,0.16720153,-0.42317224,0.014207613
-0.6992547,-1.0784972,-0.08620304,0.26200014,0.5301965,-0.8085817,0.61221135,-0.63319045,-0.85499877,-1.0099983,-1.0469974,-1.2229989,-2.5529914,-1.0969994,-0.45559415,-0.79899925,0.3259969,-1.6505893,-0.7611841,-0.67399967
-2.947995,-1.0319995,-0.28100047,-0.21000025,-0.92999905,-1.0079961,-0.82799894,-0.48999935,-0.08800004,-0.5960001,-0.77399975,-0.49999988,-0.95799917,-0.32200018,-1.1489953,-0.7079999,-0.53900003,-1.7059975,-0.6179992,-0.6659999
0.6778903,-0.042862207,0.06409816,-0.75061643,-0.49134853,-0.59823346,-0.56419706,-0.81814265,-0.4755216,-0.82005715,1.2037684,0.1901546,-0.9366624,-1.2940953,-0.7151626,-0.70177627,-1.1018173,0.6500052,0.10038744,-0.15389384
1.7947782,-0.12995185,0.4722442,0.24174687,-0.63847107,-0.8731999,-0.616973,-0.60771626,0.5703027,-0.55978614,-0.7207757,-1.1511589,0.20638947,-0.32977054,-0.13959365,-0.62714946,0.14961398,-0.4739625,0.40144238,-0.50988144
-0.13770178,-0.47969964,0.7587436,-0.124194436,-0.96068907,-3.74751,-0.9646976,-0.083096236,1.6704519,-1.3109256,-2.1203525,-1.6146129,0.25304902,-1.5941914,-1.2306896,-0.18521973,1.5334667,-2.0741038,1.173102,-0.8218002
-0.52074915,-0.5700968,0.75591224,-0.60259914,-1.4335947,-4.042426,-1.0153987,-0.3893965,1.8858278,-0.8273328,-1.8057541,-1.5663948,0.3024111,-1.4767951,-1.8380677,0.43496,1.180638,-2.0649395,1.6024033,-0.9486
-0.65119976,-0.616303,0.791407,-0.41979817,-1.213596,-5.34928,-1.2019988,-0.6943986,1.4852616,-0.96115357,-1.9389361,-1.5488775,0.5118322,-1.5175976,-1.9351329,0.36551923,1.6162405,-2.7897441,1.6160455,-0.64080054
-0.53334814,-0.9239788,0.73631185,-0.699995,-1.1439955,-5.2162585,-1.2689977,-0.29079956,1.6634475,-0.9579684,-1.8468565,-1.6260569,0.46523172,-1.4511969,-1.9037362,0.20994039,1.3972347,-2.6497626,1.7923154,-0.79880023
-0.22651574,-0.9315,-0.6095672,0.6998503,1.9105209,-0.38681942,-0.38078818,0.107864395,-1.0207989,-1.7377944,0.37387878,-1.0498376,-2.539142,-1.456278,-0.6124868,-0.7998785,0.09472196,-0.39782703,-1.5516752,-0.5150805
-3.1779943,-1.272999,0.1768997,-0.46500045,0.37739915,-0.8495169,0.21400014,-0.20300156,-0.7459999,-0.89199966,-0.7599999,-0.66599995,-1.7379988,-0.61999995,-0.9760559,-0.81199986,-1.2101184,-1.6597989,-0.78399885,-0.53200006
-1.4715335,-0.87401885,-0.09039847,-0.03099906,1.1532378,-0.2851374,1.3370613,-0.44200876,-0.95054,-1.5461386,-0.9178393,-0.97621936,-2.9519763,-0.83259976,-0.69228053,-0.85633963,-0.40612593,-1.8943353,-0.33520296,-0.8681996
-1.9525254,-1.035398,0.26339662,0.1483985,0.8946329,-0.17320853,0.72252375,-0.4271071,-1.1063994,-1.149999,-0.98639905,-0.9759997,-2.6283963,-0.96399933,-0.9807887,-0.9093996,-0.7367978,-1.9961956,-0.747094,-0.7639995
1.9539205,-0.79773873,-0.5574228,-0.17912756,0.41296092,-0.41118893,-1.027786,-1.0374709,-0.7455281,-0.25569844,0.022500955,0.6896821,0.58415926,-1.0845807,-0.6245713,1.0437186,-0.22736074,0.0682047,-0.6086664,-0.57746726
1.1094875,-0.9221194,-0.70207,-0.48439896,-0.19414586,-0.52780986,-1.2141905,-0.9214849,0.19200549,-0.5058282,-0.60292554,-0.06532763,0.14618158,-1.5258459,-1.3089633,0.77713555,-1.1467868,0.83536446,-0.6676963,-0.16519865
0.7568765,-0.51517427,-0.9579717,-0.09942025,-0.36318442,-0.85620475,-1.6012332,-0.42106757,-0.1717606,0.73088145,0.076683626,0.26547673,0.8007887,-0.023183862,-1.0089574,0.45060474,-0.91512275,-0.18614015,-0.57432723,-0.18388838
-0.24599135,0.74658155,0.8226558,-0.84695363,-0.48948023,0.27695054,-1.5441929,-1.079339,-1.5716695,-0.879034,1.8874744,-0.7392872,0.56093645,0.18029383,-1.1385539,-0.8198399,1.1462784,-0.93140537,-1.223703,-0.07391944
-2.8289988,-1.0413986,0.081392355,-0.79468036,1.2593455,-1.361659,-0.09601232,0.32831797,-0.618336,-0.9749996,-0.672,-0.85399985,-2.0886664,-0.8006679,-0.63668203,-0.80599976,-1.2386652,-1.5119977,-0.5220066,-0.7499999
0.252005,1.1271676,-0.5070609,-0.95311886,-0.2802994,-1.394017,0.4384422,-0.3437898,-1.1769544,-0.7867041,-0.9908977,-0.72459465,-1.6239622,-0.98506296,-0.6665455,-0.22306931,-0.72097516,0.035055935,0.062190793,-0.5150638
-1.9624665,-1.066399,-0.35180014,0.23729958,1.5290232,-0.7115014,-0.31529894,-0.119502574,-0.93599945,-1.0879992,-0.52359957,-0.8077995,-2.3049972,-0.7799998,-0.7573968,-0.9889995,-0.9362989,-1.5765946,-0.5687949,-0.5550001
-2.0062747,-0.6942772,0.16223887,-0.3037607,0.40861267,-0.6062527,0.8049534,-0.46776578,-0.7286001,-1.3429992,-1.1189989,-1.1269996,-2.8001971,-0.9319995,-0.434273,-0.8273994,0.37233192,-1.5785948,-0.40827692,-0.85699964
-0.8202514,-1.3608729,0.12593146,2.1621883,-0.7245836,0.050594844,-0.27200076,-0.54747015,0.3358828,-1.1082498,-1.1725639,-0.7240602,-0.18189959,0.26192957,-0.687552,-0.7938514,-0.38514513,-0.9042648,-0.43337843,-0.007961667
0.1470206,-1.5104374,0.6172294,1.7813722,-0.34306532,0.028038224,-0.41956195,-0.9920433,0.03317258,-1.9875888,-1.0677133,-0.9112584,-0.7255675,0.014512691,-0.65914035,-1.0313315,0.4789132,-0.7058896,-0.0965326,-0.306282
0.28952315,-0.33376217,-0.3165829,-0.05670456,0.79599404,-0.4899028,0.96183866,-0.18731067,-0.7568874,-1.8783844,-1.3502855,-1.3392898,-2.4987733,-0.8311904,0.1001207,-1.1432966,1.2513872,-1.5314075,-0.38718417,-1.1054984
0.46269333,-0.97809106,-0.27784422,0.96150607,0.08196317,-0.4898486,-0.7597004,-1.0066721,-0.3253369,-0.81001437,-1.710521,-0.22909984,-0.41204214,-0.4178632,-0.41021633,-0.4865813,0.3326012,-0.22571912,-0.29130265,-0.047959104
0.44312945,0.071189314,-0.93808377,-0.6381099,-0.51256645,-1.0733055,-1.3611374,-0.7955841,-0.33162075,0.9004426,0.32601744,0.47531885,0.5418053,-0.8311532,-0.9397928,0.31496826,-0.8549288,0.4236536,-0.9355727,0.08831486
-3.4899971,-1.1459993,-0.81599975,-0.45000014,-1.1599995,-1.5479991,-0.93999964,-1.1199995,-0.6799999,-0.6759998,-0.7799998,-0.56,-1.1859992,-0.50000006,-1.5599991,-0.6759998,-0.6499999,-1.557999,-1.0659995,-0.54
-0.7289701,-1.1070567,-0.922827,0.24446052,1.4211292,-0.4439239,1.0160713,-0.46881446,-0.87579864,-1.605798,-1.3022984,-1.2285993,-2.952894,-1.0703984,-0.85850406,-1.0659993,0.5157973,-1.7263688,-0.61918133,-0.9298996
-0.67950046,0.30691758,-0.4236408,-0.69509774,0.24293976,-0.32791612,-0.5637006,-0.74580866,-1.8268949,0.30659828,-0.7833991,-0.25976142,-1.2822618,-0.26518244,-0.65621185,-0.2866197,1.1468374,-1.1603885,-0.079049245,-0.13466066
-3.487596,-1.1959995,-0.48000053,-0.23479983,0.16560034,-0.8939979,0.36579883,-0.14400092,-0.77199984,-0.8799997,-0.7339998,-0.7235999,-1.9179988,-0.64959985,-0.9619973,-0.8679997,-0.7791992,-1.661999,-0.5187989,-0.7999998
-0.8101399,-0.23725772,0.6571368,0.044734307,0.74273115,-0.20934561,0.5335001,-0.66557056,-0.5203992,-1.3153975,-1.0442982,-0.9925992,-2.561152,-0.7848795,-1.23128,-0.98757887,-1.2458941,-0.37395376,-0.8140887,-0.6693793
1.2788186,-0.8614957,-0.5089626,-0.68596405,0.08924592,-0.6552428,-0.96132904,-1.4080418,0.67406535,-0.36986002,-0.23648407,1.0453067,-0.08055107,-1.6645521,-1.2503581,1.0168085,-1.6705748,0.8337863,-0.7605727,0.12760276
-0.4832424,0.5008943,0.24726018,0.3681184,-0.8501578,-0.685968,0.09560043,-1.5992994,0.00487859,-1.0755904,-1.2534945,-0.9979991,-1.0137429,-0.54272115,-0.7282681,-0.08896247,0.5099567,-0.5832574,-0.04349941,-0.5885601
-1.1958812,-0.5410968,0.44821012,-0.5378023,1.2090976,-0.116398826,1.3142774,-0.24360035,-1.1025989,-1.7921964,-1.0061973,-1.0939977,-3.163793,-0.82279897,-1.2791268,-1.0183995,0.032900345,-1.3457943,-0.48138437,-0.98619956
-0.2624986,-0.39616016,-0.4981965,-0.6859989,-0.069800936,-0.5737778,-1.1369975,-1.8009706,1.1195384,-1.085808,-1.299949,-0.516603,-0.53484863,-1.0141989,-1.0028733,-0.23339948,-1.040599,-0.4007107,-0.5712474,0.014802258
-1.219262,-0.47882056,0.6229987,0.26469788,-1.7246972,-0.25914684,-1.0981985,-0.67349964,-0.90579903,-0.77979636,-0.7578166,-0.5431995,-0.019999444,-0.17511977,-0.8782193,-0.5279211,0.16850033,-1.1279492,-0.9156916,-0.5548001
-2.9837935,-1.2146792,0.27899918,-0.2510007,0.73963916,-0.40562233,0.19699958,-0.5441213,-0.43454024,-0.8933596,-0.7183597,-0.6400399,-1.8317189,-0.7869998,-1.1297945,-0.8130397,-1.1439983,-1.7064383,-1.3122969,-0.7509998
2.0770242,-0.5893572,-0.08585918,-0.67963344,0.20257172,-0.13802403,-1.1086862,-1.1620779,0.37724987,-1.0170033,-0.04446104,-0.6324443,0.09976144,-0.8767104,-0.6452525,-0.037210748,-1.3667678,0.7815745,-0.19481616,-0.67016387
0.59541094,-0.59519476,0.8472411,0.40019774,0.30785003,0.24201961,1.110753,-0.7010279,-0.48306596,-1.859116,0.31932965,-1.0463612,-1.6406697,-1.0553282,-0.8243142,-1.5935026,-1.1056957,0.31222612,-0.4513123,-0.10599907
-1.3363599,-0.8498769,0.3713969,0.2783994,0.9363079,-0.22533078,1.3060583,-0.8730866,-0.31510088,-1.2917993,-1.0509989,-1.0637991,-2.3497977,-0.89249915,-0.76592165,-1.0690994,-0.61959857,-1.7989526,-1.0789865,-0.8265997
2.0517926,-0.65629846,-0.64261687,-0.22636111,-0.07871954,-0.33337104,-1.3063412,-0.8295435,-0.17321238,0.006624056,-0.60257155,0.5619776,0.5541946,-0.49285716,-0.4928413,0.4695817,-0.31633335,0.09621048,-0.5295101,-0.37187204
-1.5085763,-1.363438,-1.2828889,0.16530465,1.6325918,0.00607347,1.2135433,-0.5183004,-0.6427994,-1.2225995,-0.8165994,-0.89179945,-2.6167977,-0.8405996,-1.0090998,-1.2981993,-0.45480278,-1.9585764,-1.1338855,-0.78719985
-1.7378473,-0.87609845,-0.6051018,0.105700254,-0.16660056,-0.8564931,0.6185081,-0.35250318,-0.7669999,-1.3069988,-1.3059994,-0.75999993,-2.4933958,-0.8290998,-0.6890956,-1.0359994,0.80230784,-2.2714972,-0.63479614,-0.7999997
1.6209171,-0.5013226,-0.3486379,-0.8513302,-0.20579216,-0.43975747,-1.68346,-0.845197,-0.42764026,0.21879843,0.55767035,-0.3209407,0.2609434,0.07831967,-0.63925683,-0.27642846,-1.0870949,0.41888946,-0.27068037,-0.25404334
2.6866446,-0.5795184,0.14345114,-0.76579386,0.10337876,-0.15454386,-0.7380805,-0.93709487,0.23370989,-0.39556727,0.26742297,0.21437696,0.10379305,-0.42390883,-0.25262937,0.22188184,-1.1841848,0.7093699,-0.3893746,-0.5072409
1.8245288,-0.4619411,-0.5558362,-0.31746832,-0.043975614,-0.16627407,-0.66152745,-0.9783683,0.51013714,-0.6031755,-0.10163293,-0.57340205,0.24928775,-0.25682577,-0.584142,0.43360326,-0.50176114,0.28446102,-0.37153193,-0.5296046
0.368044,-0.44354433,-0.4718897,0.19268064,-0.5631288,-0.5411178,-1.8105943,-0.6212294,-0.69963473,0.42064837,-0.4682775,-0.93411106,0.47200686,-0.04088845,-1.0637603,-0.058622077,-0.7624323,-0.48548973,-0.4788737,-0.30559456
-1.9703708,-1.3357978,-0.64679706,-0.5058007,0.27799574,0.007599864,0.9990218,-0.68980086,-1.0409994,-1.0889994,-0.9799996,-1.0089996,-2.4665973,-1.0429996,-0.98599005,-0.9309996,0.7632024,-1.9293963,-0.45280564,-0.66899985
1.3564445,-0.22173612,-0.49050575,-0.45628947,-0.25213727,-0.6763719,-1.2564757,-0.70893914,0.7695306,-0.6339051,-0.44092757,-1.1323239,0.78249836,-0.8590173,-0.8975672,0.68964624,-0.833032,0.25773808,-0.7828179,-0.34189245
0.11587538,-1.2234026,-0.91638684,0.46792734,-0.19289999,-0.7237082,-0.64072067,-0.892589,-0.52711594,-0.32985705,-1.008309,-0.17706326,-0.6087667,-0.7416173,-1.0663258,0.45155987,-0.50233525,0.43956074,-0.19361573,0.0012598671
-1.3966208,-1.1501834,-1.2397135,0.11546667,1.6278906,-0.29222444,1.4105823,-0.691788,-0.73728055,-1.4438255,-1.0616258,-0.9464263,-2.6755552,-0.97902614,-1.000616,-0.87782615,-0.41502723,-1.6869934,-0.76762277,-1.0423994
1.1341388,0.13772248,-0.6071475,-0.80137384,-0.0702526,-0.8198549,-0.20955718,-0.5823889,0.40268594,-0.7184009,-1.4506861,-0.85012203,-0.24584058,-1.3202213,-0.98352927,0.26642805,-1.2391031,0.6374803,-0.48078153,-0.32710084
0.8279155,-0.8767381,-0.75430214,0.093641,0.7621629,-0.67715424,0.93082345,-0.93668634,-1.4085903,-1.6187882,-1.1504921,-1.3529948,-2.7119892,-1.5426966,-0.24104238,-0.8940968,0.833464,-0.86751026,-0.5531155,-0.49842066
-0.14322463,-0.48320648,1.7456183,1.0417887,-0.9856621,-0.4019767,-0.89239204,-1.0366445,-0.59920436,-2.0213275,-1.3650604,-1.3992307,0.026757851,-0.37930453,-1.0265819,-1.1733118,0.05895287,-0.7955818,-0.47625056,-0.7915796
-0.24592185,-0.1643987,-0.3571069,-0.4528012,0.9894502,-0.50361115,0.9987728,-0.3852083,-1.2986971,-1.4825964,-1.2371968,-1.3731972,-3.5718927,-1.0844984,-0.66597587,-1.1011983,0.5834961,-1.6865914,-0.5567971,-0.8795997
1.3608668,-0.036160186,0.1977517,-0.4153354,-0.14262532,-0.41191587,-0.2653481,-0.7042684,0.4393585,-1.7862442,-1.5675683,-1.23997,-0.45888358,-0.72144556,-0.9787198,-0.0065445583,-1.0265214,0.088163465,-0.71476877,-0.41659984
-2.2817926,-1.1299995,-0.4619994,-0.20700029,0.50899917,-0.7719979,0.0540001,-1.0779988,-0.7199998,-0.8839997,-0.7079999,-0.6659999,-1.7859985,-0.72999984,-1.1079978,-0.8759997,-0.8609993,-1.8139985,-1.0699983,-0.7599998
-2.13237,-1.0912586,0.32751587,-0.0100009395,1.00873,-0.56142914,0.33199427,-0.15208007,-0.8059999,-1.3919988,-1.0409993,-0.92399955,-2.371357,-0.95167965,-0.6725972,-1.0106795,-0.64039725,-1.7281555,-0.7843909,-0.7366799
-0.58063555,-0.86588806,-0.8424979,0.08859976,1.329181,-0.6510052,-0.6224962,-0.5117963,-1.1977973,-0.94419706,-0.34680074,-0.78919786,-1.9453816,-0.7815987,-0.77329206,0.034098774,0.1302007,-0.8602589,-0.63278913,-0.4044006
-3.4449964,-1.301999,0.07959992,-0.7322,0.17400008,-0.86679673,0.15099977,-0.50760084,-0.71599984,-0.91999966,-0.8799997,-0.7939998,-1.8279986,-0.8799997,-0.7769978,-1.0939995,-1.1739985,-1.4835987,-0.81239927,-0.69399995
-2.0410273,-0.916398,0.33589894,0.29429945,-1.238398,-0.5897973,-0.96009916,-0.6578977,-0.10340042,-1.4059987,-0.89839876,-0.7809993,-0.84050053,-0.31700045,-0.7219911,-0.7759984,-0.5765009,-1.3097943,-0.6953974,-0.48140028
-0.4398994,-0.9077119,0.33016038,2.0047455,-1.3732482,-0.010195524,-0.50390464,-0.96197027,0.0010272935,-1.7782763,-1.481962,-0.6938244,-0.18938023,0.19490682,-0.9939427,-1.5700527,0.32316628,-0.9717255,-0.09719433,-0.39078405
-0.07435234,-0.52866805,0.27207735,0.11771932,1.3278689,-0.7963942,0.38939816,-0.25539988,-0.44933763,-1.2221725,-1.4059764,-1.2553968,-2.4463031,-1.2240978,-0.9298719,-0.8948373,-0.24559915,-0.41539383,-1.0174377,-0.7912998
0.9780306,-0.5291079,-0.5052121,-0.64169544,-0.11439723,-0.3367753,-0.62859625,-1.2427754,0.9596816,-0.34098172,-0.73460644,-0.35546044,-0.18395993,-1.1604782,-1.2789426,0.4866255,-1.4644916,0.76416343,-0.9066459,-0.030879773
-0.44067016,-1.1491896,0.11066122,0.18037486,2.5801272,-0.13035984,-0.21659298,-0.24041717,-1.1356341,-1.3460306,0.87146693,-0.8169386,-2.15746,-1.5006067,-0.821393,-0.9846991,-0.68121535,-0.113648295,-1.1572281,-0.11214389
-0.15389585,-0.029618457,0.29439345,-0.45100415,0.4365024,-0.53636914,1.240638,-0.24707651,-0.4477029,-1.5810907,-1.4796909,-0.92119586,-2.2106671,-0.9143964,-0.49234053,-0.9688975,1.0974345,-1.2459261,-0.6299874,-0.7704992
-2.3736806,-0.77159864,1.0301086,-0.7469004,-0.02980069,-0.7849915,0.6883095,-0.58420295,-0.93639946,-1.0993993,-1.0117997,-0.7773998,-2.2307968,-0.7599997,-1.0537933,-1.0143995,-0.08460014,-1.9331971,-0.14590302,-0.79339975
-0.8465882,-0.37255913,1.3183339,-0.002601021,0.7129704,-0.32570103,1.0119855,-0.52202517,-0.48265758,-2.1861975,-1.1543163,-1.462298,-2.7218049,-1.2715771,-0.68434346,-1.2583786,-0.19706216,-1.0912318,-0.19366677,-1.117079
-0.5563949,0.90644985,0.524442,-0.69704413,-0.1709534,0.7914823,-1.5760936,-1.491417,-1.3261307,-0.7263587,2.0866737,-0.6312102,0.79025346,0.20950334,-1.5746498,-0.9174419,0.7679614,-0.73365396,-0.86995304,0.037450504
-2.273987,-0.090999104,-0.18800057,-0.7969995,-1.0169986,-1.2179945,-1.0069993,-0.9339983,-0.82299995,-0.023000432,-0.52300036,0.019999702,-0.6879961,-0.12800017,-0.47499967,-0.6029992,-0.29500064,-0.3899968,-0.40099946,-0.5020001
-1.6949648,-0.745299,-0.96999943,-0.6119999,-1.2279989,-1.1534901,-1.1589994,-1.0281981,-0.45899948,0.49529895,-0.3853008,-0.7962995,0.45779875,-0.40140048,-1.6813867,0.3796994,-0.6180001,-0.43560126,-1.0539967,-0.4343005
1.006605,-0.28667206,-0.58031154,-1.2671076,-0.8111346,-0.9147343,-2.035495,1.1815102,-0.101584025,0.052957825,0.28296822,-2.2345028,0.8675388,-0.03446073,-0.67862046,0.68067217,0.67643225,-0.41550726,-3.6585171,0.049201097
