0,1,2,3,4,5,6,7,8,9,10,11,12,13,14,15,16,17,18,19
-2.1890156,1.843991,0.015249126,-0.8789985,-0.7854946,-2.470496,0.30499956,-0.03224993,-0.9257459,-1.4739985,1.7462466,-0.3365002,-2.5800016,-0.44350022,-1.34399,-0.668499,-1.3524992,0.97126514,-0.84673226,-0.5360002
1.4253697,0.25586042,-0.06826455,-0.5390435,-0.1598709,-1.2004186,0.7848451,-0.011484672,-0.5110157,-0.9098717,1.5576234,1.0120775,-1.4480029,-0.9450957,-0.86411613,-0.9923702,-1.1510261,0.9309729,0.022563558,-0.292828
-0.46238405,0.9635604,-0.06585073,-0.78506446,-0.63544995,-2.2283869,1.0231313,0.42905656,0.7515857,-2.0189931,0.81516856,-0.6315995,-2.4556897,-1.323999,-1.2956502,-0.38715112,-1.8729951,0.4605782,-0.030200377,-0.3686001
-1.9393705,1.3029429,-0.07954936,-0.945099,-0.7099924,-2.0842917,0.17994897,0.1974978,-1.0060991,-1.5122964,2.6398141,1.6058985,-2.0563924,-0.54959995,-1.2921768,-1.3161986,-1.5129983,1.1244968,-1.037766,-0.55100054
-0.012457473,0.7482949,0.10939905,-0.67922664,-0.7325322,-2.4286878,0.95378613,0.19614768,-0.36709166,-1.5779778,1.578626,-0.023138143,-1.8008987,-1.7310975,-1.3093063,-0.91470736,-1.8613446,0.7830143,0.0008466244,-0.40830132
-0.2545748,0.78595304,-0.08542352,-0.8279068,-0.42830443,-2.6490457,1.0831335,0.34189928,-0.4697531,-1.2215878,1.6480947,0.8013064,-1.9052007,-1.3450183,-1.5352141,-0.91969204,-1.9483968,0.75112766,0.16399673,-0.18922096
-0.5795584,1.1507261,0.08094898,-1.2354983,-0.65328234,-2.0063791,0.68676347,-0.39169833,-0.59419286,-1.1631953,1.076221,-0.16560057,-2.0875964,-0.83789915,-1.4855233,-1.0255972,-1.5008986,0.3822175,0.14849892,-0.48650017
-0.13194613,-0.08776975,-0.14967738,0.26420444,1.242567,-0.11166567,0.4268445,-0.13344127,0.08499946,-1.527931,-0.7234806,-1.0450959,-1.5766269,-0.71323055,-0.72063404,0.09790212,0.18201312,-0.3295863,-1.171197,-0.47464132
-1.3683504,-0.24799441,-1.1763767,-0.8185976,0.0194783,-1.1472855,-1.118394,0.10614586,-1.4769994,0.02627892,-1.0093371,-0.45098072,-1.6435654,-0.3257801,-0.5199811,0.32125995,0.79423,-1.3440605,-0.12525722,-0.48930022
0.2690104,-0.046550132,-0.00040703453,-0.63678235,-0.20637839,-0.80489165,0.065424636,-0.624647,-0.8242831,-1.0435933,-0.9980875,-0.62389416,-1.629673,-0.6946949,-0.59672153,0.4084008,1.186104,-1.1053089,-0.78988,-0.31730127
2.4191587,0.28956053,-0.34903866,-0.8079971,0.030529832,-0.5040425,-0.20650704,-0.67139953,-0.5222566,-0.18350773,0.104320295,-0.119439274,0.03046851,-0.3613458,-0.6056867,-0.19479299,-0.52626157,0.04829757,-0.24193943,-0.43456942
0.7455876,0.8549935,1.302077,-0.4054102,-0.7567136,-0.6042195,1.3029417,-1.0495628,-0.120216124,-2.5421162,-1.0956324,-1.0175999,-1.5910623,0.24779128,-0.5728502,-1.6186424,-0.77633613,0.5391401,-0.18032458,-0.7767406
-2.535878,-1.0701966,0.22749919,2.2768958,-2.3538988,-0.60756713,-0.13449901,-0.91558194,0.1756018,-1.715399,-1.3020993,-0.124900244,-0.7184888,1.0381125,-1.7609755,-1.0277997,0.25429967,-2.1182969,0.11060128,-0.7449998
0.12577699,-0.54889524,0.32160684,-0.1316726,0.874723,-0.6938932,0.5728913,-0.7117197,-0.84835184,-1.9841921,0.27874857,-1.8572493,-2.0074887,-0.586912,-0.38603574,-1.6993853,1.0779254,-0.83477527,0.12924941,-1.0761378
-1.9589959,-0.44624743,-0.21700144,-0.19300011,-0.61599576,-1.4624994,-1.2704995,-0.18399861,-0.64249814,-0.72599906,-1.2124996,-0.49550018,-1.3817458,-0.66899943,-0.5989804,-0.92799944,0.5470012,-1.3884959,-0.2477492,-0.61899996
0.4447109,0.5296947,0.71591145,-0.033476397,-0.22939289,-0.6342898,0.9004598,-0.8994953,0.20797972,-2.3264258,-0.7914264,-1.5774864,-1.6837224,-0.7436107,-0.90657216,-1.1687958,-1.061715,0.8543396,-0.4796613,-0.59850156
-0.9102201,-0.551855,0.19430114,1.222336,-0.7497713,-0.3288573,-0.17667928,-0.6336996,-0.60167354,-1.3317878,-0.8828798,-0.6658577,-1.1936811,-0.64778954,-0.9638346,-1.0691985,0.80652434,-0.87097925,-0.31410605,-0.65095973
-1.4649131,0.22750345,0.22194903,-0.99269783,-1.3303002,-0.78630614,-1.6671991,-0.27049434,-1.3611953,-0.28844655,2.101822,-1.1688474,0.5940462,0.28030095,-1.6129844,0.43625274,0.8188597,-1.2268221,-2.0419347,-0.18660031
0.47871572,-0.970104,-0.8119226,-0.15758345,-0.059796654,0.3418565,1.0901337,-1.5727465,-1.3109268,-0.68674356,-0.8985158,-1.0798148,-2.327604,-0.44898954,-0.46373233,-0.20316334,1.5374384,-1.1754503,-0.08568923,-0.5263996
-0.3922091,-1.4114974,-1.7711899,-0.84864676,-1.0987899,1.2387335,1.4812344,-2.7737865,-1.6498984,-1.2189989,-1.2929995,-0.961499,-3.7059917,-1.5798987,-1.6972631,-0.5459991,2.1909366,-2.394195,0.3650631,-0.94659966
-0.6476152,-1.3608987,-1.7464923,-0.7749438,-1.1945146,1.4289235,1.5509588,-3.2293065,-1.4748995,-1.5059986,-1.4629989,-1.1002994,-3.6461957,-1.3964992,-2.2475047,-0.78599954,2.1841743,-2.603796,0.6234904,-1.0181996
-1.0256836,-1.768098,-2.4180932,-1.1561983,-1.1059856,1.2664504,1.1435037,-3.1697736,-1.3213991,-1.2854991,-1.3369992,-0.9744995,-3.5439966,-1.1844993,-2.4739606,-0.9099995,2.474493,-2.3891969,0.46200275,-0.9199997
-2.7190099,-0.6338981,0.84660506,-0.4727001,-1.6339971,-0.70538485,-1.5939997,-0.7151886,-0.2022002,-0.92419916,-0.5064,-0.54840016,-0.19450302,-0.6439,-0.7487797,-0.57904863,-0.74499786,-1.5127945,-0.6398939,-0.4197002
-2.904995,-0.40389878,-0.63599926,-0.8044991,-1.5589991,-0.9844943,-1.2499994,-0.12079999,0.7188015,-0.28680015,-0.15680078,-0.61200017,-0.567594,-0.456,-1.124692,0.2744009,-0.61499906,-0.7152936,-1.3474964,-0.6443999
-0.052600622,-0.23800638,-0.50987387,-0.2156867,-0.047545165,-0.49611923,0.9380543,-0.42243278,-1.0897838,-1.0084912,-1.3824936,-0.8716957,-2.3970807,-1.3200959,-0.54412556,-0.3070928,1.3464798,-1.6571121,0.04517158,-0.42510104
-0.12609762,-0.6128441,-1.061533,0.029499533,0.31389397,-1.3945392,1.3002195,-0.6731972,-1.185199,-1.7119985,-1.3819983,-1.1954994,-3.8964944,-1.3259984,-0.79961884,-0.9809993,0.8885592,-2.1438906,0.06266208,-0.7759998
-2.643304,-0.79939824,-0.50784713,-0.44689912,1.4899018,-0.33158374,0.4649042,-0.332198,-0.6589997,-1.1529995,-0.71649903,-0.7959999,-2.671998,-0.8539998,-1.1764786,-0.8883997,-1.2214481,-1.7423978,-0.26478702,-0.84799963
1.1333314,0.3248933,-0.64152426,0.6620238,0.3554185,-0.38087073,-0.07573276,-0.5325941,-0.6600588,-1.5234772,-1.5242106,-1.2286199,-0.9276399,-0.40150315,-0.5497254,0.5662637,0.7581874,-0.66161937,-0.6920798,-0.17969887
-0.9115948,-1.2787982,-1.0635891,-0.84179467,-0.43144313,0.7731497,1.2513555,-2.286923,-1.3269993,-1.0764985,-1.1562973,-0.9723993,-2.9404898,-1.4359989,-1.5816556,-0.89039963,1.5450969,-2.235194,0.22504605,-0.6600001
-1.5785077,-1.6899984,-1.776298,-1.5504994,-0.8449844,0.9170078,1.0590229,-2.9149995,-1.2769995,-1.0099996,-1.0109996,-0.8879998,-2.462998,-1.0859996,-2.1283927,-0.9949997,2.0904713,-2.059798,0.2418007,-0.7019999
1.6449319,-0.7038298,-0.6479808,0.018553305,0.23297596,-0.2572855,-0.6139107,-0.88221806,-1.5272231,0.26673526,0.22025204,-0.16301623,0.12197672,-0.73609436,-0.44737107,0.2651023,-0.39783415,-0.21719676,-0.20338675,-0.29290017
-0.07875335,0.13776404,0.9535837,0.9930502,-0.36823618,-0.5700287,-0.4780783,-0.6467595,-0.52941376,-0.8689903,-0.8902076,-1.0174297,-0.058886964,-0.38380447,-0.69739896,-1.7447847,0.7851705,-0.704851,-0.16745262,-0.4971029
-3.5789962,-1.0419997,-0.86399883,-0.6529998,-0.28399864,-0.9829995,-0.30099952,-0.87599844,-0.67299986,-0.80999976,-0.78399974,-0.6499999,-1.5719991,-0.622,-1.3459985,-0.8619997,-0.52299917,-1.7259988,-0.79799855,-0.69999987
-0.6556015,-0.01869349,-1.2121515,-1.2057377,-0.84961975,-0.9106136,-1.5899979,-0.45828357,0.22330269,0.335979,-0.26196322,1.253787,-0.22350745,0.077477075,-1.551021,0.86984664,-0.85949683,0.1609295,-0.6182162,0.07038037
-0.3720185,-0.36253735,-1.0129964,-0.77414787,-1.3460485,-1.3361976,-1.2769983,-0.70606875,-0.6060875,-0.40375227,-0.5313936,-0.4528492,-0.026653817,-0.9645989,-1.7139399,0.4619014,-0.8571983,0.022950662,-0.39103645,0.15410024
0.20555009,-0.29809317,0.78647333,1.6974628,-0.66500837,-0.18078591,-0.81835777,-0.59158653,-0.20287494,-1.1172389,-1.0992252,-1.1047444,0.16658829,-0.34128577,-0.4880978,-2.1734633,0.38706023,-0.11877617,-0.30473563,-0.21950117
-1.4483242,0.13935937,0.8197291,2.094585,-1.5219927,-0.7675284,-1.1573966,-0.6391132,0.36806548,-1.9108928,-1.6730964,-1.7247914,0.0009089932,-0.53529304,-0.7761586,-1.6597975,0.46921563,-0.83918476,-0.5066806,-0.41500065
-0.7753135,-0.5875943,0.38614202,0.37548873,-0.078475304,-0.15933941,0.58437294,-0.7280648,-0.24465151,-1.54759,-0.9655934,-1.1916976,-1.3453134,-0.81299347,-0.7220047,-0.6715945,0.57388,-0.892626,-0.61507744,-0.6819999
2.028473,-0.122350484,-0.5250156,-0.4108833,-0.29467434,-0.19532064,-1.0973324,-0.43362662,0.078143895,0.46647888,-0.08584228,-0.10083318,0.44246215,0.013281353,-0.53452975,0.0006521372,-0.517297,0.022442099,-0.2024281,-0.50236195
-0.75335294,0.13082954,-0.008800517,-0.47088334,-0.8444297,-0.37092122,-1.2329968,-0.7473531,1.581523,-0.15003048,-1.0544269,-1.033299,-0.4084236,-0.52561563,-0.8377275,-0.12479767,-0.60181016,-0.18491815,-0.8597151,-0.52244
-0.43610227,-0.3051298,-1.1452805,-0.010939056,1.9903202,-0.5633812,1.1634687,-0.41804457,-1.2189983,-2.0479875,-0.6238818,-1.3853381,-3.5900269,-1.3213989,-0.8944334,-1.1059983,-0.20727664,-1.2485849,-0.6110001,-0.9165996
0.7802676,0.5701791,0.5264262,-0.98625416,-0.23415202,-0.26277164,-0.9794811,-1.3248577,-0.89325994,-0.69810385,0.89708304,-1.507388,0.17079334,0.3482267,-1.0928159,-0.77555406,-0.048698157,-0.47975093,-0.42114124,-0.22779904
0.6039348,0.23120703,0.6428399,0.40625465,0.42697313,-0.17028765,0.5712382,-0.6382827,0.03107532,-1.6030637,-0.71916234,-1.1489531,-1.5469122,-0.2744509,-0.605622,-1.7062048,-0.67030096,0.44201818,-0.7154098,-0.14227922
-2.215693,-1.0997987,0.03629759,-0.32434738,1.9415616,-0.89646566,0.12965032,-0.15929893,-0.7599988,-1.5167987,0.9150035,-0.94599956,-3.1125972,-0.85309964,-1.0616117,-1.0939996,-1.2264948,-1.2340976,0.033257745,-0.6089999
0.12999752,-0.9346,-0.59208,-0.32731125,-0.48564184,-1.065151,-1.2097745,-0.38423216,-0.38292363,0.041582536,0.99760187,2.0944092,-0.23678155,-0.5832685,-1.0368598,-0.27458206,-1.87758,0.69841707,-0.28610322,0.17888929
-4.222001,-1.2519994,-0.43000004,-0.77499974,-0.45299852,-0.99849916,-0.8309982,-0.21499935,-0.595,-0.6899999,-0.55599993,-0.54,-1.639999,-0.59,-1.0100002,-0.73999983,-0.7239991,-1.621999,-0.89199936,-0.61999995
2.0435724,0.36430898,-0.06996292,-0.10623304,0.13380101,0.15060082,-0.46068242,-0.45920682,0.3814271,0.23698957,-0.28636932,-0.3676249,0.45127746,0.22981134,-0.22375041,-0.1642872,-0.12854505,0.1359029,-0.038469404,-0.6368045
0.5212563,1.4782442,-0.027456028,-0.06948796,-0.096412815,-0.24594207,-0.8351284,-0.81287533,1.3665918,0.34691995,-0.589174,-1.2992581,0.32446942,0.79003984,-0.9231102,-0.094087616,-0.43546566,0.14658509,-0.19508736,-1.3789803
0.5320704,1.5087985,-0.17286243,-0.22843023,0.11355912,-0.44168416,-0.8799827,-0.8350868,1.1672086,0.5940728,-0.7810911,-1.2288612,0.3724978,0.65711045,-1.0055984,-0.26871467,-0.35812467,-0.0025946405,-0.19894426,-1.3097314
-0.95351905,-0.42977226,0.2632986,-0.7518506,1.0424608,-0.34865877,0.9285344,-0.16227506,-1.5626984,-1.5703975,-1.2749981,-1.027399,-2.859791,-1.1598986,-0.7017998,-0.6845984,0.50714743,-1.5128937,-1.0525733,-0.8695999
2.1387074,0.15820846,-0.10628311,-0.044776265,0.061870694,-0.017299164,-0.48701632,-0.28013703,0.10524995,0.2121322,-0.10720571,-0.4021468,0.5775077,0.25323734,-0.042272046,-0.027350143,-0.30012694,-0.0132516045,-0.13627025,-0.9098426
-1.4879551,-1.0663054,-0.78096956,-0.89959234,0.43032083,-0.24757375,1.4555335,-0.640746,-1.2244786,-1.2810786,-0.72972804,-0.95007956,-3.1361158,-0.9814798,-1.1075567,-0.9798796,0.43468717,-2.1413763,-0.28412467,-0.7053799
-2.5738595,-1.3989995,0.5104052,0.23719952,1.5064123,-0.1667077,-0.21840379,-0.21660194,-1.0799997,-1.3039995,-0.60549873,-0.9109997,-2.791499,-1.1204985,-1.0868694,-0.92749983,-1.115889,-1.8163956,-0.8895742,-0.75399977
1.5203271,0.6164437,0.33587533,-0.22558062,-0.010809153,-0.029263074,-0.8669722,-0.85134876,-0.54256934,0.0712184,0.18702872,-0.40399492,0.7517951,0.4149139,-0.5118553,-0.54534936,0.28660786,-0.6677363,-0.50696,-1.1010542
1.2463996,-0.9268475,-0.6383826,-0.2172665,-0.08343959,-0.3358231,-1.3232653,-0.79861,-0.4283792,0.45411712,0.31041878,0.7582518,0.17850187,-0.2433419,-0.9908236,0.29585794,-0.96266323,0.43178058,-0.20599289,0.27438852
1.9475374,-0.16231437,-0.19920282,0.21611443,-0.089123,-0.03648916,-0.9903165,-0.69374895,0.19592707,0.10212769,-0.0038510207,-1.0630413,0.5123046,-0.1738273,-0.29244217,0.120436996,-0.6332637,0.05794969,-0.07013274,-0.44756687
1.5156171,0.5792082,1.1513784,0.09825745,-0.35702187,-0.2881477,1.0666956,-0.9572969,-0.11161857,-1.9756975,-0.74733216,-1.163268,-1.3488376,0.07430879,-0.6525254,-1.5848463,-0.30246553,0.5980003,-0.30791876,-0.38188124
0.11805489,0.6122315,1.0222101,-0.46934295,-1.3661857,-0.6499451,1.4770044,-1.3303558,0.4957958,-2.4673967,-1.6199985,-1.3543986,-2.4597924,0.62415415,-0.9051362,-1.8418971,-0.78457284,-0.32727706,-0.5282723,-0.6817999
1.0155234,0.5175359,0.022577597,-0.6744321,-0.22217065,-0.6353565,-1.0668709,-0.6740016,-1.4048553,0.40213737,-0.13734742,-0.32462126,0.35866538,0.5048886,-1.011252,-0.3196422,0.58068,-0.85801333,-0.10186092,-0.15213095
1.711798,-0.795227,-0.41605744,-0.5406389,0.009761317,-0.97254354,-1.6566325,-0.44657636,-1.2289302,0.5613109,0.037109114,0.121730186,0.6648814,0.01091793,-0.93346643,-0.16171947,-0.0022784523,-0.28708547,-0.35886005,-0.40356457
1.310687,-0.75736034,-0.5645404,-1.5063549,-0.7603443,-0.40357378,-2.089258,0.51471764,0.045782525,-0.14684616,0.79776704,-0.70328486,0.5642944,-0.54929733,-0.5746459,0.4433216,0.44514093,-0.5313832,-3.0398557,0.3190963
-0.39229193,-0.5079383,-1.035128,0.2158767,-0.9595166,-1.488722,-0.58279437,-0.12794396,-0.04204535,-0.5455166,-1.6953037,-0.8898094,-0.9594857,-0.99169797,-1.1426662,0.42129079,0.009733958,-0.6419949,-0.52245814,-0.38028073
0.6584368,-0.31183654,-1.2326216,-0.07868256,-0.58779794,-1.2326523,-0.53909206,-0.66586846,-1.3735826,-0.4281751,-1.8168188,-0.8471448,-0.51907134,-0.035976224,-1.1578438,0.88702095,0.36122409,-0.42561597,-0.08771365,-0.45138136
-0.895573,-0.3890953,0.59274274,0.70334536,0.08448726,-0.08711087,-0.33938497,-0.23061481,-0.9472912,-1.8489954,-1.2528961,-1.3661968,-1.8278742,-0.6522984,-0.6305704,-1.2328997,0.51202524,-1.346588,-0.9743279,-0.6483995
-0.6803649,-0.42385328,1.1509204,0.7760606,-0.9204168,-0.9402551,-1.5392717,-0.9896511,-0.85996276,-1.8590114,-1.5276738,-1.3773962,0.5098482,-0.6309946,-1.464043,-1.283956,0.9712473,-1.5036675,0.11321752,-0.75910056
1.3714565,-0.638461,-0.23060255,-0.2040712,0.2426608,-0.7572809,-0.2817113,-1.0163459,0.038158692,-1.1766889,0.43037477,-0.46141732,-0.39424035,-0.92700064,-0.91243225,-0.5849186,-1.6280193,1.1514789,-0.023511134,-0.101371154
-1.2299064,2.3613815,-0.66067696,-0.061495237,-0.40874726,-0.3632883,-0.8555932,-1.099074,2.2357485,0.15640801,-1.3018856,-0.97845864,-0.11789248,0.19229865,-1.2570148,-0.29453707,-0.5679979,-0.44828016,-0.6924389,-0.60090137
1.4732265,0.52168185,0.63672155,-0.26405528,0.066442184,0.05324147,0.230407,-0.5826757,-0.2449573,-0.5402009,-0.29079765,-0.6770043,-0.33465788,0.005941684,-0.54220265,-0.9931845,-0.059214115,-0.07404757,-0.4786519,-0.7620863
-0.5904962,-0.005910488,0.49088484,-0.111300305,-0.51423305,-0.830871,0.66469157,-0.54628503,-0.9075938,-1.5357964,-1.4741985,-1.0453985,-1.9230368,-0.59087706,-0.8320665,-0.57667863,0.29580858,-1.1772491,-0.247291,-0.77967954
-2.8349986,-0.42399898,-0.7328995,-0.94549954,-1.3804991,-0.9440934,-1.2979994,-0.8631973,-0.6094984,0.12249947,-0.08429982,-0.6134998,0.42450047,-0.37139994,-0.74138653,-0.37199932,-0.4911999,-1.1815951,-1.0258965,-0.6381998
-0.855925,-0.0186029,0.62913173,0.026299154,-0.5296739,-0.7430028,0.8341451,-0.66645986,-0.7579949,-1.715498,-1.2834985,-0.90459895,-2.0946848,-0.51489943,-0.90073246,-0.85269856,0.29980794,-1.6866918,-0.18724398,-0.5972999
1.359891,-0.41022983,0.69266474,0.38388562,0.16136546,-0.3675191,0.16603401,-0.886324,-0.87094647,-1.073853,-0.5881159,-0.8471563,-0.59421945,-0.13369864,-0.859705,-1.1856652,0.12551756,0.05573806,-0.09250549,-0.30715927
-0.44436276,-0.40581408,-0.3439587,0.1650578,1.3987925,-0.33703816,0.09289879,0.3122957,-0.6319977,-1.837997,-0.18929814,-1.2099991,-2.695719,-0.9672576,-1.0492792,-0.17176037,-0.158346,-0.72604907,-1.6233616,-1.0102596
2.3657038,-0.05614987,-0.4081419,-0.06453618,0.1152797,-0.15858865,-0.71479213,-1.2078063,0.51807463,-0.14135028,-0.09555498,0.08692086,0.12441229,-0.741119,-0.66857,0.05899931,-1.5805664,0.5907879,-0.07376836,-0.7948389
-0.83437717,0.29164502,-0.5563824,-0.06859668,-0.36619884,-0.29176912,-0.834495,-0.88363427,1.5769318,-0.76112664,-0.30353203,-0.70611924,-0.4149826,-0.7753963,-0.81560826,-0.17301548,-1.6188972,0.039522953,-1.2830825,-0.16831772
-0.5755601,0.35150638,-0.29189983,-0.117500044,-0.9167167,-1.1768657,-0.1800978,-0.68177885,0.18400145,-0.7465999,-0.7901968,-0.32995042,-1.2922227,-0.685698,-1.4092236,0.22479875,-1.2552993,-0.09745158,-0.44044468,-0.24140057
-0.61685866,0.19669758,1.6174048,-0.3021879,0.7883252,0.24644293,1.0816612,-0.8983968,-1.0719942,-1.7277969,-1.0236968,-1.4733977,-2.5444832,-1.1580982,-1.2314446,-1.2778974,-0.6873096,-0.34383202,-0.6976944,-0.984199
-0.6944727,0.19540995,0.78543454,-0.73401785,0.22414464,-0.4424436,0.98455614,-0.23572212,-1.3369967,-1.7279981,-0.73519516,-1.0293994,-3.2988956,-0.52511907,-1.0594455,-0.78841865,-0.5389625,-0.78687793,-0.53497404,-0.61942
-3.593998,-1.0269995,-0.65399945,-0.62199986,-1.5159991,-0.7479974,-1.0959991,-0.5819988,-0.7919998,-0.48599964,-0.47600004,-0.49200013,-0.8089986,-0.3610002,-1.0159966,-0.7260001,-0.49299982,-1.5999993,-0.42099887,-0.72599983
-1.8389894,-0.58449763,-0.33850026,0.088499576,0.6310099,-0.41699013,-0.16000082,-0.51499164,-0.38800034,-1.0139996,-0.8359989,-0.75399977,-2.545998,-0.65599954,-1.3164936,-0.9259997,-0.51649696,-1.7954974,-1.1179966,-0.80799973
0.48498672,1.6829569,-0.47972572,-1.0182573,-0.6187099,-1.8320637,0.2034448,0.024226792,-1.0825745,-1.2403188,-1.062132,-0.43992773,-0.67461085,-1.2215722,-1.2373064,-0.008646926,-0.3872491,-0.63511807,0.48728096,-0.48428243
-1.099149,-0.32209682,-0.100600444,-0.34289876,-0.48710746,-0.5769802,-1.0058457,-0.23525332,-1.000299,-0.9862479,-0.73154634,-0.6399006,-0.88493454,-0.5970501,-1.4336299,-0.43729782,0.41680348,-1.0329924,-0.2913687,-0.65304965
1.7375104,-0.5483487,-0.7882352,-0.46286228,-0.16644362,-0.35509947,-1.4686974,-0.61983764,-0.9443644,0.69836384,0.035880744,0.6821671,0.6871862,-0.27012673,-0.72071606,0.01767091,-0.6777031,-0.11775693,0.0436,-0.25942728
-0.7757177,-1.1519868,-0.14173605,0.684592,2.2802029,-0.16822317,0.42449734,-0.078476265,-1.0719047,-1.7074838,0.97129524,-0.9862963,-2.9349437,-0.9920988,-0.8004337,-1.4130362,-0.47489148,-0.22316094,-0.5965628,-0.39870042
-2.5057907,-0.9278991,-0.21139824,0.28469968,-0.14069872,-0.45019013,0.1464993,-0.30949256,-0.83599997,-1.2039995,-0.9798994,-0.8249998,-2.3399975,-0.9538997,-1.1580895,-0.9399997,0.4839,-1.9524983,-0.69109654,-0.7813998
0.8288548,-0.6546358,-0.39513132,-1.2208012,-0.8517721,-0.4810211,-2.4487848,0.65004635,0.41195104,-0.00551812,0.76155436,-1.0591458,0.7736483,-0.5230551,-0.73466396,0.25623608,0.6099013,-0.6099232,-3.5860596,0.13455641
1.1226104,-0.0952745,-0.48403183,0.025408497,0.037593164,-0.35324118,-0.9069075,-1.0374136,0.40513393,-1.1474725,-0.22672184,-1.2789559,0.080848165,-0.91553265,-0.94894445,0.14659874,-1.6994641,0.6153813,-0.26461047,-0.2737175
1.6908877,0.30600104,0.65747935,-0.5936797,-0.29570162,0.09095521,-0.999329,-0.96610135,-0.6660731,-0.5153106,1.258282,-0.63051325,0.611161,0.3141779,-0.61056054,-0.71940786,0.3704595,-0.57683873,-0.6481504,-0.9282858
-1.9625658,-1.3956975,-0.22254948,0.19920106,2.1351838,-0.2471996,0.08460135,-0.26839328,-0.87939894,-1.3959992,-1.0283998,-0.98799944,-3.0611978,-0.8723995,-1.273399,-0.9601995,-1.0094931,-1.5540949,-0.34868044,-0.90559965
-3.0280004,-0.84599847,-0.24800003,-0.5999998,-1.4939991,-1.1990004,-1.2419995,-0.23399973,-0.2740001,-0.12150027,-0.62799966,-0.48200023,-0.95199734,-0.53300005,-1.2690012,-0.46449938,-0.48000002,-1.4789988,-0.36749843,-0.69099987
0.03852877,-0.5500911,0.17235157,0.0496917,0.07552198,-0.7684593,1.0890104,-0.60947734,-0.7340158,-1.7943425,-0.93427026,-1.0318872,-2.333224,-1.1230353,-0.8797005,-0.6813749,0.92004764,-0.80846554,0.08549093,-0.5598179
0.7839447,-0.86161625,0.057809576,0.84810704,1.6547415,-0.30709064,0.1264158,-0.71866566,-0.52393717,-1.934002,0.027980428,-1.5369819,-0.908579,-0.97853684,-0.3331644,-0.93521553,-0.9331456,0.53945905,-0.42355636,-0.0952202
-1.7425139,-1.2749984,-0.1776008,-0.7340889,1.0218464,-0.13451318,1.4611394,-0.31898707,-1.1450996,-1.3339993,-1.1131995,-0.9049996,-2.6375978,-1.1236,-1.14618,-1.1275995,0.038101252,-2.1570954,-0.6320622,-1.0199996
0.25226173,-0.45986333,-0.006508815,1.7288239,-0.6907943,-0.5881313,-0.25057507,-0.6026422,-0.07392464,-0.58941364,-0.8057974,-0.42794463,0.59459937,1.5677112,-0.31403035,-1.1968453,0.3610946,-0.5595309,-0.10032867,-0.63789564
-2.48547,-2.5088973,-0.8578932,2.5244777,-2.3196912,-0.22214791,0.30280337,-0.87814987,1.0487427,-1.7004968,-1.6391983,0.43842578,0.16958989,2.943385,-2.1306481,-1.2805979,-1.0048918,-2.4013925,-0.7578714,-0.85559946
-2.269972,-2.194997,-1.1214955,2.1303117,-1.9949969,-1.3546804,-1.1431999,-0.9297888,-0.71129566,-1.506498,-1.5363988,1.5280042,-0.2924873,3.3746037,-1.8097879,-1.0337989,0.20889992,-2.2081962,0.2876027,-0.8581998
-2.3858771,-1.8334976,-0.8290968,2.311103,-2.3004963,-1.3054783,-1.0524985,-1.5338876,-0.7894934,-1.2399979,-1.369999,1.6709051,-0.17639399,3.3034968,-1.6789776,-1.1004994,0.016198585,-2.067496,0.05510118,-0.75999975
-0.9296728,-2.6512098,-1.0149254,2.7865176,-2.5569959,-0.6464793,0.4609124,-0.85439414,0.19578509,-2.3577821,-2.047525,0.42715263,0.060529746,3.5522377,-1.2918271,-1.287699,-0.06350907,-1.8211621,-0.5899796,-1.2216177
-0.9935849,-2.6012084,-1.0201753,2.7686117,-2.2752836,-0.7145262,0.50581264,-0.77278316,0.34509656,-2.0336852,-1.915326,0.30515477,0.3388079,3.4884624,-1.3829213,-1.2731984,-0.18240343,-1.7893618,-0.8466137,-1.0828179
-2.3550985,-2.3728967,-0.6484939,2.8651428,-2.2824938,-0.26753244,0.1702997,-0.92584556,1.2444465,-1.8105973,-1.724998,0.05412215,0.26679918,2.871463,-2.0356455,-0.6775973,-0.7746867,-1.956194,-1.2602656,-1.0177996
-1.3496606,0.12465186,-0.13895285,1.2992198,-1.6616951,-0.92404944,-0.028598566,-0.9257658,0.20325135,-1.0442953,-1.4207486,-0.8466971,-0.5354241,-0.26230165,-1.2102448,-0.9792972,0.67252976,-1.260882,0.091097735,-0.5728
1.4724872,-0.9705892,-0.71223235,-0.44781184,-0.38858047,-0.5214949,-1.2269789,-0.8582251,-1.2227746,0.36017862,0.2972471,1.4720966,0.35427976,-0.33722365,-0.90065557,0.37802458,-0.86456174,0.28069308,-0.39772722,-0.042806525
1.10149,0.74867773,0.2759729,0.29462507,0.29705372,-0.46929893,0.47281307,-0.728982,-0.20141552,-1.7592292,-1.4575555,-0.71595716,-1.2045019,0.11476137,-0.84373057,-0.73812634,-0.35182315,0.10981849,-0.222986,-0.52540404
-3.8999946,-1.1799995,-0.7449999,-0.61999995,-1.2299994,-1.5249991,-1.1849995,-1.1749995,-0.71499985,-0.69999987,-0.7799998,-0.58,-1.4599992,-0.7799998,-1.5299991,-0.8699997,-0.72999984,-1.649999,-0.93499964,-0.7999998
-3.0039876,-0.78119886,-0.18739998,-0.6605998,-1.4819993,-1.1759989,-1.2959994,-0.9279986,0.3249998,-0.5099996,-0.541,-0.6339999,-0.021998394,-0.47699982,-1.1899976,-0.7519995,-0.21999992,-1.8705981,-1.109,-0.62799996
0.7749282,0.7668185,0.21486919,0.5850232,0.07454549,-0.22274888,-0.2220217,-0.8679137,-0.25112373,-0.91982377,-0.9516974,-1.0767,-0.47221377,0.37091947,-0.27744538,-1.0564206,0.09272081,-0.3249325,-0.40203398,-0.64402384
-0.5604852,2.691374,-0.80238384,-1.0047954,-0.56381476,-2.8597786,-0.21430185,0.0064248163,-1.2753452,-1.6783994,-1.6955928,-0.52250004,-0.14216635,-1.4301989,-1.6779581,-0.18364753,-0.20779598,-0.54682666,0.39071175,-0.4692007
-3.3024988,-1.2899989,0.0089977775,-1.0489973,1.3560108,-0.37698573,0.2394976,-0.40100056,-0.6979999,-1.0359997,-0.7449996,-0.75299984,-2.0519986,-0.7119999,-0.9149791,-0.77399987,-1.5089965,-1.8389987,-0.6279889,-0.86999977
0.26914325,1.9401807,-0.1895551,-0.16380145,-1.0190611,-2.0330176,-0.07865255,-0.161612,-0.61863875,-1.7267654,-1.4030203,-0.76392317,-0.24469195,-1.3007319,-1.3623229,-0.67888,-0.05780065,-0.5777005,0.4073938,-0.74699056
0.67999375,-0.11229766,-0.42659044,0.025115458,-0.3521002,-0.6919759,-0.72610366,-0.8539794,1.2342906,-1.2491605,-0.46774793,-1.4902396,-0.095427886,-0.86243206,-1.0919824,0.43796876,-0.6629229,0.36902675,-1.0084733,-0.39444917
-3.1254923,-1.3353988,-0.64054453,-0.38909858,1.9995182,0.030491589,-0.48274058,-0.58509356,-0.8244996,-1.1046995,-0.762899,-0.8851997,-2.4818983,-0.93869966,-0.6269727,-0.8576998,-1.0979419,-1.8593974,-0.6029363,-0.7633998
1.4177159,0.024241796,-0.5471726,-0.18377893,-0.28777212,-0.2666197,-0.44124594,-0.9727386,0.9350046,-1.3674189,-0.43440548,-1.2706723,-0.43976876,-0.46549895,-0.9945689,0.37445927,-1.0129441,0.6318673,-0.6340616,-0.15653837
-2.9347897,-0.507499,0.1869998,-0.892899,-1.0810006,-0.7774936,-0.80199766,-0.4794977,-0.6804995,-0.8579996,-0.21150017,-0.5964999,-1.4389976,-0.7219999,-0.559992,-0.6344993,-0.3909985,-0.96349883,-0.34349793,-0.5200001
-1.600751,-0.4896453,-0.5392955,0.4564032,-1.0426902,-0.7440695,-0.44564113,-0.460181,-1.0849973,-1.0254987,-0.5454473,-0.72919965,-1.9747921,-0.9440483,-0.70347387,-0.965799,1.0007174,-1.3691429,0.024298577,-0.66650003
-0.42261982,-0.474663,1.2438785,0.786709,-0.21073703,-0.3431598,-1.3845814,-0.6759998,-1.2004344,-1.0647916,-0.91586465,-1.2163523,0.8537252,-0.5370767,-1.3151884,-1.7491088,0.57855564,-0.6853673,-0.1771863,-0.70929945
-2.1174026,-1.1598988,0.21521781,1.4448447,-1.5775974,-0.366784,-1.2037014,-0.80926305,-0.8415581,-1.0839976,-1.2459991,-0.57040024,-0.97169095,-0.45500034,-1.2710693,-0.7515994,0.9398922,-1.9491957,-0.49309492,-0.6016
0.38980663,0.3828184,-0.43219516,0.35307932,-0.38290173,-0.8229208,-0.19882482,-0.76981795,0.40226957,-1.0474946,-1.3319751,-1.1483561,0.11638354,-0.110728204,-0.73681873,-0.05595827,0.2914995,-0.42581952,-0.41451803,-0.06343912
-2.6269944,-0.811399,-0.46669897,-0.08700086,-0.3997969,-0.8399842,0.024000296,-0.5179964,-0.9369994,-0.91299963,-0.96649957,-0.6239999,-2.0509982,-0.5639996,-0.93798006,-0.8179997,0.5180062,-1.685,-0.5779971,-0.7429998
0.7970971,0.11653886,-0.29028404,0.006681078,-0.22161245,-0.53292227,-0.6907163,-0.9255412,1.2211317,-1.2549994,-0.54649353,0.1845402,-0.37485284,-0.6038046,-1.3485619,0.57853603,-1.1494,0.5636332,-0.953826,-0.16695559
-0.41395542,-0.08561112,1.3646178,-0.1443791,0.008503357,0.22713,0.93274,-0.73978573,-0.06043373,-1.7614914,-1.579093,-1.4400952,-1.5668721,-0.4985163,-0.8681402,-1.4171947,-0.4858684,-0.118309535,-0.92305994,-0.57330084
0.38327354,-0.039773975,0.5967287,0.029686322,-0.43582895,-0.5804525,0.88347167,-0.8747199,-0.5054072,-2.1165266,-0.39122126,-0.777122,-1.5736597,0.14623651,-0.8897527,-1.3720382,0.79532516,-0.17866953,0.23977394,-1.127228
1.6877307,-0.006228743,0.65375775,0.47436702,-0.2502608,-0.15213849,-0.9303823,-0.79290473,-0.3006573,-0.12512167,0.09505461,-0.5622387,0.80751854,0.18187937,-0.6030244,-0.6171676,0.2304626,-0.16232117,0.12403895,-0.6008602
0.7859588,0.18763724,0.6137042,-0.34725812,-0.56992644,-0.035561636,-0.8530584,-0.9532005,-0.35034865,0.036720067,1.1528152,-1.1190097,0.6018253,0.51096183,-1.0558504,-0.44162625,0.15741733,-0.39691538,-0.31194773,-0.22266458
-2.4847965,-0.45429862,-0.63249964,-0.8059997,-1.4069984,-1.4195946,-1.0019996,-0.70449775,-0.646998,-0.22010037,0.8343019,-0.6012997,-0.42639643,-0.63379985,-1.176994,0.22519977,-0.9307995,-0.89649373,-1.4829967,-0.604
1.8305719,-0.41005725,-0.80833125,-0.5687771,-0.36010855,-0.638157,-0.7111056,-1.1756722,-0.51811683,-0.19949181,-0.18387541,0.92564976,-0.07341272,-1.1089699,-1.0549064,0.6182507,-0.9702345,0.5241279,-0.19928536,0.060549125
0.6958385,-0.40110597,-0.7125584,-0.08936463,-0.55037975,-0.57084346,-1.6197461,-0.3777531,1.1009274,-0.5002742,-0.49264643,-0.5648439,-0.10162418,-0.65136427,-1.0416889,0.55772483,-1.1767659,0.7633715,-1.1640486,-0.14067203
1.1325995,0.6493234,-0.10151573,-0.1638076,-0.37454784,-1.1949474,0.8361245,-0.7990809,-0.46575567,-1.4577878,-1.0672569,-0.9667148,-0.8140634,-0.62408525,-0.88929373,-0.49835956,-0.057432257,0.14830567,0.07495348,-0.22327924
-0.20800155,-0.54821134,1.1051927,1.1099505,-0.023866031,-0.19188893,-1.1130996,-1.0540615,-0.45098978,-1.5197667,-1.2990297,-1.4235672,0.18479219,-0.24820435,-0.6938613,-1.6017606,0.13372321,-0.6004861,-0.500835,-0.5923611
2.21391,-0.5631304,-0.5074796,-0.30522302,-0.08410012,-0.36743972,-0.91105264,-0.8448189,-0.8200589,-0.071184546,0.38222188,0.84144753,0.34759867,-0.41103116,-0.8586383,0.36413434,-1.247036,0.32316113,-0.065697215,-0.0874448
-0.73450077,0.07548221,-0.09942911,1.4815218,-0.9037478,-0.61994904,-1.1833407,-0.77207726,-0.63305336,-1.1416485,-1.7768168,-0.108962566,-0.15534845,0.005424211,-1.0611932,-1.0832003,1.0135498,-0.893886,-0.2333796,-0.5727767
-2.8399954,-0.40799922,-0.8374996,-0.8319996,-1.4069992,-1.1249985,-1.2099994,-1.0255008,-0.039500028,-0.28000018,-0.72449917,-0.72399986,-0.437996,-0.68999976,-1.3539978,0.14100042,-0.9359996,-0.9679967,-0.8554981,-0.58999985
0.88122433,-0.28985846,-0.4592258,-0.9578443,-0.63025486,-1.1502329,-1.8510735,-0.85193986,-0.003924759,-0.3261239,-0.05284047,-0.28359857,0.35338867,-0.78948927,-1.181818,0.27466094,-0.75419146,0.021270227,-0.63292533,-0.06485928
0.023249466,-0.57312536,-0.6914812,0.17496896,1.6122121,-0.4613473,-0.532393,-0.031046867,-1.5848128,-1.506408,-0.15081133,-0.21907614,-2.218364,-1.0059346,-0.59966236,0.4341806,0.33413455,-0.91132885,-1.1972759,-0.17460027
0.15227301,-0.5934367,0.8719787,0.7101186,-0.44717363,-0.76820415,-1.327895,-0.8671785,-0.6668847,-1.0817219,-0.7730302,-1.2521043,0.6120929,-0.85665655,-1.0886049,-1.4238447,0.59078115,-0.28642628,-0.3680832,-0.41604945
1.7225357,-0.86723584,-0.9135326,-0.16557306,-0.19852409,-0.8133618,-1.1638991,-0.9522527,-0.8896899,-0.5758227,-0.24931741,0.15687503,0.17245904,-0.8173619,-1.0677975,0.33572817,-0.62930614,0.39378443,-0.08498199,-0.13593607
-1.2794213,0.08441825,-1.0127472,-0.928239,-0.72651345,-2.3554559,-0.2227495,-0.032498762,-0.8321961,-1.0372188,0.7903155,0.48449957,-0.8426616,-0.95709926,-1.3340118,0.18137833,-0.9709988,0.90528744,-0.4026239,-0.3096206
-2.3124743,-1.5117985,-0.21249376,-0.74569696,0.8523396,-0.47267967,1.0312203,-0.47599322,-1.0709996,-1.1019995,-0.49099925,-0.7657999,-2.1679983,-0.70779985,-1.2369337,-0.9434997,-0.022200491,-2.0329983,-0.75419235,-0.84799975
-2.7939959,-0.60449946,-1.0334994,-0.6769998,-1.6239989,-0.98249656,-1.2599993,-0.79099673,-0.93349916,-0.26299977,-0.34300005,-0.34500024,-0.7229952,-0.58,-0.8434946,-0.5269993,-0.8529997,-1.054997,-0.12049856,-0.62699986
0.33754078,-0.9586828,0.29191327,0.8085624,2.0518084,-0.015054274,0.3340753,-0.38622773,-0.76081824,-1.4640155,0.8953645,-0.7020707,-1.432484,-0.4619738,-0.5280312,-1.2734861,-0.6992875,0.25979125,-0.42007354,-0.17280075
-0.21921861,-0.52874345,-0.48648486,-0.79719377,-0.30717757,-0.5762587,0.06775275,-0.15438856,-1.382347,-0.8367946,-1.532997,-0.82139826,-2.3267791,-1.071399,-0.8678917,0.022000799,0.9100235,-1.3583905,-0.17153151,-0.47540054
2.0562685,-0.7476197,-0.6914173,0.15736793,-0.722713,-1.0047395,-0.851393,-0.65719116,-0.38206398,0.58889455,-0.7899883,-0.66249406,0.39071754,-0.78065914,-0.7879943,-0.36645716,-0.0080355685,-0.42316929,-0.29136562,-0.25637016
0.53053933,-0.87549955,-1.1700038,0.34656337,-0.9512047,-1.6436672,-0.82266283,-0.4721965,0.23130527,0.99412966,-1.6389223,-1.2709774,0.39350384,-0.8080018,-0.95660174,-0.19098733,0.5865166,-0.5449438,-0.34260216,-0.2150794
-2.1739562,-0.012998111,-0.11599928,-0.87,-1.1984965,-0.88928854,-1.0964988,-0.043001775,-0.94849795,-0.2788002,1.1350027,-1.1053993,0.28450575,-0.2950003,-1.483985,0.19519946,0.5645006,-1.9885933,-2.0739942,-0.5363999
-3.761996,-1.1009996,-0.6179999,-0.52000016,-1.2899994,-1.745999,-1.1499995,-1.2199994,-0.6799999,-0.6339999,-0.65599996,-0.578,-1.2759995,-0.54,-1.4219993,-0.6699998,-0.692,-1.4569991,-1.1219996,-0.68599993
-0.05865228,-0.03051214,-0.25965387,-0.35119173,-0.6141398,-0.7691524,-0.65938085,-0.4478559,1.4006202,-0.935429,-1.4833927,-0.85898167,-0.41376892,-0.48519278,-1.0675511,-0.7298604,-0.35269913,-0.24777262,-0.34489477,-0.3988006
2.5497103,-0.39270896,-0.7865001,-0.40067217,-0.0457682,-0.27554145,-0.90177834,-1.0721401,-0.44590276,-0.077013284,0.13148654,0.6594461,0.13678342,-0.96579367,-0.834706,0.10984666,-0.9811889,0.40372598,-0.035979602,-0.25881478
-0.58248204,-0.83239436,-1.0402793,0.00209874,0.5599205,-0.1555655,1.0561303,-0.7435604,-1.1921988,-1.3230977,-0.9522981,-0.9361992,-3.3743873,-0.5649964,-0.79657966,-0.99609923,0.7356823,-1.8661911,-0.1770019,-0.8576
1.1300861,-0.50969446,-0.12510411,-0.105559215,-0.6657903,-0.46140647,-1.1067444,-0.893909,-0.010682044,0.038101092,0.37374493,-0.91437113,0.47469056,-0.7126538,-0.7602148,-0.06454105,0.020060588,0.024128783,-0.5291726,0.0074576167
-0.5046511,-1.0002459,-0.0044483924,0.065303296,0.4353294,-1.1833751,0.80488,-0.37107337,-0.9289947,-1.2784977,-1.0429974,-1.2429988,-2.6214876,-1.411999,-0.7875158,-0.566998,0.6035882,-1.578585,-0.48474157,-0.67399967
-3.1190073,-0.9739992,-0.21000023,0.11199975,-1.1429988,-0.7629917,-1.0049988,-0.3599984,0.0050000213,-0.78099966,-0.84999925,-0.54999983,-1.031997,-0.32299995,-1.1669948,-0.7539997,-0.45049965,-1.7429974,-0.5939954,-0.6659999
0.67590404,-0.349987,-0.5302158,-0.40137723,-0.5288932,-0.94993037,-0.4607076,-0.69237804,-0.20090045,-0.9009645,0.6472622,0.2745689,-0.77391714,-1.1043757,-1.0588834,-0.749024,-0.96566194,0.8278994,0.13375479,-0.16289388
1.90664,0.20394497,0.40401658,0.05020816,-0.5049491,-0.9686516,-0.96581316,-0.7514091,0.6549275,-0.19845773,-0.7406479,-1.4023405,0.22600584,-0.2200553,-0.40926242,-0.3773217,0.2523225,-0.32023743,0.11579511,-0.6008609
0.06107323,-0.30990022,0.48594475,-0.4148054,-0.94488055,-2.9337792,-0.96028155,-0.2967416,2.2942638,-1.424444,-1.7636514,-1.7911127,-0.08839703,-1.1689943,-1.8899211,-0.64653087,1.4516845,-1.7400045,1.0210485,-0.82480013
-0.49521163,-0.3594241,0.08424273,-0.53093576,-1.1388911,-2.963282,-0.7038919,-0.45485014,2.9940288,-1.2228719,-1.7342542,-1.6378947,-0.19923386,-1.1690972,-2.3261805,-0.51243794,1.5026765,-1.8253921,1.1469531,-0.9686
-0.84272814,-0.44269195,0.10414408,-0.7693973,-0.7180909,-5.1182365,-1.1979942,-0.5247509,2.924941,-1.3263322,-1.9723351,-1.4633769,-0.31138355,-1.4795963,-2.7175338,-0.15246119,1.9151258,-3.2099473,1.7693536,-0.64080054
-0.6764866,-0.33246756,0.3465497,-0.75586516,-0.91499084,-4.591342,-1.149992,-0.25098115,2.76591,-1.2324281,-1.963056,-1.6475568,-0.23973104,-1.278696,-2.7050946,-0.14631997,1.7392273,-2.8777642,1.8409166,-0.79880023
-0.18999909,-0.6722439,-0.8701521,0.8616183,1.8020893,-0.396408,-0.4122737,0.23468761,-1.0590959,-1.9568828,0.40343738,-0.8503371,-2.4215372,-1.2047787,-0.5045808,-0.35682622,0.01710936,-0.37522277,-1.5681587,-0.5110805
-3.0670016,-1.363999,0.32885084,-0.41449854,0.71981204,-0.35971138,0.16929907,-0.17200325,-0.7929996,-0.9319996,-0.8009997,-0.6959999,-2.0939984,-0.70199984,-1.4178485,-0.8219998,-1.5542265,-1.7827984,-0.9189942,-0.53200006
-1.4069873,-0.4069153,0.15405104,-0.34319833,1.1211506,-0.036690302,1.0462351,-0.23283422,-1.2355102,-1.5211385,-0.91533685,-0.9982194,-3.0516753,-0.5538972,-1.1627845,-0.8639291,-0.1421765,-2.0594966,-0.49952003,-0.8681996
-1.5725031,-1.0522959,0.3547612,0.26039633,1.1433573,-0.291905,1.0853425,-0.5324792,-1.0883985,-1.2164992,-0.72099733,-0.9999997,-2.9588964,-0.8213985,-0.7724974,-1.0263996,-0.5239639,-2.1641958,-0.6892956,-0.7639995
1.8271917,-0.63289136,-0.6020685,-0.26331514,0.10060362,-0.10173981,-1.1496865,-1.0060581,-0.4307765,-0.39251438,0.032863066,0.43238974,0.38760713,-0.74636656,-0.9140511,0.34029606,-0.6860373,0.26150548,-0.5860663,-0.6138669
1.0413917,-0.64792717,-0.9667407,-0.15523455,-0.26411602,-0.36146414,-1.2097903,-1.1259413,0.26675612,-1.042962,-0.522305,-0.51171196,0.027041232,-1.1004944,-1.0826447,0.6502399,-1.3181797,0.7428009,-0.625464,-0.1959687
0.8282576,-0.90129215,-0.55797195,-0.47885957,-0.52419275,-0.27695653,-1.5451345,-0.52468747,-0.09406533,0.6173922,0.04801745,0.6372317,0.58209956,-0.3818925,-0.92432636,0.4288255,-0.5577038,-0.0038031298,-0.7040716,-0.27638826
-0.21538778,0.28746864,1.0390983,-1.0003706,-0.31578842,0.16095611,-1.5501914,-1.6647925,-0.7158127,-0.51559377,1.8575094,-0.8070835,0.41850552,0.7673961,-1.3320906,-0.8091938,1.0211785,-0.9339792,-1.1461273,-0.03691943
-2.7900062,-0.895398,-0.09800665,-1.2178591,1.687006,-1.0224954,0.20797688,0.42514482,-0.74833554,-1.0969995,-0.47049937,-0.8659998,-2.5766659,-0.7140113,-1.186843,-0.8299997,-1.6456634,-1.5499989,-0.038181234,-0.7499999
0.405409,1.2380005,-0.63145316,-0.89724755,-0.32123372,-1.6272931,0.67884487,0.090311386,-0.9063893,-1.1421536,-0.25403184,-1.0862932,-1.5721825,-0.9395711,-1.186767,0.19281423,-0.45812356,0.015805788,0.2783144,-0.49876383
-1.9904555,-1.3653984,-0.165997,0.19840133,1.3369329,-0.26532853,-0.10939652,-0.03820169,-1.1724993,-1.1524992,-0.13149956,-0.7541997,-2.599997,-0.6184993,-0.82435673,-0.9589992,-0.7129854,-1.5252929,-0.35323215,-0.5480001
-1.5544206,-0.4532741,0.38221437,-0.67235166,0.6861372,-0.43309414,0.6436352,-0.6019287,-1.1310992,-1.4279987,-0.7766984,-1.1569996,-2.9916942,-1.0554992,-0.84847456,-0.63789886,0.58387834,-1.6370939,-0.1721513,-0.85699964
-0.84623396,-0.6800416,0.28428033,2.2119505,-0.92592776,0.034904383,-0.43642196,-0.5265191,0.33343944,-0.9706519,-1.3361366,-0.44103658,0.2805981,0.46214098,-0.8305577,-1.4288462,-0.03848555,-0.8517394,-0.508711,-0.024961665
0.17627569,-0.5692277,0.5774674,1.9036617,-0.63353723,-0.19175683,-0.7498191,-0.81948555,-0.093179375,-1.66578,-1.1333401,-1.128038,-0.2908396,-0.39727634,-0.4877005,-1.496049,0.6678399,-0.44163898,-0.26238498,-0.309282
0.2506062,-0.4658217,0.31036866,-0.5756167,0.67406917,-0.46987498,0.5814072,-0.3120745,-1.1368812,-2.0965815,-1.1022007,-1.3868893,-2.1360204,-0.49128193,0.022453984,-1.249193,1.0600864,-1.2374991,-0.19821885,-1.1114984
0.6504098,-0.41429627,-0.2748843,0.73135674,-0.14087902,-0.68999,-0.42402503,-0.67276406,-0.44139645,-0.82345796,-1.9717674,-0.4536997,-0.4012392,-0.6221285,-0.61622375,-0.6448854,0.33829254,-0.32065284,-0.5473039,-0.06395909
0.8180986,-0.7108166,-0.7348068,-0.78219694,-0.6437528,-0.96899176,-1.5438361,-0.84532917,-0.25371203,0.29485327,0.15922666,0.98705435,0.4119113,-1.2557763,-1.1564679,0.66669214,-1.0898361,0.33840734,-0.58368474,0.16290817
-3.6499946,-1.1489993,-0.86899966,-0.42000017,-1.4499992,-1.621999,-1.1699995,-1.1799995,-0.71999985,-0.6959998,-0.7819998,-0.56,-1.0839987,-0.53000003,-1.798999,-0.7059998,-0.71499985,-1.5909988,-1.1379995,-0.54
-0.41679227,-0.82865286,-0.87131345,0.044810146,1.3552071,-0.55960816,1.1527971,0.003543823,-0.8978969,-1.4447975,-1.2944982,-1.2765993,-3.2464924,-0.9608975,-0.7779259,-1.0752989,0.48493063,-1.968171,-0.6839448,-0.93989956
-0.48442003,-0.011912466,-0.30178398,-0.6060297,0.24069066,-0.8794339,-0.6132253,-0.36610404,-2.2675786,-0.30778924,-0.7245162,-0.20736131,-1.2557471,-0.13943332,-0.80202466,0.35686064,1.1284903,-1.2601081,0.11913117,-0.13866067
-3.4720972,-1.2559993,-0.67359674,-0.020699732,0.34860066,-0.8349913,0.66660506,-0.025001753,-0.9219997,-0.92399967,-0.71699977,-0.7275999,-2.1079986,-0.7115994,-0.99399173,-0.90799963,-0.66299546,-1.7559986,-0.31979665,-0.7999998
-0.74912465,-0.24525794,0.5991405,0.41145083,0.767052,-0.45515665,0.58280385,-0.5972369,-0.7832948,-1.3704975,-0.7356952,-1.0230992,-2.5919456,-1.0103794,-1.0219564,-1.1255791,-1.397139,-0.10725173,-0.96420074,-0.6693793
1.8462956,-0.44523484,-1.0221728,-0.16568303,-0.12465075,-0.21767816,-0.98055196,-1.2484857,0.32047778,-1.2159655,-0.32237017,0.6864574,0.08760742,-1.479214,-1.1325415,0.52743953,-1.53945,0.64636946,-0.4513712,0.01710278
-0.20736878,0.17039844,0.5095213,-0.115080476,-0.80850756,-0.4864624,0.032949775,-1.037385,-0.021180645,-1.1608899,-0.86199045,-1.0595989,-0.8452334,-0.6136156,-0.91867,-0.30266207,0.45934877,-0.40723047,-0.20460263,-0.5720601
-1.0572834,-0.39149427,0.52844465,-0.2968386,1.5875455,-0.13029519,1.1697998,-0.17754489,-1.3993976,-1.8216968,-0.36129317,-1.1364977,-3.4513946,-0.100397944,-1.1991396,-1.0013994,-0.11574827,-0.9875894,-0.65952444,-0.9801995
-0.33985204,0.027541127,-0.480687,-0.06909493,0.049249407,-0.014020205,-1.0909966,-1.595869,0.83670425,-1.5062075,-1.1785506,-0.9259022,-0.8423354,-0.9809968,-1.1472467,-0.3348486,-1.1801012,0.033541955,-0.7231998,0.006802259
-0.91124666,-0.35526595,0.5906717,0.02944964,-1.8547397,-0.18920986,-1.021246,-0.80201083,-0.6469384,-0.3829396,-0.38136286,-0.31144884,-0.07675158,-0.12311969,-0.94911456,-0.7454871,0.37270296,-1.0353911,-1.0304503,-0.5548001
-2.675585,-1.2503592,0.17650005,0.03099911,1.0143151,-0.047171988,0.18299717,-0.37789616,-0.63054013,-0.95335954,-0.6880391,-0.6767199,-2.1294386,-0.85149974,-1.0565913,-0.81639975,-1.0469983,-1.6348385,-1.7434158,-0.7509998
2.1344755,-0.40277562,-0.32568073,-0.08581129,-0.034730516,-0.33946452,-0.8033382,-1.0247748,0.331833,-0.9372092,0.02629622,-1.013947,0.018964486,-1.061333,-0.8577412,0.35021612,-1.6949599,0.8296531,-0.21834758,-0.71501356
0.5448999,-0.33035222,1.1421008,0.4812359,0.373485,-0.019988019,0.8370154,-0.75415933,-0.5740741,-1.5353754,0.33477023,-1.036501,-1.4420501,-0.4381107,-0.6662099,-1.5562408,-0.99513793,0.6663173,-0.24195552,-0.06858906
-1.2374861,-0.7816729,0.26615906,0.37629706,0.7780354,-0.62064385,1.2792192,-0.40530434,-0.40409976,-1.4920992,-0.95899856,-1.0967991,-3.0737946,-0.5844976,-1.0283289,-1.1540993,-0.37818757,-1.5319519,-0.9372036,-0.8265997
2.0219142,-0.7521652,-0.72387654,-0.25462973,-0.16417368,-0.3792421,-1.1783773,-0.94117737,-0.29049763,-0.6293774,-0.50050384,0.5087484,0.59475064,-0.6447346,-0.5731738,0.22380875,-0.43451947,-0.045592647,-0.6382855,-0.46207187
-1.2937022,-1.3515382,-1.3592356,-0.059365414,1.6211723,-0.18766825,1.5061538,-0.5557184,-0.8896994,-1.2248989,-0.97369885,-0.90179944,-3.1812963,-0.81539977,-1.3075416,-1.296699,-0.20409046,-2.2043753,-0.58206177,-0.79719985
-1.3304079,-0.76134634,-0.32814744,-0.042599335,-0.22130977,-0.8344093,0.71870005,-0.21729736,-1.0075986,-1.4289987,-1.5049989,-0.7999999,-2.7259412,-0.98419863,-1.0185469,-1.063999,1.19642,-2.530497,-0.4585313,-0.7999997
1.8295915,-0.73584956,-0.30548906,-0.45870757,-0.19317986,-0.40445852,-1.4103104,-0.60483444,-0.60271907,0.07602246,0.641633,-0.3039023,0.44073474,-0.33773822,-0.91317743,0.010819377,-0.79538333,0.37845966,-0.11102158,-0.1875633
2.4506962,-0.14344664,-0.20865941,-0.12241973,0.339447,-0.009533811,-1.0348983,-1.0141752,0.0044820867,-0.71285516,0.22843169,0.22360608,0.37754622,-0.6619156,-0.38532227,0.076047875,-1.0670915,0.4663494,-0.5291925,-0.6597403
1.9988248,-0.16463839,-0.51161724,-0.14651276,-0.13388754,-0.28452426,-0.65310806,-0.98345196,0.59654546,-0.39114827,-0.25143036,-0.54012793,0.1900873,-0.3999825,-0.68124,0.32675767,-0.6161332,0.2694638,-0.3680211,-0.54155415
0.31226015,-1.0793211,0.060722284,-0.20851658,-0.27026668,-0.61248153,-1.9677356,-0.4059024,-0.5379662,0.38277104,-0.84688437,-1.1564548,0.7216269,-0.57618695,-1.0236876,-0.06973034,-0.62887865,0.008270547,-0.32547048,-0.36659446
-1.6578579,-1.4287977,-0.4672847,-0.60249126,0.5537289,-0.23980147,1.021052,-0.64666224,-1.2035,-1.1089994,-1.1779991,-1.0324996,-2.9865975,-1.1104999,-1.1454656,-0.9279994,0.77603894,-2.1768963,-0.59868354,-0.66899985
1.4394892,-0.26243055,-0.6967809,-0.287942,-0.350515,-0.46939754,-1.4510111,-0.9915291,1.0471443,-0.6243804,-0.114044316,-0.7339624,0.5389785,-0.67665094,-1.1344618,0.67903286,-0.4861803,0.34923363,-0.88581544,-0.34549227
0.23581862,-0.9613792,-0.9339129,0.06752661,-0.4949635,-1.1798924,-0.5580645,-0.39156133,-0.53783435,-0.5663451,-1.2410208,-0.19369367,-0.39402255,-0.81063324,-1.0261011,0.3509068,-0.57360595,0.16412038,-0.3069622,0.0006598672
-1.027812,-0.7139815,-0.7939224,-0.42621604,1.6117715,-0.28944048,1.4455938,-0.7229305,-1.0236924,-1.5398252,-1.1604257,-0.9669262,-3.0915942,-0.91903925,-1.1495827,-0.7558262,-0.05657442,-1.8579912,-0.35686007,-1.0423994
1.7387193,0.32176965,-0.91322315,-0.68831974,-0.2690318,-0.8301258,-0.21374749,-0.84617394,0.14574917,-0.95391136,-0.98419476,-1.5521188,-0.5959023,-1.1329647,-1.0354345,0.6325947,-1.6112015,0.50077546,-0.35284302,-0.32910082
0.72408354,-0.8137223,-0.5828403,0.021181745,0.829036,-1.0713922,1.1216273,-0.75433385,-1.10569,-1.7222859,-0.5563811,-1.4514954,-2.3174148,-1.3530962,-0.5854839,-0.37739253,1.0570134,-0.65916264,-0.026260292,-0.52242064
-0.3303192,-0.22500035,1.5129524,1.1183071,-0.49976683,-0.5585967,-1.2106843,-0.95759827,-0.7360634,-1.3024238,-1.1420329,-1.5072305,0.39857772,-0.6304704,-1.0993501,-1.4981966,0.42714334,-0.5499622,-0.13124649,-0.7755796
0.11156035,0.21284886,-0.33484095,-0.62807715,1.1415328,-0.65173674,0.9049712,0.047389902,-1.8954449,-1.6554464,-1.3384466,-1.3013971,-3.6289358,-0.8565977,-0.70154744,-0.8380965,0.5741126,-1.5776826,-0.7019159,-0.8795997
1.4323486,0.12951821,0.3371438,-0.25351572,-0.3118642,-0.36773723,-0.39924026,-1.1454662,0.54031175,-1.6656529,-1.1668572,-1.5659795,-0.29217124,-0.85168314,-1.1225631,-0.1585661,-1.15672,0.5360435,-0.73057216,-0.4083498
-2.0537999,-1.2439994,-0.43549797,0.29759988,0.4605082,-0.58349323,-0.1229996,-0.8439962,-0.78149915,-0.92399967,-0.6789997,-0.6859999,-2.2049983,-0.70399964,-1.1329956,-0.8679997,-0.6889959,-2.0519981,-1.3959981,-0.7599998
-1.9461702,-1.1522586,0.39413092,0.013098556,1.0506827,-0.3905877,0.3062516,-0.21018271,-0.6519981,-1.4226983,-1.0459981,-0.9484995,-2.697857,-1.0800796,-1.1650203,-1.03468,-0.64628136,-1.9821545,-0.59306806,-0.7396799
-0.4617904,-0.49608245,-0.72842216,0.3140552,1.3332843,-0.6060295,-0.462464,0.081608444,-1.5280471,-1.1954448,-0.33000052,-0.7656972,-1.9608693,-0.58719736,-0.6780273,0.33095106,0.068300374,-0.8110197,-1.1954017,-0.4044006
-3.2315993,-1.2869991,0.3310995,-1.1768991,0.4215014,-0.57558894,0.20699824,-0.5372978,-0.8189997,-0.93999964,-0.99299955,-0.7939998,-2.1379983,-0.94999963,-0.85998666,-1.1639994,-1.1197985,-1.6105988,-0.76889414,-0.69399995
-1.964982,-0.9493973,0.650008,0.35350457,-1.2042584,-0.17904073,-1.1793463,-0.333891,-0.17114975,-1.5159991,-1.0123991,-0.8409992,-0.96339303,-0.6082499,-0.8024723,-0.893998,-0.43424866,-1.0245938,-0.8238848,-0.48140028
-0.76250106,-0.0794009,0.45239043,2.0425355,-1.2787114,-0.21341026,-0.59441525,-0.94558626,-0.17566116,-1.1767985,-1.0886565,-0.7331132,0.259527,0.28734705,-0.87768483,-1.7806368,0.40150663,-0.6253081,-0.15743068,-0.403284
0.19983746,0.14713193,-0.25549188,0.45685017,1.3025386,-0.8164726,0.57329375,-0.18350275,-0.8366755,-1.4895822,-1.524303,-1.3178971,-2.4462178,-0.8731975,-1.1183403,-0.4380131,-0.5303416,-0.28825542,-0.8260797,-0.7832998
1.381134,-0.20007056,-0.6017154,-0.3523792,-0.13647287,-0.5417904,-0.589333,-1.1741065,0.8762106,-0.8588401,-0.62529266,-0.14074361,-0.34532195,-0.9063793,-1.1715469,0.808586,-1.5192363,0.6062363,-0.86168087,-0.047729768
-0.5041629,-0.99996716,-0.17307293,0.63231367,2.0123851,-0.20643896,0.19248305,-0.28867143,-1.1711974,-1.8155453,0.6865832,-0.40313622,-2.1607244,-1.3559513,-0.6407054,-0.23127446,-0.8552312,-0.15475516,-0.8118065,-0.1321439
0.15298548,0.21178079,0.47611398,-0.5193127,0.49718595,-0.6366351,0.89145064,-0.21071775,-0.6538372,-1.832839,-1.0719901,-1.0099453,-2.458356,-1.0911944,-0.64006597,-0.6951453,0.8962895,-1.1185141,-0.50588757,-0.7634992
-1.8258703,-0.7145967,1.0973243,-0.69539225,0.18359724,-0.34957445,0.8745878,-0.26478976,-1.188299,-1.1793995,-1.0596997,-0.79039973,-2.5627956,-0.70899886,-1.4527832,-1.0613996,-0.1644507,-2.1028981,-0.39259887,-0.79339975
-0.8716048,-0.3377099,1.3670781,-0.13640615,0.8631387,0.19999829,0.73074806,-0.4859696,-0.5068797,-2.2294471,-1.0207753,-1.5362979,-3.0682273,-0.6230273,-0.80907875,-1.2913787,-0.3381388,-0.68362445,-0.24011308,-1.121079
-0.43635628,0.36399767,0.7353104,-0.805508,-0.10175816,0.48207402,-1.8435385,-1.7304701,-0.8815932,-0.27286962,2.1481926,-1.393107,0.66181207,0.5736652,-1.4128329,-0.54444766,0.9017076,-0.9429927,-0.48822674,0.058450505
-2.2379766,0.3240012,-0.37250024,-0.8789983,-0.9670008,-1.28299,-0.9519989,-0.85999185,-0.7529986,0.33199975,-0.70699835,-0.09100026,-0.7944851,-0.10300009,-0.6509885,-0.25449806,0.030999292,-0.30199382,0.03750067,-0.5020001
-1.3769492,-0.8807981,-1.1934997,-0.40999892,-1.2354975,-1.5375854,-1.2479992,-0.8491923,-0.5129969,0.25050092,-0.9811488,-0.9552994,0.633324,-0.55490035,-1.7023739,0.44865143,-0.43799996,-0.17655015,-0.6879889,-0.4343005
1.2898558,-0.34214512,-0.5439787,-1.384593,-0.9406369,-0.22887674,-2.5400975,0.6544789,0.24745308,-0.2898571,0.56649107,-1.3359734,0.50132793,-0.49332964,-0.63857913,0.35753846,0.70762,-0.4170616,-3.4918456,0.010701124
