0,1,2,3,4,5,6,7,8,9,10,11,12,13,14,15,16,17,18,19
-2.1293259,1.9714842,-0.14025137,-1.2719982,-0.83948547,-2.8204966,0.6922545,-0.58224607,-0.8414903,-1.4529985,2.5247102,0.6175013,-2.5790064,-0.32050014,-1.7229924,-0.9404965,-1.5759991,0.23254585,-0.7982102,-0.5360002
1.3647647,0.2224027,0.2417341,-0.68060243,0.11250394,-0.70961016,0.3634369,-0.592084,-0.5845253,-1.0755596,1.4634128,1.1759175,-1.3255681,-0.46286592,-0.8322033,-1.2668337,-1.3638797,0.76868343,-0.08722097,-0.28682795
-0.55846184,1.4648408,0.055647336,-0.9279532,-0.026859142,-2.3235962,0.59041804,-0.5181463,0.64788604,-1.9529928,1.5726222,-0.3105463,-2.222693,-1.2187499,-1.565518,-0.55419165,-2.1252444,0.19076982,-0.2822525,-0.3606001
-1.6526958,1.3329772,0.15490147,-1.1525971,-0.29158142,-2.0224972,0.33624968,-0.48939717,-0.49779567,-1.4085974,3.060376,2.1855924,-2.29139,-0.4895999,-1.3481982,-1.6327982,-1.729997,0.4317492,-1.0511284,-0.55100054
0.11965463,1.0413859,0.17654297,-0.82825387,-0.07120743,-2.16947,0.5073434,-0.6066256,-0.43093184,-1.7471306,2.2654862,0.13748993,-1.8901244,-1.606598,-1.4914069,-1.3226851,-2.1893432,0.4530936,-0.06211645,-0.41030133
-0.12782574,1.2073766,0.14041334,-1.0219539,0.035449296,-2.3829927,0.69711435,-0.6841694,-0.28605637,-1.7119464,2.2365832,0.98864466,-1.9406875,-1.1500187,-1.3651692,-1.4366915,-2.1778023,0.31614536,-0.2232524,-0.17572097
-0.39545858,1.1217822,0.11189866,-1.354097,-0.29909453,-2.0004854,0.3400836,-0.6666851,-0.5468811,-1.1667938,1.3590262,0.1787988,-2.2050018,-0.89319897,-1.7722093,-1.0977914,-1.7788992,-0.25932866,0.098646045,-0.4685002
-0.119186774,-0.18113263,-0.1644704,0.29913628,1.4181848,-0.15935175,0.35071492,-0.027664324,-0.007153184,-1.757226,-0.4487962,-1.152146,-1.6148928,-0.1755254,-0.5131796,0.39725268,0.22272907,-0.35233387,-1.2368643,-0.4656413
-1.2267203,-0.2642158,-0.8840919,-0.72659194,-0.016880646,-0.879882,-0.7402843,-0.19850567,-1.8929994,-0.29982072,-0.9519437,-0.48406032,-2.1493847,-0.3437796,-0.60033935,1.1945988,1.0608819,-1.6230552,-0.45464602,-0.48130023
0.41888493,0.019449484,-0.10206069,-0.5216613,0.029460462,-0.76280653,0.3391489,-0.6030965,-1.1372206,-0.8261866,-1.0949782,-0.8004907,-1.6334828,-0.39279297,-0.805858,0.6549237,1.3275684,-1.0688359,-0.8737582,-0.31230128
2.580642,0.23485565,-0.22733825,-0.5545107,-0.25326502,-0.20187585,-0.5442336,-1.0932311,-0.6485547,-0.23520547,0.1563683,-0.22950503,-0.116878316,-0.48724586,-0.7351964,-0.0538012,-0.33161753,0.24389488,0.03485326,-0.40056932
0.98712647,1.4806036,1.10917,-0.47691724,-0.48724082,-0.29872724,0.978899,-1.1590058,-0.27032426,-2.6263642,-1.0386224,-0.9005905,-1.8826263,0.97348726,-0.77958024,-1.3821687,-0.7524433,0.50850886,-0.36072418,-0.7732406
-2.372377,0.06990409,0.5974096,2.1025677,-2.282802,-0.5129507,-0.056699924,-1.1137667,-0.36879864,-1.8128986,-1.4120992,-0.0049001076,-0.630869,1.6680245,-2.0579648,-1.3203992,-0.017201897,-2.1096961,0.035601094,-0.7449998
0.34753892,-0.7664328,0.4864898,-0.171194,1.0033661,-0.16820773,0.31646562,-0.8973759,-1.0499328,-1.9241706,-0.13277961,-1.7526964,-2.278424,-0.7497309,-0.39622602,-1.8125348,0.8022659,-0.8269586,0.15996313,-1.0511378
-1.8544968,-0.13024762,-0.47200036,-0.12949957,-0.6104903,-1.7490042,-1.4500002,-0.3185004,-0.7999957,-0.8259976,-1.4687498,-0.5965,-1.7862461,-0.83499885,-0.7842049,-0.79249877,0.8115075,-1.242997,-0.30375037,-0.61899996
0.36404932,1.2071656,0.65907717,0.16533111,0.16321911,-0.5660445,0.8297612,-0.8843661,0.2861655,-2.4475214,-0.6404425,-1.431535,-1.5962951,-0.23545665,-0.9178545,-0.7977803,-1.2705626,0.6353364,-0.6602517,-0.6306015
-0.82502174,-0.26154092,0.29113483,1.2865908,-0.4641053,-1.185975,0.014868291,-0.511162,-0.89686954,-1.1730473,-0.8721799,-0.6681549,-0.9529057,-0.49760926,-1.073664,-0.9500958,0.84041196,-0.9424679,-0.19725153,-0.6609597
-1.0553609,-0.56004566,0.23534761,-1.4497439,-0.7933499,-0.8229698,-2.0531988,-0.6801301,-1.1836892,-0.0069975853,1.9528264,-0.013846013,0.86471546,0.28980112,-1.5933877,0.3819565,1.0422237,-1.5827632,-2.305629,-0.18660031
0.6193385,-0.6190742,-0.77989113,0.2746951,-0.052362338,0.4899178,1.3445928,-1.6476499,-1.5820181,-0.68282914,-0.78942245,-1.4211136,-2.3912585,-0.39078447,-0.6929769,-0.06776124,1.548536,-1.4187694,0.28401172,-0.5283996
-0.0033240626,-1.1440957,-1.5114838,0.20357633,-1.4988912,1.3309963,2.0767808,-2.9142988,-2.1728973,-1.2859986,-1.3760003,-1.0784988,-4.216,-1.7048981,-1.8279403,-0.15049818,1.691978,-3.0441937,0.40757108,-0.94659966
-0.25560397,-1.2724991,-1.6907377,0.28860664,-1.4736286,1.6918534,2.264312,-3.3255982,-1.9888996,-1.6099983,-1.445999,-1.1352993,-4.1231985,-1.6644989,-2.4238074,-0.57599837,1.6570209,-3.148296,0.7435859,-1.0181996
-0.44088298,-1.9640976,-2.336085,0.018181274,-1.2871819,2.008151,1.8046222,-3.3850698,-1.8703986,-1.2209995,-1.4199991,-0.9844995,-3.9059963,-1.5014989,-2.958859,-0.8379982,1.607348,-2.869197,0.56158584,-0.9199997
-2.674536,-0.5273959,1.2120098,-0.5536981,-1.8419946,-0.68537194,-1.9190009,-0.58267677,0.21604902,-1.0953981,-0.6628973,-0.7173998,-0.12900482,-0.91789955,-0.91300374,-0.76579547,-0.7684949,-0.9027919,-0.81127584,-0.4197002
-2.960998,-0.020898882,-0.61549884,-0.8499981,-1.6609988,-0.8852907,-1.3434993,0.058299944,1.0379044,-0.1465002,0.16599913,-0.7101999,-0.74438727,-0.5349999,-1.0111862,0.22610165,-0.5719979,-0.5255896,-1.6829935,-0.6443999
0.20118767,-0.32396963,-0.43025497,-0.044370383,0.16745698,-0.6233827,0.777695,-0.4256973,-1.3247722,-1.2490885,-1.0489947,-0.9061928,-2.454797,-1.0498946,-0.62285686,0.27285707,1.5919744,-1.5705516,-0.013470864,-0.40910107
-0.183452,-0.63338184,-0.64663666,-0.07178634,0.46571222,-1.4354489,1.1182765,-0.86503434,-1.8311995,-1.8499982,-0.8614967,-1.2534993,-4.3375077,-1.0349971,-1.149454,-0.5809976,0.97535306,-2.265181,0.18656303,-0.7759998
-2.4116228,-0.4475963,-0.44998795,-0.27829796,1.2748885,0.13382117,0.88194484,-0.9096798,-0.8259993,-1.2929994,-0.44349763,-0.86149985,-3.1939974,-0.9439997,-1.3844954,-1.0603994,-1.7013508,-1.894897,0.16781339,-0.84799963
1.2114016,0.071272634,-0.82124764,0.5415733,0.3321298,-0.77860224,-0.039748624,-0.23640959,-0.87836045,-1.2766758,-1.1783706,-2.0634005,-1.3431296,-0.27145255,-0.44249168,0.25940776,0.8459741,-0.3325793,-0.55704045,-0.15819888
-0.65499985,-1.2968959,-0.9603737,-0.42231175,-0.6306235,0.87040734,1.5167936,-2.241329,-1.519999,-1.2914977,-0.9104957,-1.0193993,-3.3744836,-1.6379986,-1.4661934,-1.1543983,1.4939818,-2.475787,0.52060664,-0.6600001
-1.1730223,-1.7849987,-1.8367975,-0.80730027,-0.7794567,1.5673087,1.5865048,-3.4375052,-1.5969992,-1.1249995,-1.0959996,-0.9379997,-3.0329974,-1.1519996,-2.7944348,-1.1189995,1.6644533,-2.370798,0.563312,-0.7019999
1.849778,-0.9439872,-0.5221018,-0.46818542,0.4933484,-0.1273432,-0.5203004,-0.69206613,-1.6998212,0.061085068,0.18244956,0.23660706,0.174235,-0.71138954,-0.33172035,-0.15980306,-0.44191024,0.04328043,-0.17400949,-0.31490007
-0.111289114,-0.16734156,0.66877866,1.1355745,-0.10447523,-0.36374503,-0.49858928,-0.81343603,-0.4507039,-1.2192426,-0.98853564,-1.3628243,-0.35043782,-0.44803533,-0.69224066,-1.723971,0.73397374,-0.52220356,-0.40170047,-0.47950286
-3.7559934,-1.0969999,-0.9469975,-0.84299946,-0.019998863,-0.7189977,-0.18599913,-0.9059969,-0.77299976,-0.81999975,-0.7219997,-0.6499999,-1.7519989,-0.63199997,-1.2239995,-0.9319996,-0.60199755,-1.8699986,-0.64599687,-0.69999987
-0.38424787,-0.15623432,-1.1916864,-1.2184769,-0.6291878,-0.9393383,-1.5669968,-0.524935,0.11957931,0.1546896,-0.34462813,1.021282,-0.4528123,0.15507695,-1.7049501,0.9042672,-0.97133446,0.10389367,-0.7942049,0.05738037
-0.104636505,-0.6219323,-1.039994,-0.7175926,-0.9699958,-1.196682,-1.4413978,-0.69703496,-0.5576678,-0.6182456,-0.3054876,-1.0186943,-0.15156363,-1.0344988,-2.1051621,0.63497144,-1.0029979,-0.17334391,-0.07288587,0.16210024
0.19209269,-0.27889282,1.2737035,1.759057,-0.5593844,-0.36375418,-0.82547575,-0.7029389,-0.37072998,-0.9890241,-0.9417505,-1.0730761,-0.22501111,-0.4738488,-0.7591248,-1.9418634,-0.16055131,-0.134593,0.034145407,-0.26200116
-1.5628899,0.1213587,1.120363,2.0333054,-1.1144416,-0.8320351,-1.0841955,-0.78246534,0.32977095,-2.095895,-1.5730957,-1.9367906,-0.020795278,-0.601123,-1.0123127,-2.1697962,0.105948836,-0.53260714,-0.39040855,-0.40100065
-0.65979934,-0.2681382,0.42638028,0.7390026,-0.02542926,-0.10754247,0.6234634,-0.8521705,-0.29844713,-1.866634,-1.0551366,-1.3828965,-1.2098924,-0.9179876,-0.7442313,-0.9773353,0.6133964,-0.5999358,-0.62950605,-0.6819999
2.2964723,-0.06664881,-0.19175373,-0.24223626,-0.43029356,-0.028891359,-1.3205618,-0.6345717,-0.002651319,0.40157333,-0.15471405,0.032276224,0.34926105,-0.50588614,-0.60642654,-0.10608953,-0.5995857,0.16339487,-0.29371378,-0.47736132
-0.79031664,0.37365654,-0.2888577,-0.026025236,-0.75901514,-0.2552683,-1.0874981,-0.641816,1.662281,-0.06489296,-0.57016885,-1.2984372,-0.31872967,-0.5846083,-0.87566245,0.17193669,-0.6862981,-0.16216052,-0.7927259,-0.50244
-0.6337004,-0.77680945,-1.2173576,0.08863825,2.4091702,-0.5666884,1.1003736,-0.5474789,-1.4139998,-2.2409875,-0.19265004,-1.2523073,-3.8282006,-1.2335993,-0.78367704,-0.50409573,-0.5130699,-1.3499877,-0.3501444,-0.91859955
0.8071771,0.5719357,0.651288,-1.0698147,-0.26056978,0.35949817,-1.46758,-1.6176555,-0.85645103,-0.49316785,0.7641524,-1.4872749,0.23030104,-0.014681108,-1.285405,-0.5891265,0.15516634,-0.21002054,-0.25188679,-0.24079905
0.60316974,0.2144114,0.48436797,0.22051848,0.7466785,-0.05458828,0.47798386,-0.62029743,-0.092869334,-1.6462446,-0.48589075,-1.340489,-1.4646316,-0.45632872,-0.5602202,-1.2552878,-0.58187914,0.40655375,-0.51054007,-0.13827926
-2.0105293,-0.94404864,0.19294725,-0.64574015,1.7584288,0.037520356,0.504469,-0.9402767,-0.9079976,-1.6195987,1.1651504,-0.8669992,-3.4555964,-0.7235996,-1.219379,-1.2634997,-1.4467957,-1.3218488,0.2777059,-0.6089999
0.5495779,-0.48994395,-0.42632234,-0.77121234,-0.56691927,-0.50936216,-1.3010288,-0.720322,-0.5068815,-0.46971577,0.6221543,2.2209558,-0.31157705,-0.6140617,-1.1713896,-0.029004175,-1.8281507,0.44070452,-0.20333448,0.17338926
-4.685013,-1.3019993,-0.36899987,-0.90199953,-0.1979983,-0.70949876,-0.87399596,0.22200043,-0.635,-0.72999984,-0.4839998,-0.55,-1.7799989,-0.6399999,-0.9049995,-0.7549998,-0.61899793,-1.661999,-0.88149893,-0.61999995
2.2903888,0.45436195,0.07411953,-0.008080292,-0.071109936,0.013345834,-0.786363,-0.59104776,0.26364583,0.070145376,-0.3375986,-0.41553542,0.3732656,0.22829299,-0.3663844,0.03761375,-0.22047749,0.093696706,-0.03091719,-0.68515307
0.64864975,1.5683702,-0.27150932,0.08292419,-0.09461637,0.14119625,-0.9634484,-0.9866362,1.0259203,0.27607104,-0.5277966,-1.1057914,0.3839068,0.681193,-0.90228355,-0.074202836,0.0083983,-0.10682744,-0.31016,-1.3673801
0.59207296,1.512411,-0.39957815,0.20014806,0.107169546,0.18698144,-0.84977263,-0.9961876,0.90003747,0.37585846,-0.67775124,-0.9425868,0.4049899,0.7928363,-0.82945734,-0.074409984,-0.015580935,-0.12018423,-0.41701657,-1.2702312
-0.83287424,-0.41680628,0.40376124,-0.6914006,1.1556934,-0.16951576,0.7763496,-0.35997662,-1.9456979,-1.6069976,-1.1559992,-1.0949985,-2.9504874,-1.0468978,-0.6648482,-0.57729656,0.574689,-1.3582946,-0.78470427,-0.86259985
2.2992647,-0.10055832,0.121212326,0.12330789,0.036235806,0.17692141,-0.63556266,-0.2429972,0.13395157,-0.04834612,-0.29139856,-0.19802685,0.24055955,0.036619127,-0.33699074,0.18209715,-0.28561136,0.038807664,-0.10487727,-0.8491911
-1.3365496,-0.8441512,-0.5207228,-1.0676836,0.41641468,0.044297274,1.7417319,-0.8253776,-1.6029767,-1.3065779,-0.77125484,-1.0160795,-3.3176148,-0.9214801,-1.2962494,-1.0571795,0.6980462,-2.4406662,0.16533215,-0.7053799
-2.349523,-1.623999,0.2742156,0.32670298,1.6690605,0.36419314,0.011596732,-0.92548615,-1.1834991,-1.2704995,-0.21549788,-0.82249963,-3.0255013,-1.1844974,-1.0773344,-0.96799964,-1.0722811,-2.0248938,-0.41904813,-0.75399977
1.531293,0.3329656,0.33345777,-0.046809826,-0.090490095,0.09235447,-1.103335,-0.9181392,-0.44038752,0.13148978,0.2951978,-0.3485308,0.5692709,0.28385082,-0.49422967,-0.6944448,0.44651386,-0.2195584,-0.41957405,-1.1315539
1.6256189,-0.5546532,-0.54419875,-0.6659884,-0.22271292,0.009554189,-1.390021,-0.89957905,-0.30966842,0.18219835,0.068896905,0.78118324,0.44953892,-0.26627758,-1.1246228,0.13450956,-1.2991089,0.45137218,-0.14406452,0.28363863
2.1106458,-0.12490998,-0.047979314,0.1248227,-0.2683958,0.12851577,-0.97713584,-0.78574604,-0.122580886,-0.16008073,-0.33447072,-0.6181524,0.62017876,-0.13164872,-0.43138784,-0.21878275,-0.49280024,0.17652065,-0.066913255,-0.5917162
1.5628713,0.6094831,1.2205173,-0.25864446,-0.15377234,-0.30345535,1.1213034,-0.8710937,0.038220078,-1.96683,-0.5713717,-1.1893591,-1.4166647,0.538608,-0.6446969,-1.3167477,-0.69859964,0.5328794,-0.43417528,-0.4313812
0.11845574,1.4276289,1.0379175,-0.6707743,-0.59638244,-0.35405558,0.9946994,-1.5137995,0.2095216,-2.6695967,-1.0660534,-1.5513985,-2.9711022,1.9812543,-1.2099786,-2.1671472,-0.6214385,-0.14402567,-0.6339147,-0.6817999
1.1341821,0.45427933,0.12075084,-0.52207446,-0.30585903,-0.2800348,-1.4005226,-1.0043578,-1.0518109,0.46965888,0.13751698,-0.32886562,0.49580568,0.11415428,-1.0153071,-0.31651,0.66775435,-0.7524221,-0.31965038,-0.185631
2.109909,-0.58995634,-0.44870645,-0.6352537,-0.61484575,-0.5747968,-1.8245249,-0.8552431,-1.0052643,0.64807695,0.4212088,0.23315197,0.67939335,-0.43051866,-1.0294513,-0.5476635,0.040627107,-0.34548637,-0.20515142,-0.41326448
1.2543201,-0.8120059,-0.57275105,-0.7273199,-0.55437446,-0.21907136,-2.3667657,0.41327065,-0.056453966,0.07389758,0.7532241,0.10337001,0.86542493,-1.115347,-0.937769,0.1443669,0.66268915,-0.3948517,-3.4233718,0.2376964
-0.12944342,-0.6523325,-0.7410524,0.26191702,-0.71505255,-1.8894204,-0.67192096,-0.022433609,0.06578488,-0.68371177,-1.729304,-1.2657982,-0.9407573,-0.8040971,-1.487551,0.76207566,0.008734487,-0.8503422,-0.55370075,-0.38028073
0.9161258,-0.18443604,-1.3383679,-0.0003033541,-0.57124305,-1.7271037,-1.012782,-0.70974094,-1.309916,-0.29451546,-1.5324057,-1.2348685,-0.719487,0.40837386,-1.4090761,1.0445379,0.5182095,-0.63003004,-0.2673731,-0.46138135
-0.6094547,-0.40988874,0.49600893,0.73635453,0.10117321,-0.013019817,-0.3767691,-0.12282546,-1.0953885,-1.6490948,-0.8285928,-1.6291966,-1.9376724,-0.65129286,-0.68268746,-1.2589989,0.5538686,-1.0940852,-0.9253191,-0.65839946
-0.5204354,-0.3772915,0.9048581,0.7182717,-0.45340982,-1.3538575,-1.8347656,-0.9932667,-0.57324356,-1.9254088,-1.6275688,-1.6603957,0.33502778,-1.2254891,-1.376583,-1.456355,0.85719866,-0.95775414,-0.2647496,-0.75910056
1.5119443,-0.37445483,-0.15544724,-0.31264272,0.20004062,-0.3201905,-0.37449285,-1.0482835,-0.086888656,-1.3507186,0.5039629,-0.22337794,-0.6818838,-0.83779985,-1.396905,-0.48450732,-1.8925833,0.9567923,0.01549241,-0.08637114
-1.4421684,2.05924,-1.1983608,0.5226941,-0.13684604,-0.21648677,-0.8310874,-1.2380592,1.9733113,0.51426905,-0.8670344,-1.4584581,-0.008544628,0.54185355,-1.1965662,-0.04482676,-0.42288694,-0.42032406,-0.84700197,-0.60090137
1.3934846,0.4493021,0.5041849,-0.17083463,0.18198052,0.12969497,-0.08585156,-0.67403287,-0.3591962,-0.6177725,-0.08927265,-0.8229108,-0.5843994,-0.16368279,-0.4829121,-0.8262029,0.076160185,-0.06950227,-0.38697392,-0.739586
-0.49369118,0.24423896,0.5454311,-0.18465091,-0.030080073,-0.7026589,0.24656971,-0.61985064,-0.955988,-1.8286953,-1.795098,-1.1583983,-2.0769083,-0.17357542,-0.91222686,-0.7190783,0.45097387,-1.0127956,-0.37191734,-0.77967954
-2.8220062,-0.26629886,-0.69499874,-1.2564987,-1.4304979,-1.1045909,-1.4379992,-0.99009436,-0.5499965,0.08599958,-0.16280003,-0.55049926,0.67790896,-0.40139955,-0.88987285,0.12690052,-0.40189946,-1.3209937,-1.3128908,-0.6381998
-0.53727084,0.0708954,0.7681329,-0.10096232,-0.43381637,-0.71690613,0.79254013,-0.7084139,-1.0429907,-1.7603973,-1.064998,-0.9999985,-2.2227316,-0.04769917,-1.1665831,-1.1694977,0.4297307,-1.5492885,-0.38762537,-0.59029984
1.3992623,-0.20728837,0.7957747,0.15847847,-0.038032115,-0.4641059,0.1950275,-0.76587754,-0.8648178,-1.0826788,-0.65261,-0.5358483,-0.83666,-0.0014715176,-0.8890228,-0.9824027,-0.10292033,0.15689269,-0.18855678,-0.33165923
-0.41697773,-0.21546447,-0.5634321,0.4334835,1.7204791,-0.2291165,0.23529385,0.28559744,-0.9884945,-2.077997,0.01970153,-1.4094988,-2.6607316,-0.70725393,-0.9198367,-0.16516028,-0.31184602,-0.9469277,-1.6307818,-1.0102596
2.5072324,-0.057349987,-0.10077522,-0.27061915,0.048653543,0.033449687,-0.89787096,-0.7771396,0.37295175,-0.3288084,-0.28071192,0.28824532,-0.037592005,-0.66879255,-0.7941252,0.15799725,-1.5435857,0.7151703,-0.096624516,-0.7346885
-1.0060092,0.44246912,-0.9350662,0.3600862,0.027202372,-0.10826542,-0.7369886,-0.75317484,1.4864275,-0.8319758,-0.15217775,-0.57231545,-0.4597792,-0.58009285,-0.84100085,0.05438444,-2.1573956,0.4154234,-1.3946141,-0.16831772
-0.4950784,0.14040744,-0.32729623,-0.3453988,-0.81014854,-1.2409557,-0.1575986,-0.70685744,0.07985097,-0.90779734,-0.4585915,-0.49090016,-1.5025108,-0.2307968,-1.5278593,0.3245991,-1.2168008,-0.09195113,-0.4679323,-0.24140057
-0.4479083,0.33705345,1.3047577,-0.47320056,0.8872673,0.53205395,1.1062981,-0.8657898,-1.1658925,-1.9877956,-0.99079084,-1.5013977,-2.8405879,-1.1543992,-1.1254674,-1.5469947,-0.7459604,-0.30806866,-0.60663605,-0.975199
-0.73267794,0.16450009,0.78324926,-0.75076616,0.12472727,-0.16851708,1.210411,-0.39782068,-1.7174939,-1.8988979,-0.55499935,-0.94239885,-3.6573157,-0.18721905,-0.9556348,-0.80126464,-0.45128462,-0.85203195,-0.96724886,-0.61942
-3.854002,-1.0499995,-0.6469985,-0.74599946,-1.7359987,-0.59799564,-1.1879985,-0.6079965,-0.92599964,-0.45699978,-0.49400002,-0.5700001,-0.76699746,-0.3830002,-1.0859938,-0.75000054,-0.45699978,-1.7259997,-0.3089994,-0.72599983
-1.8359832,0.1785025,-0.5364976,0.29949817,0.9080311,-0.28398812,0.00999908,-0.101988904,-0.74899983,-1.0539995,-0.89549774,-0.7949997,-2.9274976,-0.46449855,-1.5349932,-0.9694995,-0.44999385,-1.7774981,-1.6989976,-0.80799973
0.5238652,1.6973833,-0.402056,-1.0372275,-0.277766,-1.5712539,0.017444277,-0.62405103,-0.8934775,-0.9790957,-0.46437135,-0.69066846,-0.6030221,-0.93687004,-1.4500309,-0.18207844,0.02955226,-0.45397323,0.3728516,-0.5242824
-0.96796507,0.21400271,-0.24240316,-0.1835751,-0.3419463,-0.64194196,-1.1599911,-0.014253404,-1.1806465,-1.1729968,-0.76634204,-0.98559994,-1.1251281,-0.74254894,-1.5416694,-0.008247949,0.8271108,-0.97970915,-0.69473,-0.65304965
2.1855264,-0.46477875,-0.68195003,-0.39285028,-0.35157233,-0.05181241,-1.5956092,-0.841989,-1.150741,0.56417924,-0.11537853,0.4782984,0.50663644,-0.70789146,-0.79290134,0.07955145,-0.62126714,0.035110027,0.1054074,-0.14052747
-0.7357757,-0.90040827,-0.4322991,0.64612985,2.3200705,0.62638927,0.5368048,-0.3349209,-1.1855621,-1.5281026,0.6498633,-0.13318376,-2.8310819,-0.31339723,-0.6790807,-1.2139047,-0.87694293,-0.33056906,-0.5915289,-0.4187004
-2.2262943,-0.67249906,0.23490095,0.020199355,-0.3217953,-0.7234824,0.22450006,-0.063991785,-1.1000003,-1.3039994,-1.0313993,-0.87499976,-2.7359967,-1.1563995,-1.4070848,-0.91089964,1.1039109,-2.1699982,-1.1888906,-0.7813998
0.9267095,-0.69066113,-0.50450456,-0.82892346,-0.7344925,-0.04920055,-2.9778814,0.30743888,0.28219736,-0.04869282,0.5534699,0.019156434,0.86130446,-0.5514902,-0.89446086,-0.008280725,1.1412989,-0.46842787,-3.5729795,0.10555643
1.152589,-0.05524938,-0.48488456,0.054949146,0.052222446,-0.1838408,-0.84410495,-1.0120549,0.43079877,-1.088948,-0.2623885,-1.2323179,0.07226989,-0.70896703,-1.010783,0.3564015,-1.7325438,0.74593,-0.426431,-0.3102174
1.5466862,-0.19265464,0.81406736,-0.36313394,-0.123684384,0.42050573,-1.2875196,-1.1489608,-0.42828268,-0.19300452,0.9448776,-0.65514207,0.665343,-0.31829447,-0.78118867,-1.0299523,0.093070336,-0.3183233,-0.5959967,-0.9177857
-1.8738899,-1.0213962,-0.5276381,0.10594112,2.0217443,0.1318023,0.75323784,-0.8360617,-0.9693984,-1.4629993,-0.6808968,-1.0229994,-3.4761975,-0.88879925,-1.4529101,-1.0763993,-1.4215853,-1.4065943,-0.07947898,-0.89659965
-3.0729985,-0.6599972,-0.25399974,-0.7149994,-1.7074991,-1.1345047,-1.5209993,-0.08500005,-0.1470002,0.0009997524,-0.7859993,-0.50800014,-0.8199936,-0.6079999,-1.4990071,-0.23099944,-0.45549974,-1.6115005,-0.33599758,-0.69099987
-0.05100733,-0.38696355,0.30850348,-0.04211061,0.30146214,-0.9942078,0.85322994,-0.81642777,-0.90339905,-1.9207866,-0.6328227,-0.6307848,-2.4876733,-0.60743195,-1.1435988,-0.38826245,0.90923345,-0.9106387,0.1995633,-0.5458179
0.6968926,-0.90722245,-0.2907469,0.6780197,1.6383809,0.32676005,0.1909882,-0.5865689,-0.632232,-1.635851,-0.042181805,-1.3777804,-1.2638178,-0.45582202,-0.4241649,-0.78254545,-1.2638159,0.67398864,-0.5829679,-0.08672019
-1.6701367,-1.1900982,0.17879727,-0.8637728,1.2556815,0.044193298,1.2497467,-0.7465525,-1.2685999,-1.4679991,-1.1997,-0.98599946,-2.9645977,-1.1966002,-1.3332748,-1.3560992,0.39249995,-2.407492,-0.3158222,-1.0199996
0.40904856,-0.5061364,0.51687604,1.4520055,-0.6546345,-0.22236814,-0.4194965,-0.7993229,-0.19742228,-0.2935137,-0.85289085,-0.53064764,0.37335175,2.1161332,-0.82864606,-1.1756172,0.17811187,-0.1361343,-0.09708596,-0.6536955
-2.2581868,-2.6441977,-0.19287919,2.3223255,-1.9152794,0.07824789,0.006802326,-0.7718906,0.7174695,-2.1272955,-1.806698,0.177126,0.13837941,3.8093123,-2.5286958,-1.4720962,-1.1499683,-1.9034878,-0.616403,-0.85559946
-2.02475,-1.5629966,-0.8977903,1.8828995,-1.7245979,-1.3524817,-1.461201,-1.1330817,-0.99868953,-1.7474974,-1.5938983,1.1475035,0.09970893,3.601291,-2.574588,-1.2213984,0.42790914,-2.0531936,0.3009163,-0.8581998
-2.2793715,-1.3969976,-0.97358865,1.8490988,-2.2810915,-1.4604772,-1.4089966,-1.5082906,-1.3269886,-1.1829984,-1.5524989,1.1887031,0.38790858,3.449978,-2.121984,-1.1519995,0.28370085,-1.9374934,0.2648096,-0.75999975
-0.7577256,-1.8632514,-0.5651781,2.4475863,-1.7891923,-0.30688876,0.14191951,-1.070912,0.16189438,-2.0575783,-2.0505314,0.33255273,0.35213593,4.2324114,-1.874819,-1.5814964,0.013686201,-1.2153897,-0.59099597,-1.2216177
-1.1193802,-1.9626496,-0.5789237,2.591976,-1.5288707,-0.41072953,0.06422326,-0.95347494,0.09221269,-1.8411841,-1.912336,0.29035372,0.31461635,4.165047,-1.8423051,-1.6995958,-0.02050542,-1.3210886,-0.57862794,-1.0928179
-2.380967,-2.3856957,-0.120878525,2.546842,-1.8570867,-0.1708217,-0.25170055,-0.7021813,0.9942578,-2.0471973,-1.9369977,0.16862242,0.26770845,3.7298632,-2.1597118,-0.90519375,-1.2228669,-1.2866915,-1.1449491,-1.0177996
-1.1366287,-0.13165,0.29255033,1.2956283,-1.7409927,-1.0925845,0.26610166,-1.1167381,0.37310466,-1.1943432,-1.7869986,-0.93919575,-0.32879657,0.13994615,-1.3712265,-1.3684449,0.42681178,-1.0745684,0.027886909,-0.5728
1.7179781,-0.76650316,-0.91106594,-0.5846867,-0.36610365,-0.37951288,-1.2989973,-1.0777391,-1.0866898,0.40084666,-0.0702567,1.258454,0.29701942,-0.30703056,-1.0488931,0.557095,-0.9015892,0.016470809,-0.31864566,-0.09420648
1.151687,0.66092485,0.22253013,-0.01826634,0.46026954,-0.58647,0.55333954,-0.71680415,-0.16584453,-1.2664967,-1.0170192,-1.306549,-1.2960824,0.098010056,-0.55264807,-0.6518125,-0.38889056,0.23884992,-0.38283747,-0.522404
-4.3800025,-1.1399995,-0.7199999,-0.70999986,-1.3399993,-1.5549991,-1.2599994,-1.1799995,-0.7999998,-0.69999987,-0.81999975,-0.58,-1.5499991,-0.7899998,-1.5199991,-0.8999997,-0.7699998,-1.664999,-0.8749997,-0.7999998
-3.1819732,-0.6991984,-0.02460001,-0.70359963,-1.6259997,-1.2090001,-1.5259992,-1.0199975,0.8810021,-0.49199897,-0.46399972,-0.6949998,0.45900208,-0.3899999,-1.2939976,-0.9569994,0.036000013,-2.048797,-1.2600026,-0.62799996
0.72692084,0.714075,0.15676686,0.5611696,0.07239789,-0.23216465,-0.2278907,-0.6520639,-0.43435666,-0.9789962,-0.88036287,-1.4539161,-0.9168314,0.53693146,-0.43888345,-0.8664296,0.23180878,-0.20763803,-0.45290318,-0.6275237
-0.5993248,2.3426888,-0.9845113,-1.0238705,-0.1457474,-3.1342812,-0.2389006,-0.7161664,-1.2365947,-2.022598,-0.99668413,-0.92799777,-0.10297204,-1.2683985,-1.8084261,-0.02612904,-0.3406962,-0.5972986,0.5374331,-0.4632007
-3.072013,-1.3529987,-0.49100158,-1.0029978,1.4325086,0.11101547,0.46000004,-0.8779791,-0.8079998,-1.0859996,-0.88899887,-0.7859998,-2.3579984,-0.75199986,-1.354985,-0.8869997,-1.5039951,-2.0569987,-0.26098138,-0.86999977
0.26883265,2.0740628,-0.09361216,-0.21408994,-0.5520306,-2.1377583,-0.48969826,-0.8318386,-0.57498497,-1.2559541,-0.75300735,-1.0803155,-0.24867654,-1.0714796,-1.5716432,-0.5248646,-0.014200769,-0.5339325,0.24949756,-0.74699056
0.61202353,-0.008245129,-0.7664955,-0.025294028,-0.12395645,-0.6798518,-0.8253909,-0.71540844,1.1083976,-1.440332,-0.23159,-1.2262713,-0.07306448,-0.366142,-1.053212,0.52794725,-0.61087435,0.41568565,-1.053037,-0.40844914
-3.1850052,-1.4204987,-0.9926344,-0.31524432,2.2801743,0.21239123,-0.36121306,-1.0315688,-0.88649917,-1.1646994,-0.3948979,-0.93929964,-2.834398,-1.0606996,-0.90043575,-0.89679945,-1.081084,-2.0398967,-0.035281576,-0.75639975
1.3027264,0.24931662,-0.55712914,0.026771002,0.062487535,-0.5056413,-0.67447156,-1.0676348,0.94103223,-1.0427572,-0.40295923,-1.5352138,-0.49445054,0.041308165,-1.0937902,0.53588635,-0.95872325,1.0530317,-0.65315074,-0.1720384
-2.9647803,-0.3939986,0.73000187,-0.9238972,-1.0291033,-0.7134884,-0.83399487,-0.34199485,-0.90649897,-0.99499935,0.24449977,-0.6629996,-1.7229973,-0.83099973,-0.5819828,-0.7829983,-0.39299715,-0.836997,-0.5499948,-0.5200001
-1.3587087,-0.7708901,-0.4304371,0.54186636,-1.2445778,-1.2399024,0.030060042,-0.54646856,-1.4766978,-0.9277477,-0.3970955,-0.785099,-2.1932414,-1.0082982,-0.8124292,-0.9284972,0.9174355,-1.6077882,0.0678997,-0.66650003
-0.4309947,-0.5529956,1.435228,0.9240821,-0.043911956,-0.53357613,-1.7200671,-0.91751236,-1.0992541,-0.7194099,-1.111694,-1.0071187,0.6073188,-1.2046824,-1.3418442,-2.323515,0.54044265,-0.38053808,-0.22869629,-0.7412994
-2.1499913,-0.8543972,0.10893831,1.6753856,-1.5775956,-0.6469739,-1.2327057,-0.77404237,-0.94975674,-0.878797,-1.3899986,-0.7029001,-1.0280819,-0.83199626,-1.3022286,-0.8465981,1.0484912,-2.0326939,-0.3507781,-0.6116
0.6217439,0.45783302,-0.4591225,0.7650522,-0.17702715,-0.57842773,-0.46920815,-0.7579692,0.46407282,-0.71275693,-1.079361,-1.8900015,-0.2163611,0.32178718,-0.6728032,0.069491684,0.16856587,-0.27018747,-0.5389642,-0.11343911
-2.0869956,-0.7803981,-0.25869668,-0.24300152,-0.2035924,-0.8259714,0.15299791,-0.6069866,-1.2269992,-0.99799955,-1.0419996,-0.64599985,-2.521996,-0.5289992,-1.0929794,-1.0274996,0.89802283,-1.675001,-0.36999008,-0.7429998
0.62133926,0.22624719,-0.44018477,0.09025241,-0.058472022,-1.1614162,-0.6426537,-0.4038276,0.95232785,-1.2410445,-0.42759663,-0.43918064,-0.34800383,-0.4921892,-1.3430494,0.7731799,-1.1561381,0.62156117,-0.94085824,-0.1619556
-0.32198995,0.4300491,1.3061036,-0.17419478,0.24802491,0.32460693,0.6918942,-1.0146352,-0.45037997,-1.7948413,-1.1973404,-1.5550948,-1.4865263,-0.33721396,-1.020559,-1.8979421,-0.47914353,0.012738273,-0.904819,-0.57480085
0.5871671,0.06136033,0.76732695,-0.04238619,-0.21298493,-0.6016896,0.4283773,-0.8811464,-0.56772244,-2.181737,-0.4976408,-1.0574889,-1.5469954,0.3510884,-1.0357504,-1.7114675,0.7211724,-0.71823347,0.21343121,-1.120728
1.8060968,-0.042612948,0.55116934,0.3115546,-0.23969226,0.2050258,-1.0569181,-1.0695647,-0.4197524,0.28835905,-0.07187521,-0.5736618,0.63312364,-0.2172519,-0.83258784,-0.7546001,0.38698566,-0.09014804,0.04186917,-0.72535974
0.8798038,0.1494914,0.5429959,-0.4566982,-0.23256508,0.34533298,-1.0161048,-1.4005224,-0.039432988,0.05581984,0.82087475,-1.1248037,0.48187283,-0.049125127,-1.0416615,-0.4715375,0.13681881,-0.2664482,-0.12799266,-0.2096646
-2.2918005,-0.29469782,-0.5446995,-0.9399996,-1.3224965,-1.5574919,-1.0319984,-0.5809954,-0.39599496,-0.4366001,1.5284036,-0.44519976,-0.49489394,-0.7037998,-1.3249907,0.37730053,-1.0777993,-1.1498905,-1.930493,-0.604
2.1058202,-0.0666244,-0.799992,-0.69796675,-0.27062425,-0.78196377,-0.6831265,-1.1514484,-0.6095265,-0.22911017,-0.23180702,0.7573572,0.10775968,-1.0965991,-1.1826899,0.5728257,-1.2702365,0.3413937,-0.24434623,0.15309912
0.65386516,-0.67676044,-1.0156255,0.105930544,-0.3033035,-0.59900707,-1.7702456,-0.71134883,0.97497106,-0.5774945,-0.20883775,-0.49232367,0.19120404,-0.84235865,-1.1661911,0.65137327,-0.9891207,0.69431305,-1.0608778,-0.14167203
1.2018344,0.54020566,0.006641131,-0.29372427,-0.051960237,-1.3383679,0.7574239,-0.9959911,-0.33937055,-1.2084281,-0.28888154,-0.98473686,-0.9230214,-0.17588258,-1.1332903,-0.501645,-0.060724944,0.007736996,0.03058191,-0.21527924
-0.10850941,-0.5274021,1.2232262,0.83991826,0.023034947,-0.25236547,-1.0937017,-1.1191305,-0.39671096,-1.2810911,-1.0189128,-1.7696457,-0.13269362,-0.5531482,-1.0972778,-1.5162485,0.16727947,-0.29620358,-0.31563035,-0.6023611
2.4387975,-0.74849474,-0.6099451,-0.6083807,-0.31360582,0.19797836,-0.8308705,-1.0307544,-0.7730887,0.08465326,0.05534544,1.0279701,0.16725788,-0.59477293,-0.77097875,0.05931907,-1.2003101,0.4223676,-0.034420006,-0.12714492
-0.6052602,0.08936294,0.0694879,1.4361286,-0.7045549,-1.1158828,-1.3765281,-0.49038345,-0.80557805,-1.1075602,-1.7226014,-0.5442769,-0.3097412,0.03532749,-1.2797315,-0.78141636,0.9582154,-0.9384291,-0.32271898,-0.58277667
-2.9749942,-0.120499045,-0.8289992,-1.0054994,-1.5489993,-1.1194998,-1.3599993,-0.9285003,0.5430004,-0.36150002,-0.40099865,-0.76349974,-0.43299443,-0.7399997,-1.5249989,0.47650075,-1.0274993,-0.82299495,-1.0954977,-0.58999985
1.0166615,-0.36764908,-0.5578035,-0.8437437,-0.4411994,-0.9686236,-2.1212027,-1.2190897,0.10495187,-0.4089988,0.2240343,-0.18316843,0.14144774,-0.5758875,-1.5203394,0.482791,-0.42528293,0.06759409,-0.8258516,-0.05035928
0.020005168,-0.21363139,-0.8052011,0.16918945,1.6015878,-0.051120378,-0.34742257,0.038222454,-1.9818094,-1.3208079,-0.033882707,-0.10375714,-2.3083951,-0.71923184,-0.52282155,0.56729996,0.42540094,-0.7271643,-1.4162223,-0.17060028
0.4018911,-0.2827555,1.1404111,0.53911525,-0.1107906,-0.98409015,-1.5892025,-1.0584213,-0.5255124,-0.9823458,-0.84717005,-1.507606,0.52121645,-1.025142,-1.2672131,-1.4028397,0.2760373,-0.22059084,-0.37639442,-0.39354947
2.041494,-0.60241324,-1.163967,-0.40717742,-0.40710837,-0.54517245,-1.11314,-1.049389,-0.9226777,-0.30516905,-0.22283469,-0.21032757,-0.061328903,-0.56950045,-1.1956005,0.7070394,-0.72662324,0.22901422,-0.19110392,-0.14193612
-1.1548809,-0.017682,-1.2547237,-1.381357,-0.6113835,-2.6573048,0.03224988,-0.6374971,-0.79848945,-1.4509581,0.9583865,0.7420101,-0.9488064,-0.86309856,-1.3910295,0.055639066,-0.98949796,0.67397815,-0.36941078,-0.3096206
-1.9484421,-1.5832984,-0.33108625,-0.66559047,0.87539023,-0.46915674,1.3738079,-0.7524683,-1.2689993,-1.2159994,-0.10799914,-0.7801999,-2.5454962,-0.7917998,-1.4521947,-1.1254995,0.07039984,-2.3034976,-0.4478203,-0.84799975
-2.9719908,-0.3079992,-1.1334988,-0.87649906,-1.7349987,-1.1664959,-1.4519991,-0.6939933,-1.0774987,-0.22999978,-0.16300017,-0.22100031,-0.9539904,-0.68299985,-1.1304897,-0.48849833,-1.0159997,-0.90099543,0.023501618,-0.62699986
0.42320982,-1.049652,-0.0016717962,0.63828677,1.9527218,0.71015453,0.4629934,-0.642775,-1.0822167,-1.5989608,0.8772657,-0.500544,-1.6407844,-0.29827172,-0.42242253,-1.3637866,-0.9570808,0.541312,-0.44761017,-0.17330079
-0.28158063,-0.3930375,-0.2285791,-1.0659858,-0.18690588,-0.49586347,-0.09839758,-0.36598438,-1.6568447,-0.95129097,-1.5216956,-1.0428979,-2.388015,-1.2423995,-0.9334465,0.7054111,1.0277512,-1.2777385,-0.4803943,-0.47540054
2.2699666,-0.78067887,-0.5509103,0.34163254,-0.9207084,-0.9771852,-0.6420496,-0.7234953,0.04011912,0.7292964,-0.501195,-0.5183298,0.39027303,-0.7889017,-0.9244771,-0.23904583,-0.07905063,-0.2572418,-0.36523253,-0.22427014
1.0451092,-0.8624212,-1.0498928,0.5445404,-1.0640192,-2.2548707,-0.59305227,-0.6702415,0.224454,1.2392389,-0.9763044,-1.2961116,0.06798823,-0.67824066,-1.1095111,-0.061119966,0.25452563,-0.59681326,-0.5298891,-0.2560794
-1.8039254,-0.12899806,0.13600034,-1.2369989,-1.1679904,-0.89628184,-1.4854971,-0.23200305,-0.68549544,-0.17229977,1.5339063,-1.3218993,0.42701542,-0.44600013,-1.8559719,0.24389902,0.98950213,-2.0258884,-2.6929865,-0.5363999
-3.8619952,-1.1569996,-0.4120001,-0.39999983,-1.4399992,-1.8359989,-1.2499994,-1.3399993,-0.7899998,-0.6339999,-0.7059999,-0.588,-1.3,-0.58,-1.4299997,-0.6899994,-0.57200044,-1.4179997,-1.2159997,-0.68599993
-0.18420346,0.37249777,-0.47978964,0.08106516,-0.5419303,-0.740299,-0.64587146,-0.94777757,1.429528,-0.924614,-1.123688,-1.6519811,-0.57331157,-0.1480901,-1.2464459,-0.46742037,-0.18829536,-0.15257043,-0.16900815,-0.3988006
2.617335,-0.3594343,-0.45377347,-0.5646126,-0.019570706,-0.11297279,-1.1379744,-1.221033,-0.44034076,-0.08132334,-0.22076645,0.895358,0.07024929,-0.88140947,-0.87973017,0.19268885,-1.1526761,0.40208924,0.045438614,-0.39901447
-0.5016549,-0.94128674,-0.77333343,-0.001604409,0.68232936,-0.29763743,1.2366172,-0.9883008,-1.5836982,-1.4315964,-0.7072928,-0.86769813,-3.3171806,-0.20789516,-0.8884002,-1.1432998,0.99477476,-2.055787,0.12794156,-0.8497
1.5308568,-0.40009552,-0.29316273,-0.027388025,-0.6764642,-0.08449216,-1.1078407,-0.9591323,0.02689465,-0.09234768,0.38392174,-0.48158,0.7610354,-0.76078933,-0.9019019,-0.14298294,-0.25178418,-0.27040246,-0.50964725,0.021657616
-0.526765,-0.49573806,-0.19325382,0.29851094,0.66129464,-0.9350478,0.8466044,-0.67967653,-0.99848956,-1.4554967,-0.5484923,-1.3069988,-3.0059812,-1.5099992,-0.92336905,0.105503105,0.59154165,-1.664078,-0.4374437,-0.66499966
-3.1580255,-0.81299824,-0.012500152,0.47299978,-1.123999,-0.7599859,-1.0329987,-0.33199728,0.0040000807,-0.88799906,-0.8979986,-0.6529997,-1.0669985,-0.41399953,-1.1469944,-0.71899897,-0.16249986,-1.6819974,-0.83398914,-0.6619999
1.1408572,-0.25906244,-0.2467584,-0.6810692,-0.4187948,-0.893762,-0.50364584,-0.77910024,-0.028800312,-1.0822324,0.83191025,0.6629787,-0.77473545,-0.9172746,-1.1551538,-0.8050821,-1.3382055,0.58051795,-0.086634174,-0.1723939
2.1787038,0.036349073,0.2997944,0.1845826,-0.52276903,-0.57799745,-0.72678953,-0.8260515,0.36573702,-0.36072236,-0.4647444,-0.9636969,0.18608475,-0.36310557,-0.48547462,-0.33834258,0.22510934,-0.21196274,-0.078347065,-0.6748607
0.23005871,0.21623094,0.44874662,-0.4656656,-0.31795886,-2.8316424,-1.2962767,-1.3121593,2.7170305,-1.3726907,-1.5568477,-1.9518125,-0.2604322,-0.9264961,-2.0368986,-1.3346719,1.7195885,-1.9628096,0.4529702,-0.82480013
-0.29779598,0.03175704,0.18376411,-0.2645418,-0.43477985,-2.7287357,-1.2617861,-1.2795641,3.4497483,-1.2930403,-1.0804058,-1.8858945,-0.419732,-0.77679694,-2.2191122,-0.9306298,1.6059124,-2.0902014,0.4867065,-0.9686
-0.6975796,-0.24844955,0.3939909,-0.80251676,-0.03368744,-4.8700957,-1.8554878,-1.6259015,3.5695853,-1.8712789,-2.0150347,-1.4361756,-0.47350454,-1.1683956,-2.7691576,-0.75090355,2.032689,-3.5028486,1.1395414,-0.64080054
-0.5797881,-0.16231628,0.46429107,-0.9171543,-0.12508593,-4.2529283,-1.9364837,-1.6581311,3.4938228,-1.386016,-2.0131557,-1.7057563,-0.3137478,-1.018196,-2.741386,-0.8754007,1.9547098,-3.0189624,1.0136456,-0.79880023
-0.27542347,-0.52578425,-0.89520985,0.77132016,1.7318442,-0.04461392,-0.3930448,0.114483394,-1.5330935,-2.2328832,0.6660824,-0.51595324,-2.4423783,-0.31152636,-0.61596876,0.16632633,0.04211618,-0.63643837,-1.4164628,-0.5210805
-2.6640143,-1.2949991,0.3961821,-0.27579713,0.912935,0.23448889,0.39909962,-0.5414993,-0.96299934,-1.0119996,-0.8014995,-0.7359999,-2.443998,-0.77649975,-1.6806388,-0.8559995,-1.7039639,-1.8757979,-0.8639874,-0.53200006
-1.1693318,-0.40351182,0.114077926,-0.16098614,1.2521131,-0.04964575,0.91711026,-0.43401685,-1.4392712,-1.6226386,-0.9280821,-0.97321904,-3.1619751,-0.03639721,-0.8501873,-0.90431803,-0.101417184,-2.229686,-0.6443264,-0.8681996
-1.6375694,-0.8439919,0.34275672,0.40289602,1.4134507,-0.08365231,0.87301636,-0.89517766,-1.154397,-1.2384998,-0.4481438,-1.1029996,-3.049897,-0.5343978,-1.1859176,-1.2773994,-0.7647205,-2.1076965,-0.20431228,-0.74999946
2.1511803,-0.7786011,-0.5894824,-0.13679631,-0.013722984,-0.18597567,-1.1735241,-0.91779304,-0.34657013,-0.384571,-0.03190559,0.33139896,0.28901964,-0.85794955,-0.7477535,0.17731,-0.5798397,0.576232,-0.48808604,-0.5814666
1.2067437,-0.5912325,-0.92464036,-0.22254808,-0.07900015,-0.41267318,-1.3628889,-0.8370683,0.3289814,-1.1778419,-0.49408436,-0.48739,-0.029464385,-0.93708503,-1.1811082,0.67356706,-1.3399214,0.65163326,-0.7897878,-0.18096872
0.98327965,-0.92956567,-0.4086869,-0.36651137,-0.62582964,-0.12700602,-1.6301291,-0.53137815,-0.07207407,0.43495494,0.03614773,0.65551823,0.7229086,-0.7194547,-1.3184346,0.17613582,-0.6866319,-0.053843603,-0.6538431,-0.21303828
-0.30904385,-0.21961254,0.8397918,-1.2078205,-0.02530772,0.53971505,-2.018888,-1.7161627,-0.6372323,-0.439174,1.5344697,-1.1148231,0.58167773,0.19616558,-1.133837,-0.780274,0.9406233,-1.0404384,-0.9418501,-0.07291942
-2.692516,-0.613895,-0.047841057,-1.1593808,1.8846577,-0.30032614,0.6721516,-0.6288665,-0.99733484,-1.2169994,0.2130004,-0.8289995,-2.8526661,-0.47503057,-1.5208604,-0.90799934,-2.197164,-1.7150005,0.3924722,-0.7499999
0.5327911,1.1724116,-0.8497193,-1.286055,-0.11430391,-1.7491362,0.40194333,-0.22988296,-0.8124664,-1.5608026,0.313842,-0.82743704,-1.5256704,-0.43071938,-1.4156884,-0.07126892,-0.47083405,-0.14792709,0.09680397,-0.49156383
-1.7549376,-1.4598981,-0.4388911,0.45566425,1.3205473,0.33248127,0.088253036,-0.70894516,-1.4559985,-1.1744994,0.28010005,-0.6945997,-3.0119956,-0.35299876,-0.86531115,-0.994999,-0.51246583,-1.3795897,-0.52346206,-0.5580001
-1.3621497,-0.28786215,0.3181948,-0.39367083,0.75122577,-0.113702595,0.7667235,-0.7742663,-1.4285997,-1.525498,-0.44979608,-1.2189994,-3.1946914,-1.2044979,-0.9722895,-0.5848975,0.52002877,-2.0290916,-0.13464865,-0.84299964
-0.90351886,-0.64179623,0.77190727,2.1276731,-0.9074953,-0.21585305,-0.24685104,-0.6115814,0.13158739,-0.95923895,-0.96460694,-0.27111012,0.08537585,0.7878882,-0.976303,-1.1336308,-0.25292125,-0.3105778,-0.49701193,-0.026961666
0.09766636,-0.36324438,0.8966344,1.7945783,-0.43699837,-0.60591745,-0.3467533,-0.6824743,-0.29716936,-1.67032,-1.2411886,-1.7879907,-0.4307011,-0.353657,-0.7395712,-1.5848923,0.35036638,-0.2769763,-0.19279628,-0.33528194
0.34965977,-0.3504463,0.44598296,-0.2903499,0.7661267,-0.25687695,0.5885929,-0.5072145,-1.3110739,-2.135581,-1.1970927,-1.8820871,-2.6271555,-0.38238662,-0.35376576,-0.9769333,1.2668426,-1.1051035,-0.121516615,-1.1090983
0.78813183,-0.056489423,-0.3925039,0.84617096,-0.17114647,-1.1933225,-0.40874526,-0.5006017,-1.0057758,-0.6130127,-1.8931284,-0.9258619,-0.60446626,-0.3901668,-0.799624,-0.2828923,0.3732874,-0.31047603,-0.4386755,-0.08695909
0.92517847,-0.33012396,-0.9700479,-0.69314903,-0.8111856,-0.99700975,-1.6553357,-1.0488402,-0.29534847,0.110656045,0.4703395,0.97168744,0.40843853,-1.0660241,-1.2516764,0.61313343,-1.0283163,-0.04882013,-0.71046346,0.20440814
-3.719991,-1.1589993,-0.89999956,-0.34900022,-1.5699991,-1.651999,-1.2499994,-1.2199994,-0.7769998,-0.7159998,-0.8359998,-0.56,-0.96699816,-0.54,-1.939999,-0.74999976,-0.585,-1.5469984,-1.1929996,-0.54
-0.5535307,-0.5818528,-0.62539035,-0.2641085,1.6370889,-0.66878986,0.8569476,-0.2176976,-1.4055911,-1.4226968,-0.82209593,-1.367499,-3.2940888,-0.5378964,-0.69900805,-1.074749,0.74243206,-2.0507712,-0.38277945,-0.9298995
-0.2151996,0.07913481,-0.53888756,-0.72429144,0.29609096,-0.4035706,-0.64574903,-0.5600549,-2.4373329,-0.18948957,-0.44365448,-0.68828726,-0.98039055,-0.10943417,-0.82474756,0.38707513,1.0185412,-1.2557545,-0.1305266,-0.11966067
-3.2246037,-1.3669991,-0.4571919,-0.04449956,0.44290483,-0.610183,0.6652195,-0.24300212,-0.9919996,-0.93399966,-0.7569996,-0.71839994,-2.2979984,-0.6445987,-1.4689813,-0.9169996,-0.38559157,-1.8859982,-0.16539544,-0.7999998
-0.7804419,0.07274064,0.17821264,0.39263073,1.0994242,-0.4317513,0.81192774,-0.52090836,-0.9999919,-1.3639977,-0.5462877,-1.1830992,-2.6069329,-1.0488778,-1.1048788,-1.164779,-1.5463308,-0.057957083,-0.8398763,-0.6718793
1.6972761,-0.5096605,-0.9353401,-0.38918614,0.061558403,-0.27212507,-1.2249722,-1.2069669,0.34039766,-1.0128497,-0.120716535,0.43789178,-0.008455196,-1.2239598,-1.1985382,0.6904942,-1.7079664,0.799343,-0.37102234,0.0020027794
0.019184174,0.20684592,0.3989748,0.031620227,-0.42497277,-0.93508005,0.18804847,-1.0389938,-0.21168232,-1.4561894,-0.6758776,-1.367598,-0.7716232,-0.48093256,-1.2063837,-0.38414526,0.5124219,-0.33861044,-0.046737656,-0.5720601
-0.71285295,-0.20119354,0.2654313,-0.4355427,1.5012625,0.34846738,1.1881521,-0.6071035,-1.4682968,-1.939197,-0.3030422,-1.1912982,-3.3699963,0.33890197,-1.2072256,-0.890996,-0.05130453,-1.2360798,-0.5399136,-0.9671995
-0.15139577,0.34524322,-0.6775675,0.14442213,0.0464498,-0.07747285,-0.97389394,-1.3932675,0.7774932,-1.4367365,-1.0196517,-1.4465516,-0.76582843,-0.85819525,-1.1720983,0.0694226,-1.2208035,-0.0045047775,-0.61874646,0.006802259
-0.79719234,-0.731359,0.81201136,0.11910002,-1.350831,-0.62439877,-1.1420426,-0.3951196,-0.5503779,-0.8220322,-0.32655922,-0.08369842,-0.103045985,-0.350319,-1.0660256,-1.1418281,0.26876,-0.749082,-1.0375174,-0.5548001
-2.2817729,-1.2893586,0.07949905,-0.08234074,1.0893104,0.17532822,0.37499902,-0.19908944,-0.8579,-1.0433595,-0.6308775,-0.6701,-2.4427984,-0.91599965,-1.2102858,-0.9774997,-0.9679981,-1.6842587,-1.7720246,-0.7509998
2.0418048,-0.3315162,-0.11433418,-0.13162753,-0.090025395,-0.23011659,-0.8546683,-1.0980654,0.5159771,-0.86697996,-0.20708248,-0.6057296,-0.013707545,-0.93605316,-0.99549913,0.3480904,-1.844065,1.1496673,-0.31755412,-0.6925134
0.67371494,-0.26012805,1.1962358,0.2373711,0.635036,0.14120603,0.5366861,-0.91480887,-0.6501039,-1.7217598,0.15757431,-1.0409908,-1.352095,-0.6303043,-0.8397984,-1.506823,-1.2545964,0.43662614,-0.26032692,-0.05758906
-1.0636911,-0.52641463,0.42835185,-0.06661193,1.1046183,-0.26241884,1.5025356,-0.8741497,-0.6370976,-1.657099,-1.0556439,-1.1697992,-3.1674912,-0.058996618,-0.9407759,-1.528399,-0.26143348,-1.4201502,-0.7075836,-0.8265997
2.2315245,-0.52996725,-0.5398454,-0.11770831,-0.19519855,-0.55273783,-1.3803303,-0.79575986,-0.102521405,-0.28924975,-0.38176125,0.19950844,0.03305022,-0.4395965,-0.59268016,0.5416698,-0.5065518,0.1989674,-0.5709311,-0.5554216
-1.4420931,-1.5466375,-0.83172005,-0.4258914,1.9078877,-0.50360596,1.3554044,-0.8737549,-1.2391987,-1.2709981,-1.1724497,-0.9727993,-3.4702947,-0.66770005,-1.2185122,-1.1862985,-0.049493175,-2.4219735,-0.012045232,-0.79719985
-1.2384461,-0.30849257,0.012401411,0.12140105,-0.06333631,-0.5141786,0.97881025,-0.44043437,-1.3686502,-1.5159988,-1.6629986,-0.9199998,-3.0499344,-1.1341975,-1.2505283,-1.0571977,1.1332308,-2.8949962,-0.36490867,-0.7999997
2.1005116,-0.47827986,-0.28567836,-0.62829685,-0.49075836,-0.06384544,-1.8550007,-0.81698805,-0.35399073,-0.022510836,0.48147902,-0.27357122,0.5406425,-0.7235415,-1.0350332,-0.0064970655,-1.0103333,0.10139051,-0.020859918,-0.116963364
2.346284,-0.44078785,-0.11228014,-0.38568088,-0.17627701,0.096319236,-1.0154694,-0.7632137,0.353523,-0.4010651,0.14480938,0.11237666,-0.111217745,-0.4772684,-0.48134437,0.08425872,-1.3702449,0.5505306,-0.37567836,-0.8357398
1.9758915,-0.15238017,-0.6371939,0.114853635,-0.12411928,-0.118017435,-0.66218346,-0.6273754,0.53528816,-0.36215678,-0.16781749,-0.23471528,0.10894236,-0.48147053,-0.7027963,0.2847277,-0.6964918,0.35323283,-0.5058652,-0.5621539
0.9149079,-0.8395929,0.019111758,-0.17375383,-0.55517006,-0.45015073,-2.1461873,-0.68486047,-0.36551833,0.33801216,-0.79977125,-0.7942928,0.47513404,-0.69902235,-1.0725068,-0.09211605,-0.85882145,-0.104497045,-0.44663203,-0.38854438
-1.4698381,-1.5740986,-0.5223721,-0.5522734,0.39107448,-0.010701255,1.2520673,-0.63101023,-1.3585008,-1.2939993,-1.3184986,-1.0754995,-3.3710976,-1.2525,-1.2094369,-1.0939988,0.8770938,-2.5238972,-0.458955,-0.6619998
1.7047583,-0.2402304,-0.9303192,-0.10516875,-0.45665836,-0.33062842,-1.3657949,-0.70161724,0.59796923,-0.6470073,-0.1673276,-0.5643145,0.39080802,-0.69491076,-1.0722278,0.61513644,-0.5922815,0.3912761,-0.7523573,-0.3614922
0.31279558,-0.96756446,-0.7497959,0.2483629,-0.53205395,-1.5034187,-0.22807007,-0.74853337,-0.46440154,-0.6743732,-0.9569382,-0.21934201,-0.75735635,-0.565448,-1.1446439,0.70279115,-0.7849936,0.19293572,-0.124351025,-0.009340133
-1.1195557,-0.5517847,-0.63271487,-0.35780752,1.9981396,-0.33437446,1.2265117,-0.84147906,-1.25819,-1.7138246,-1.1124257,-1.0409261,-3.381187,-0.29705164,-1.1379297,-0.91582525,0.06623071,-1.8132646,-0.06508416,-1.0353994
1.6395967,0.49929488,-1.2043588,-0.49154568,-0.21466276,-1.0869414,-0.5973813,-0.5577323,0.3078532,-1.0511683,-0.27563152,-1.8987248,-0.46275315,-0.70289916,-1.0486524,0.7943113,-1.2713779,0.4071394,-0.4059041,-0.30110082
0.8867309,-0.9275086,-0.2469505,-0.15880594,0.8309358,-0.97501653,1.1614451,-0.915221,-1.2300931,-1.8588823,-0.5931724,-1.5877957,-2.6194422,-0.7722947,-0.5477982,-0.15935111,1.0713195,-0.75277823,0.080789536,-0.52242064
-0.3166311,-0.420469,1.6236835,1.0421482,-0.3197548,-0.5833205,-1.5089833,-1.1545115,-0.4322888,-0.9839432,-1.037473,-1.5424193,0.2625075,-1.0830482,-1.2476628,-1.8150667,0.26697293,-0.26387706,-0.276234,-0.80657953
-0.18676686,0.15729621,-0.24193208,-0.7484918,1.3849369,-0.6908333,0.57138,-0.15491706,-2.3144405,-1.8829464,-1.0237957,-1.1994963,-3.9062283,-0.38844565,-0.65953827,0.050256357,0.8639277,-1.570068,-0.63311934,-0.86359966
1.2630732,0.23229785,-0.04531052,0.0712463,0.06224827,-0.68242747,-0.15848814,-0.6753391,0.6461767,-1.6492616,-0.8418854,-2.0161383,-0.6902746,-0.7981217,-1.0739936,-0.091018766,-1.4478202,0.70378083,-0.69550776,-0.4108498
-1.971809,-1.1889981,-0.6119953,0.41260445,0.86892396,-0.58749056,0.018001042,-0.7459903,-1.1124988,-0.95399964,-0.6229996,-0.7079998,-2.570998,-0.61449903,-1.1719916,-0.9269993,-0.6244908,-2.4289987,-1.9744977,-0.7599998
-1.821634,-1.0326576,0.34194794,0.30262762,1.20879,0.11487923,0.6082071,-0.65346295,-0.63749605,-1.3846973,-0.36489677,-1.0364994,-2.890358,-1.0850805,-1.0741824,-1.0835806,-0.7958585,-1.9561535,-0.46898773,-0.73267984
-0.61109734,-0.16267903,-0.811538,0.20602348,1.3309805,-0.347347,-0.53748983,0.11570442,-1.8354484,-0.9127934,-0.06354954,-0.8641946,-2.0506442,-0.6370451,-0.70125186,0.7537721,0.49085826,-0.88825774,-1.401024,-0.4044006
-2.873304,-1.0590008,0.3296003,-1.350099,0.84752,-0.08318673,0.066996165,-0.5462892,-0.9489996,-0.9799996,-1.1194993,-0.7939998,-2.387998,-0.98299956,-1.0669818,-1.2639993,-1.0190989,-1.744599,-0.7034846,-0.69399995
-1.6867892,-0.83289665,0.787021,0.66551656,-0.8429685,-0.11964158,-1.3455913,-0.2858333,0.1778503,-1.7079993,-0.8875989,-0.9309989,-0.8545833,-0.8437501,-0.81544477,-1.1916964,-0.5979462,-0.86608607,-1.2470298,-0.48140028
-0.5799411,-0.124668434,0.6792232,1.8932984,-0.96217495,-0.6466199,-0.7086904,-0.79504114,-0.5559957,-1.105863,-1.1124687,-1.067657,0.12674734,0.37540352,-1.2915329,-1.5793654,0.294356,-0.44827282,0.08755095,-0.406284
0.17655946,0.32950303,-0.67500836,0.11981465,1.4100072,-0.39795247,0.6559587,-0.19296873,-1.060218,-1.7318314,-1.0573732,-1.4310375,-2.777149,-0.5131942,-0.9329855,0.17342082,-0.4853569,-0.2989268,-1.1129352,-0.7762998
1.3065001,-0.14586504,-0.920316,-0.16459143,0.14447422,-0.54013395,-0.7365202,-0.8363014,0.928508,-0.9525887,-0.25900915,-0.37255183,-0.32676238,-0.46127164,-1.1537591,0.92359364,-1.6588788,0.68636674,-0.6091336,-0.11372975
-0.40355137,-0.88113594,-0.92707026,0.5192902,2.2318041,0.44910908,0.55234915,-0.31908032,-1.2627602,-2.2850919,0.6510169,-0.25330302,-2.3077965,-0.90799475,-0.6389018,-0.00875785,-1.1363769,0.16403835,-0.5600719,-0.13014391
0.1474941,0.27537864,0.20724422,-0.25960064,0.58705056,-0.2718472,0.71871966,-0.51785886,-0.62185925,-1.7777874,-0.8180233,-1.1543442,-2.5098422,-1.251692,-0.6470107,-0.41658482,1.0196313,-1.0955485,-0.5442682,-0.7574992
-1.346852,-0.15949325,0.9958904,-0.74517924,0.31229615,0.0327783,0.90557724,-0.40957537,-1.5842985,-1.1154,-1.0193993,-0.79539955,-2.932794,-0.69899774,-1.4802696,-1.2533994,0.048998125,-2.3398998,-0.52712333,-0.79339975
-0.6532128,-0.44783625,1.3000435,-0.10922878,0.80660295,0.51801395,0.66333777,-0.7290468,-0.4153708,-2.1724477,-0.71024764,-1.6162976,-2.825127,-0.40578565,-0.8987111,-1.5779281,-0.3681061,-0.80438316,-0.13255051,-1.121079
-0.16666515,-0.18179977,0.84126896,-1.1401438,0.0045884084,1.0335623,-2.1135817,-1.9021167,-0.81024426,-0.058027953,1.833872,-1.2000184,0.8054869,0.1540606,-1.3641618,-0.6702335,0.8756482,-0.5948059,-0.63132364,0.073450506
-1.9069626,0.77750415,-0.6184984,-0.962497,-0.63849854,-1.6009855,-1.0909988,-1.1309832,-1.0629971,0.4750025,-0.78899544,-0.16850066,-0.8509708,-0.061499976,-0.90696305,0.32600263,0.24149954,-0.64748627,-0.060999032,-0.49600008
-1.2289244,-0.9947967,-1.5234996,-0.2983971,-1.341995,-1.9782814,-1.3679988,-0.66538256,-0.30174425,0.15380031,-0.7399961,-1.2022989,0.48685646,-0.74940014,-2.1046093,0.47500923,-0.46499896,-0.25004986,-0.96087575,-0.4343005
1.4377365,-0.79556173,-0.50375575,-0.832098,-0.91088223,-0.25548455,-2.508605,0.6065615,-0.084953,-0.19921818,0.5078128,-0.42742044,0.9536113,-0.6364233,-0.8327873,0.21593663,0.9623008,-0.4127853,-3.6054533,-0.017498875
