0,1,2,3,4,5,6,7,8,9,10,11,12,13,14,15,16,17,18,19
-0.21000001,-1.0399998,-1.6600003,-2.0400002,-0.54000014,-0.2,-0.40750518,-0.3,1.7475029,-0.13,-0.74000007,-2.0000002,-1.2600003,1.9575068,3.4950054,-2.0700002,-0.61,-0.3,-3.5774837,-2.397496
-0.6350001,-0.8092981,-1.3929971,-0.46400002,-0.2265012,-0.98000014,0.34221882,-0.49849972,0.72840816,-0.46100003,-0.8590013,-1.291342,-0.06199433,1.1646049,1.864239,-1.506714,-0.15499943,-0.37099987,2.029481,-1.3043056
-0.13999999,0.4571993,-1.8450004,-2.7199998,-1.1300002,-0.175,0.9674681,-0.9900001,0.45700023,-0.35999998,-0.10999996,-2.2209997,-2.3300002,1.5878528,2.8140137,-1.3249979,-0.6550002,-0.7300001,-1.3934712,-1.2779876
-0.54,-1.2261997,-1.7250004,-2.1000001,-1.0350001,-0.12,-0.09490419,-0.5750001,2.5460124,-0.70000005,-0.655,-2.0299997,-0.4680008,1.5387038,3.346514,-2.1050003,-0.56999993,-0.32,-2.8884642,-1.4229914
-0.42749998,-1.2200996,-2.455999,-2.061,-0.66400033,-0.55,0.59702015,-0.498,0.89761186,-0.50000006,-1.1230003,-3.2649972,-1.5519003,1.5350008,3.1076293,-2.3959982,-0.84600013,-0.6700001,-0.76263094,-2.0129526
-0.42499998,-0.31289962,-2.2231,-2.7599995,-1.3749996,-0.385,0.16884148,-0.52000004,1.0644128,-0.43999997,-0.90500015,-2.2780993,-1.6638994,1.5337976,2.9479265,-1.917998,-0.80500036,-0.32,-0.93907773,-1.4597659
-0.12,-0.06900094,-1.1700002,-2.6199996,-1.3600001,-0.4,0.75507885,-0.5,1.136003,-0.5,-0.7300001,-2.894999,-2.0249999,1.5810511,2.3590117,-0.6550002,-0.8500001,-0.33,-2.1039107,-1.7209911
-0.25499997,0.012397677,-1.097302,-1.041004,0.067500055,-0.43999994,3.007756,-0.4900002,-1.9020002,-0.42999998,-0.8405,0.22299844,-0.27480054,1.0942285,-0.9745044,-0.43710864,0.7199994,0.18400007,-1.1134706,-0.792101
-0.044999994,-0.29500017,0.06259997,0.13719979,-0.39500034,-0.125,0.9331977,-0.375,-0.6498001,-0.4,-0.264,-2.2016,-0.25999996,0.71899927,-0.44400018,-1.1000009,-0.78900015,-0.4,-1.847995,-1.0385
-0.030000016,0.86029804,-1.0095015,0.14749971,-1.1880008,-0.355,1.1880525,0.057999983,-1.5260006,-0.45799997,-0.353,-2.3109994,-0.15500084,1.4554061,-0.9830031,0.27999496,0.18200013,-0.51,-1.5168196,-1.2459829
-0.4140004,-0.3439095,-0.2494716,0.14790717,-0.86886775,-1.3393903,-0.098011255,-0.31219956,0.36242673,-0.85159,-0.46787968,-0.41812372,-0.62912524,0.879598,0.2619334,-1.1321222,-0.51157993,-0.83700085,3.9358768,-1.1654338
-0.28999996,0.31193385,-1.7232323,-0.055998825,-0.728001,0.01500006,1.5535383,0.06300004,-2.089999,-0.551,-0.23299983,-2.9460983,-2.143498,0.75073016,2.5052202,0.7233532,0.3270001,-0.22200002,0.11254983,-1.4405634
-0.030999988,-0.11300043,-0.10099985,-1.2160006,2.2840018,-0.2,-0.5260016,-0.16000003,-1.5000002,-0.27499998,-0.62500006,-2.0890002,-1.6700002,1.7020003,0.58200014,2.085005,-0.70000005,-0.07100001,-3.1999931,-1.955998
0.23149997,0.8731974,-1.086001,0.2299959,-0.58500147,-0.3485,3.5159397,0.17650014,-1.0760009,-0.0024999604,-0.68950003,-3.6529984,-0.15330012,0.85377,-1.0015048,-0.16450186,-0.51900023,-0.65599996,-0.98490137,-0.6247486
-0.4,0.4899997,-0.98000026,-1.1299999,-0.65000015,-0.3,-0.14000185,-0.3,-0.8450001,-0.4,-0.79000014,-1.8500003,-1.6400002,1.4824988,-0.64000064,0.9349993,-0.23999998,-0.3,-2.294992,-1.5399957
-0.004999958,-0.106901385,-2.1147008,-1.4749994,-0.010999866,-0.42,1.5440843,-0.14000005,-2.2700002,-0.06000001,-0.05499994,-0.83250004,-2.5094998,1.523572,1.2030263,-0.173401,0.35899964,-0.060999975,0.6170422,-1.4931531
-0.197,0.47939858,-1.4318013,-1.1510003,-0.9580002,-0.14999999,0.15726069,-0.56000006,-1.2310005,-0.62000006,-0.53,-2.8499992,-0.5448011,1.0604966,-0.46900153,2.0937462,-0.15499999,-0.16499999,-1.7693278,-0.90754694
-0.21000001,-0.63200074,1.4769998,-1.1230003,-0.0019999892,-0.22,-0.8775028,-0.055999987,0.8934984,-0.4,-0.68500006,-0.8680022,3.1120126,2.0430002,-0.33250052,-9.3877316e-07,-0.67600006,-0.054999992,-1.794979,-1.5229915
0.19000001,-0.07810133,-1.5568017,4.0139875,-0.33339965,-0.468,2.295383,-0.76750034,-1.8978012,-0.018500008,-0.58350015,-2.365499,-0.9388997,0.45611033,-0.57480335,0.02289911,0.06820006,-0.24100006,-0.35978973,-0.7302901
-0.49500006,0.8541995,-1.6800003,5.595449,-0.12200008,-0.25499997,1.3775281,-0.36999997,-1.6400002,-0.14500001,-0.42999998,-2.4,-2.3100002,1.3836123,-0.16699973,-0.6600008,-0.467,-0.33000004,-1.8272854,-2.063486
0.054999992,0.24273352,-1.5250002,4.985793,-0.18700014,-0.36999997,1.311337,-0.22999996,-1.5450002,-0.275,-0.44500002,-2.34,-1.7500004,1.7299418,-0.39,-0.0468009,-0.56526655,0.13800001,-2.1044853,-1.828125
-0.17000002,0.6961322,-1.4200002,4.8548384,-0.5120002,-0.245,0.58733016,-0.7600001,-1.5050001,-0.52,-1.0900002,-1.9000003,-2.0800002,1.7575395,-0.8000004,-0.7561012,-0.77686673,-0.14199999,-2.582992,-1.9559239
-0.33,0.32999936,-0.89500016,-1.2000002,-1.8800007,-0.1,-1.4399991,-0.53000003,-1.2500001,-0.5,-0.7500001,-1.36,-0.27200046,0.61999965,-0.22500035,0.60499954,-0.70000005,-0.2,-2.4149961,-1.6059961
0.0,-0.60000014,-0.70000005,-1.1000001,-0.84000015,-0.2,-2.1299999,-0.4,-1.5000002,-0.4,-0.8000001,-0.88800037,0.93000007,1.3000004,-0.34000024,-0.8700002,-0.6,-0.4,-2.689991,-2.266999
-0.625,1.2316985,-1.9795004,0.91360694,-1.0255005,-0.58000004,2.8061206,0.03200005,-1.497,-0.26000002,-0.54299986,-2.8199987,-1.4460005,0.7813786,-0.5650036,0.7784927,-0.9285003,-0.3749999,-1.5942426,-0.5890208
-0.20000002,1.2105998,-1.4200003,0.38199624,-1.0050001,-0.13999999,3.2790284,-0.25999996,-1.5500002,-0.155,-0.64500004,-2.7299995,-2.7199996,0.9418044,-0.89400005,-0.033001125,-0.9900002,-0.44099998,-1.7373742,-1.8669821
-0.26999998,-0.47500017,-1.1220001,-1.5744995,-0.73,-0.1,1.9700027,-0.5300001,-1.2200003,-0.4,-0.9000001,-1.7000003,-1.6000003,0.54399973,-0.2489999,-2.1399999,-1.2220001,-0.33999997,-3.379995,-0.32699758
-0.08249996,0.4504956,-0.75780123,0.20109868,-0.063999765,-0.45099992,1.4015379,0.08150014,-2.3550003,-0.52750003,-0.9825,-0.4051663,-1.1280009,1.5866495,-0.60950196,0.4608918,0.28450024,-0.6175001,0.5722118,-0.54248
0.13,-0.22740158,-1.6400006,3.030508,-1.2400002,-0.08599998,1.6618788,-0.415,-1.6850005,0.115,-0.19999996,-2.2000003,-1.2000005,0.7933398,-0.85599977,-0.12170169,-0.48340002,-0.29,-2.4968832,-1.0181898
-0.22,0.047999687,-0.9400001,4.405003,-0.84000003,-0.4,0.11400011,-0.43999997,-1.1300001,-0.35500005,-0.42500016,-1.6100003,-1.0300001,2.4140027,-1.3349997,-0.47999975,-0.61000013,-0.14000002,-3.779977,-1.4759958
-0.7520002,-0.6919815,-0.4633925,-0.2638068,-0.41760266,-1.5485004,0.028967552,0.056000438,0.9770482,-1.1770002,-0.99920243,-1.6617346,0.024888769,0.4230529,-0.84469354,-1.2145984,-0.81879956,-0.5455998,2.8797164,-0.591416
-0.21999997,0.30259502,-0.84650415,-0.23450229,-0.6549021,-0.10999998,1.1385994,-0.23699991,-1.8725003,-0.64000005,-0.37299997,-2.3835006,-1.1750036,0.039310925,-0.52050596,2.0020573,-0.47999993,-0.29499993,0.11128198,-1.0825585
-0.3,-1.3000002,-0.8600001,-0.079999976,-0.9000001,-0.3,-0.5700004,-0.5,-0.9000001,-0.3,-1.0000001,-1.3000002,-1.1000001,-0.070000425,-1.2100002,-1.3000002,-0.9000001,-0.3,-4.8999963,-2.29
-0.16199997,0.29259834,-1.2170005,-1.7560004,-0.5000005,0.024999999,-0.7651106,-0.46899998,1.6748949,-0.24000001,-0.75200003,-0.31635207,0.35799876,1.8764547,0.4829996,-1.8050008,-1.0670003,-0.18200001,-0.935314,-1.408579
-0.04,0.20819974,-1.4950001,-1.6605005,-0.7130005,-0.31,-0.8980984,-0.54,-0.7240011,-0.22,-0.69,-0.6439999,-2.1285002,2.2623794,-0.2670003,-0.9749991,-0.53000003,-0.5,-0.4865306,-1.9544854
0.18899995,-0.13279858,-1.9797965,-0.618621,-0.4153987,0.076999925,0.04220504,-0.60749996,-2.278999,0.20400004,-0.65846974,-2.0048645,-1.4359709,0.434888,-0.79712594,2.0607333,-0.65700036,-1.0540001,0.8126832,-0.9253803
-0.07599997,0.6575981,-1.7150005,-0.9685005,-0.07100072,-0.4780001,-0.8185063,-0.04000003,-2.0599997,-0.19249997,-1.0175,-3.6849988,-2.0550005,1.2022989,-0.41900063,2.6395164,-0.5949999,-0.251,-0.7673745,-1.3189758
-0.46499997,0.5603988,-1.5530009,-0.47000107,-0.61300087,-0.45,1.9594977,-0.095,-1.7230006,-0.45999998,-0.9150003,-1.7099996,-1.4540005,1.1856843,-0.31800237,1.3049994,-0.6049999,-0.36999997,-1.4729986,-1.325482
-0.43550053,-0.17309391,-0.51283765,-0.27958208,-0.18546858,-1.1286504,-1.0439999,-0.6513503,0.26209623,-1.1365006,-0.6627292,-0.021355227,0.3301086,1.0349025,-0.46088147,-0.46806306,-1.4042003,-1.5272017,3.8614118,-0.2812992
-0.23000002,1.4359022,-0.06610086,-1.45,0.092999965,-0.32999998,-0.31401002,-0.56000006,-2.958199,-0.17000002,-0.4620002,0.85229725,-0.16600257,0.82761586,0.18149768,-1.1370015,-0.8750001,-0.11200001,-0.54494524,-1.3969827
-0.505,0.7254001,-1.4770008,-1.1799973,-1.0000002,-0.26999995,4.0173383,-0.25999996,-1.2810001,-0.48,-0.59999996,-2.6949997,-2.21,1.0188375,-1.6683987,-1.5319973,-0.002999939,-0.40499997,-2.2082229,-1.1489702
-0.285,-0.7033295,1.7933992,-0.5346014,-1.098001,-0.39299995,0.058697216,-0.78,-1.6956017,-0.72300005,-1.0110009,-1.5927048,0.65099126,0.3371083,-0.6990033,-0.62290543,-0.9280003,-0.59000003,1.475553,-1.6496326
-0.039999872,-0.5271017,-1.5527037,-0.5608004,0.32069936,-0.07299992,1.6352341,0.14750004,-2.5214984,-0.07,-0.28339982,-1.5152968,-1.375301,1.6580844,0.4722257,0.19443348,1.0880004,-0.2493999,1.0964346,-0.9349612
-0.25,-1.0139999,-1.6475002,-2.0789998,-0.12250004,-0.415,2.9393601,-0.03499999,-0.21999997,-0.71500003,-0.8700001,-2.1250002,-1.5750004,0.91317225,-0.42000052,-1.8304996,-0.50100017,-0.20000002,-3.0033457,-0.9754978
-0.48299998,-0.38261315,-2.3051982,-2.3445,-0.00600072,-0.58699995,-0.7024511,-0.4889999,2.2391903,-0.25199994,-1.5650512,-1.0159048,-0.3393919,0.8543725,1.154548,-1.6227677,-0.68449986,0.12500007,0.7645414,-1.0708145
-0.3,-1.2000002,-0.9000001,-0.76000017,-0.8000001,-0.2,-1.2850003,-0.5,-0.70000005,-0.2,-0.5,-1.7000003,-1.2000002,-0.5000002,-1.1000001,-1.4000002,-0.6100001,-0.2,-5.7999945,-0.8999995
-1.2135003,0.5159192,0.35398987,-0.065169044,-0.2328614,-1.1189504,-0.9700083,-1.6210017,-0.35671592,-1.6592504,-1.6052463,0.17568907,-0.14285043,0.12010878,-0.33715042,-0.15811156,-0.0251511,-1.4594003,4.17794,-0.417667
-0.36549988,0.81717944,0.44821492,0.17099729,-0.13584283,-0.80950004,-0.7490512,-1.2480001,-1.3710572,-0.63250005,-0.5414994,0.5228411,-0.029890679,0.683688,0.47578874,0.35228175,-1.044,-0.77249986,1.5481398,-0.8555171
-0.70900023,1.5302733,0.49468994,-0.5439977,-0.35872906,-0.37299982,-1.1992667,-1.2235007,-1.5450814,-0.9680001,-0.28250113,0.71236956,-0.04567592,0.5220756,0.3627858,-0.048169807,-1.7470013,-0.82050025,1.9257,-0.6451266
0.045000017,0.009799644,-0.30000052,-0.9118009,-1.9200002,0.040000014,3.1848602,-0.32999998,-1.5300003,-0.37,-0.17500001,-2.495,-1.9900002,0.845412,-0.67100126,-0.49800155,0.120000064,-0.004999995,-2.7424731,-1.420995
-0.9825006,0.045654707,0.27167386,0.70009154,-0.18976164,-1.0550003,-0.8023723,-1.6182017,-0.19441906,-2.0425007,-1.5045888,-0.54768264,-0.16289635,0.5742842,-0.66867954,0.011110388,-0.45240027,-1.9820007,4.1181464,-0.33476317
-0.11000001,-1.2800003,-0.8090003,0.6860024,-0.37000003,-0.362,2.128416,-0.342,-1.5920004,-0.03199999,-0.5060001,-2.1200001,-1.5078999,1.1156582,-0.13450085,-1.2309014,-0.55899996,-0.21899998,-3.2560763,-0.26620522
-0.5,-0.5100005,-0.97500044,-1.6939994,-0.7000003,-0.31,2.04409,-0.059999987,-1.3650002,-0.52500004,-0.7150001,-1.4450002,-1.4550002,0.49253774,-1.4000003,-1.9999985,-1.0400001,-0.17999998,-3.2408373,-0.98499423
-0.47149995,0.24020681,0.7622065,0.30470115,0.13980156,-1.2675011,-0.009020016,-0.9500008,-1.1249866,-2.0005002,-1.7765456,-0.8008664,1.2608694,0.5848583,-0.22591981,0.41832855,-0.89649534,-0.809,3.2306015,-0.3959239
-0.7400001,-0.3339678,-0.11375358,-1.136,-0.3140929,-0.5172999,-0.9357449,-0.34500036,0.6456698,-0.1492999,-0.61129963,0.4913347,-0.042586386,1.4117669,-1.0882751,-1.7202723,-0.4393004,-0.69499993,2.5160732,-0.7417535
-0.7615001,-0.4303349,-0.73255503,-0.1966028,-0.31312427,-1.2653004,-1.2530637,-1.4973,-0.43474358,-1.441,-1.0587882,0.57224506,0.5153948,0.82075065,-1.086605,0.48550996,-0.123999804,-0.34649977,4.2274146,-0.4052695
0.2100001,0.13409987,-0.71535033,0.58683234,0.099100634,-1.0700004,1.3619499,0.014500372,-1.926497,0.06900003,-0.793,-1.0994965,-0.82300055,1.4126202,1.8491191,1.086623,0.89693403,-1.5430005,1.6315778,-1.1771201
-0.52,1.0963988,-2.0080009,-0.17299944,0.468999,-0.07999999,1.4050258,-0.666,-2.8049994,-0.201,-0.3259999,-3.724999,-1.9770004,1.7659262,2.0020068,0.68299305,-0.55100006,-0.46999997,-1.3498477,-1.6669779
-0.13449994,0.5522949,0.38704675,0.36009914,-0.52330476,-0.9419002,0.09023606,-0.13720024,-0.124708824,-0.6507001,-1.8175013,-2.2776337,0.3441263,0.7177171,-0.20345572,0.10559463,-1.4687008,-0.6004999,1.473237,-0.52119166
-0.88949996,-0.41235435,0.21227327,0.16017863,-0.37518945,-0.72200024,-1.4243884,-0.49899903,-0.04040224,-1.3826001,-1.5050021,-1.4703251,0.65208066,0.992244,-0.7108786,-1.1478785,-1.6117,-0.5066,2.416975,-1.1033654
-0.15499997,0.28362408,-1.6369661,-0.80599976,-1.0096179,-0.46899986,-1.086792,-0.46150017,-0.10741366,-0.662,-0.9262203,0.39858598,2.6862075,2.3315287,-0.91449887,-0.24500085,-1.5855205,-1.062,1.0645499,-1.6969395
-0.4,1.083999,-1.3600004,-0.8000002,-0.2650005,-0.6,0.32048678,-0.5,-1.6079003,-0.6,-0.8100001,-0.37130165,-1.1639999,1.1089056,-0.39400074,-0.22632939,-0.71000004,-0.14,-0.74253404,-1.1559587
-0.15249999,0.047297694,-1.3723502,-0.6045003,0.18289942,-0.15,0.01397641,-0.59999996,-1.4635004,-0.4,-0.64390004,-1.0744032,-2.5504003,1.764002,-0.2934023,0.115249716,-0.795,-0.52,0.4397713,-1.4979572
-0.53000003,-0.60460216,-0.4540008,-1.3960004,-0.8799999,-0.22,1.30778,-0.10999998,-2.15,-0.35,-0.50499994,-2.7949996,-1.8299999,0.98858154,-0.6280014,1.7829984,-0.4500003,-0.245,-1.3827307,-0.81899464
-0.56,0.8503986,0.29510033,-1.9309995,-0.5389998,0.050000012,-0.042092364,-0.36499995,-1.8999003,-0.66,-1.0350001,-2.7449996,-1.2599019,1.3557532,-0.73089993,2.346013,-0.43489996,-0.515,-1.0980781,-1.3049866
-0.51589996,0.11801163,-1.9017984,-0.7200007,-0.37810257,-0.24700001,-0.7386823,-0.82180023,-1.2958897,0.43749997,-0.9534901,-0.52484363,-0.63086027,1.3026674,0.78077257,-1.5523038,0.034709938,-1.0149003,2.0836554,-1.98525
-0.35999998,1.9621034,1.3350025,-1.5690001,1.2199999,-0.17999998,-0.62399864,-1.0000001,-3.0199993,-0.52,-0.2799999,1.2649996,-1.6005,1.3283169,1.4735029,-0.875503,-0.63000005,-0.52750003,-1.3359053,-1.0612898
-0.56049997,0.20289037,0.3436439,0.12189758,-0.7102273,-0.13640034,0.9929328,-0.883001,-1.7792546,-0.58540004,-0.49190935,-1.2743404,-0.5878796,1.2730267,0.26710472,1.0265927,0.7745971,-0.67600054,1.787951,-0.9286773
-0.32999998,-0.015201185,-0.8150004,-1.0155005,-0.5799999,-0.40499997,1.371658,-0.40000013,-1.9800005,-0.245,-0.6950001,-2.51,-2.3350003,1.3439724,0.25299886,1.1329995,0.038500093,-0.16999999,-1.8724556,-2.032491
-0.1,-0.58599997,-0.7500001,-1.1000001,-1.3300002,-0.2,-1.8150003,-0.6,-0.57000023,-0.3,-0.6,-0.8490005,-0.92800003,1.4439998,-0.7000001,-0.73000014,-0.6,-0.2,-2.4499938,-1.8789983
-0.689,0.39439914,-1.0940002,-0.8970016,-0.49500048,-0.058999993,1.6592125,-0.38,-1.6590002,-0.399,-0.88900006,-2.4989998,-2.21,0.76130587,0.18299979,0.87049705,-0.28300002,-0.07000001,-2.248831,-1.2549989
-0.7150001,-0.5509026,-0.3299054,-0.3250023,-0.09540149,-0.013999946,1.5366523,-0.5715001,-1.1168464,-0.859,-0.7209998,-1.3990965,-0.5035153,1.379966,-0.028699812,0.75537115,0.14249983,-0.3299999,1.5594065,-1.2973521
-0.52,-0.30019933,-1.4480002,-2.4615,-0.32250002,-0.37,2.6362183,-0.084999986,-2.3149998,-0.31,-0.074999996,-2.57,-1.2999997,1.1149898,-0.9375009,-1.1674969,0.4274997,-0.5,-1.3790845,-1.4054818
-1.035,-0.20405698,-0.8374675,-0.3655037,-0.5947893,-1.6115004,-0.76230145,-0.84250134,-0.23205104,-0.96950006,-0.8493034,1.2496142,-0.48691705,1.1780088,0.2300933,-0.9420238,-1.8514528,-0.4410014,3.9721313,-1.3899812
-0.4,1.3068448,-0.69500095,-1.8200002,1.4650015,-0.35,-0.24900836,-0.29,-1.9990003,-0.31,-0.8800001,0.94300854,-0.04260144,1.1319244,0.49299827,-1.5800018,-0.71000016,-0.25,-0.89654475,-1.8929845
-0.53000003,0.4929999,-2.0930007,-1.9320003,-0.1600001,-0.1,-0.2739848,-0.512,-0.9025,-0.4,-0.6050002,-0.6985004,-1.5310009,2.124012,0.87699807,0.096499346,-0.612,-0.21000001,-0.6698809,-2.2679923
0.30000004,-0.43120074,-1.6280003,-1.0880018,-1.8400006,-0.42999995,2.6918194,-0.06749992,-2.5749996,-0.10999998,-0.10499992,-3.0789988,-2.49,0.65377337,0.84850055,-0.56150365,0.92799854,-0.38499996,-1.85742,-0.96698356
-0.10000002,-0.15710068,-0.95210034,-1.7609996,-1.0000004,-0.38,2.4984047,-0.48,-1.4290005,-0.16,-0.585,-1.8000001,-1.7321002,1.2067053,0.44949955,-0.54020107,0.20199983,-0.34,-1.992529,-1.9479934
-0.5,-0.6900001,-0.8700001,-1.5200002,-0.7300001,-0.2,-2.8999994,-0.4,-0.9000001,-0.3,-0.9000001,-1.1000003,-0.70000017,-0.92000014,-0.5600001,-0.069999725,-0.6,-0.5,-4.369994,-1.2699994
-0.3,-0.76000047,-1.3000002,-1.06,-0.3900001,-0.4,0.7549968,-0.33,-0.86000013,-0.6,-0.70000005,-1.4000002,-1.2100002,1.3100003,-0.36000058,-1.19,-0.70000005,-0.1,-3.414995,-1.6499997
-0.37500003,0.8172965,-0.6294997,-1.1719997,-1.5379996,0.24900007,0.526777,0.022000063,-0.70600235,-0.29899997,-0.29299977,-2.3452032,-1.0042021,0.85542583,0.9940181,0.09749568,-0.30299985,-0.51600003,0.0050546452,-0.6648914
-0.3,0.5864994,-0.41475034,-1.9040006,-0.79500026,-0.22375,0.27562478,-0.5,-2.3487499,-0.22375,-0.72375005,-2.219,-1.2549996,1.1564372,-0.9227503,0.5449993,-0.8637501,-0.185,-2.588906,-1.0374982
-1.524,-1.0425682,0.45791295,-0.043109294,-0.31635636,-1.0080001,-1.6083915,-0.7317501,0.808573,-1.1503503,-1.0373924,-1.2505747,-0.6191007,0.60209894,-0.86878014,-1.0914239,-1.3198497,-1.2085005,3.6945705,-0.25367102
-0.43299994,-0.12810089,-2.1635005,-1.9129968,0.32949963,-0.35899997,3.990387,-0.15999998,-0.19000003,-0.78500015,-0.7050002,-3.0059993,-0.735501,0.97687954,-0.8579966,-2.0384977,1.4444993,0.22200009,-1.3762181,-0.2667799
-0.43,-0.8880002,-1.3600004,-0.17999995,-0.92000026,-0.11000001,0.4349971,-0.43,-0.8020001,-0.52000004,-0.532,-1.6000003,-1.1000001,1.2619989,-0.5800004,0.28499964,-0.96200025,-0.065,-3.8089921,-1.0979992
-0.46500003,0.54385996,-1.2611985,-0.7755008,-0.8013984,-0.10999999,-0.8179703,-0.32299995,-0.35478336,-0.26,-0.34375012,0.8080434,3.401765,1.9414098,-1.1737211,-0.024806842,-1.0940001,-0.7120003,0.61963946,-2.33269
-0.48950005,0.28440118,-1.1416115,-0.9400005,0.436498,-0.40910992,-0.53046304,-1.3485,-1.1691016,-0.07211,0.30088997,0.4764534,-0.24554491,1.2758942,0.4105895,-0.79199773,0.028890267,-0.6630001,2.5104506,-1.7738136
-0.70000035,-0.7937127,1.3777555,-0.39950168,-1.0803773,-0.3602,0.07628732,-1.0459999,-0.14284924,-0.9800002,-0.8678997,-0.5554833,1.014307,1.401428,-0.4317445,0.44289786,-1.1600008,-0.5200005,3.0815349,-1.4763614
-0.02000001,0.015399739,-1.3700002,-1.3799995,-0.78500015,-0.3,2.7977097,-0.77000016,-1.8000003,-0.4,-0.6,-2.2,-1.9000003,0.80854756,-1.6850008,-1.7679989,-0.11500005,-0.51000005,-2.7403026,-0.37999398
-0.2,0.56999993,-0.35000008,-1.3600001,-1.2300001,-0.4,-2.51,-0.2,-0.96000016,-0.4,-0.8300001,-1.2350006,-0.7300001,0.81,-0.6,-0.75,-0.43,-0.3,-3.6899931,-1.4200003
0.55499995,0.55520904,-1.4741807,0.34500086,-0.9285008,0.10500001,2.2919328,0.4675,-0.6075008,-0.37,-0.6050002,-2.8069992,-2.0030005,1.4207758,-0.14800124,0.8044031,0.053000055,0.13000001,-2.0907469,-0.87187964
-1.6391277e-07,-0.5037354,-1.9424977,-1.2885,0.5520004,-0.83000004,1.9965706,0.18350011,-1.2620016,-0.7320001,-0.45949975,-1.251498,-0.4850082,0.9465728,-0.70343953,-0.59849215,2.7280002,0.32699957,1.4644167,-1.1825619
-0.03999999,-0.40200055,-1.5250002,-0.49100003,-1.4750001,-0.298,2.842909,-0.388,-1.3180001,-0.498,-0.6630001,-1.7400002,-1.0499998,1.021446,-1.0150021,-0.542,-0.92800003,-0.23499998,-3.1695633,-1.2259933
-0.5829998,-0.3739858,-0.10943964,0.47500068,4.133399,-0.6149999,-0.025232192,0.08900027,-1.2926048,-0.2489999,-1.2114999,-1.1472443,-0.42570922,0.8109154,-0.3802946,2.1330159,-0.607,-0.44399992,1.6308352,-0.6118034
-0.12999997,-0.44799978,0.06700322,-0.8630002,5.9810576,-0.64000005,-1.4899999,-0.73600006,-1.5150003,-0.22,-0.65999997,-2.3400002,-2.391,1.2099993,-1.2020001,0.49500224,-0.39999998,-0.24999997,-3.2119877,-0.8359922
-0.11,-0.9940004,1.2840037,-1.2500002,4.667028,-0.040000007,-1.6060009,-0.4,-1.5350003,-0.3,-0.9000001,-1.9850003,-1.4800005,1.3149987,-1.3400004,0.6630021,-0.8000001,-0.037,-2.4829996,-1.470991
0.009999976,-1.2170005,0.60600156,-0.72000027,4.1830063,-0.22,-0.78299975,-0.59000003,-1.1950002,-0.6,-0.8000001,-1.9650004,-1.28,1.457999,-1.0600002,1.6950088,-1.0000001,-0.23999998,-3.028988,-2.0689917
-0.40799996,0.85969925,-0.097997,-0.1530004,6.5764346,-0.415,-0.7455041,-0.6000003,-1.2670001,-0.16899997,-0.5719999,-2.639999,-2.4050002,1.2770981,-1.302002,0.8370421,0.10300001,-0.715,-0.97622377,-1.0079541
-0.44799995,0.76390064,0.3220064,-0.018000275,6.1044326,-0.27499998,-0.39100426,-0.41499993,-1.1330003,-0.088999994,-0.52800024,-2.697,-1.8390002,1.5851966,-0.86900073,-0.020962723,-0.078,-0.70500004,-1.0320119,-1.5149505
-0.135,0.106000066,-0.4679954,-0.501,5.4960585,-0.24000001,-1.4469982,-0.70600015,-1.4150004,-0.26999998,-0.74000007,-2.0640004,-2.16,1.5860007,-0.7550005,0.9060085,-0.56000006,-0.546,-2.507972,-1.2669885
0.019999996,1.6609999,-1.7475007,-0.4250006,0.30999842,0.035000004,-0.124006584,-0.42000002,-1.6000005,-0.58000004,-0.78000015,-1.9139996,-1.1150001,1.1424992,0.21999973,1.7495078,-0.73000014,-0.17,-1.4989742,-1.5689938
-0.4815001,-1.0415965,-0.45663118,-0.92050046,-0.81679595,-0.61691,-1.467302,-0.12799978,1.4630951,-0.50110996,-0.5126116,-0.5740212,-0.24354354,1.3245423,-1.091603,-1.4875785,0.3493896,-1.2875001,2.2220016,-1.0298127
0.08199997,-0.06381645,-0.29830477,0.1391981,-0.18900043,-0.50250006,1.4792842,-0.64000016,-2.6234977,0.13500005,-0.25649998,-0.6470488,-1.6550595,1.6694732,0.0849941,0.3778913,0.7104997,-0.3604999,1.0993704,-0.8397332
-0.2,-1.3000002,-0.9000001,-1.0000001,-0.8000001,-0.2,-3.299999,-0.4,-0.70000005,-0.3,-0.9000001,-1.5000002,-1.2000002,-0.9000001,-1.1500005,-0.9000001,-0.8000001,-0.4,-5.7999945,-2.9999993
-0.1,0.20999998,-0.9600001,-1.2000002,-0.020000022,-0.2,-2.0400007,-0.3,-0.8000001,-0.3,-1.0000001,-1.3000002,-0.72000015,0.55999976,-1.3000002,-0.40000013,-0.6,-0.3,-3.1099951,-2.3000002
-0.43999994,0.06234909,-0.86804515,-0.08950088,-0.29574436,0.12050007,0.8468183,-1.145,-2.0950005,-0.24749994,-0.056099616,-0.90237665,-1.1036454,1.5775648,0.1499328,1.0176858,-0.34949973,-0.2915999,1.0073181,-1.1916128
-0.22,0.6478968,-1.5290002,-2.6299996,-1.825,-0.15,0.15648657,-0.5,-1.2500008,-0.3,-0.7100002,-2.1569993,-2.1120002,1.2977475,1.9005067,-0.3110006,-0.63000005,-0.53000003,-0.8646687,-1.409987
-0.22,-1.1600002,-1.0000001,-0.97999984,-0.57,0.0,1.4500002,-0.26000002,-1.0000001,-0.1,-0.52,-1.3000002,-1.3300002,0.82499856,-1.2200003,-1.8100007,-1.0000001,-0.43,-4.3249907,-1.4099966
-0.019999996,1.3450476,-0.36050025,-1.6800001,-1.9024996,-0.089999996,0.019693691,-0.36999997,-2.0970013,-0.19000001,-0.18999997,-2.163999,-1.2375013,1.3446668,1.5977683,0.5687461,-0.94000006,-0.25999996,-0.4730181,-1.4074657
-0.09599999,0.4817991,-1.517401,-1.3120002,0.23549803,-0.39999998,-1.2022806,-0.85900015,-1.5255976,-0.06599999,-0.925001,1.4681903,-0.4202505,1.9404314,0.34449935,-0.59670424,-0.667,0.11350002,0.532949,-2.2793846
-0.13,-1.2780004,-1.0560001,-1.4090006,-0.6800002,-0.3,1.558001,-0.42,-0.9000001,-0.4,-0.7660001,-1.8000003,-1.8000003,0.6354995,-2.1300004,-1.8799999,-1.1010001,-0.426,-3.507494,-1.088998
-0.65650004,0.17580107,-1.0990002,-0.062500946,-0.030001648,-0.8520002,-0.121926814,-0.5735002,-2.164797,-0.39549997,-0.45949984,1.5575488,-0.7850023,1.8713142,0.15289405,-0.299513,-0.93550026,-0.31199992,2.0232756,-2.1197314
-0.2,-0.9070005,-1.4000002,-1.1200004,-0.9500001,-0.2,-0.37300092,-0.5,-0.9600002,-0.23000002,-0.6,-1.6350002,-0.71000034,0.81799966,0.81999975,-0.15000027,-0.6,-0.3,-3.4599931,-1.6999989
-0.70000005,-0.14750041,-1.0774996,0.11499983,-0.6380006,-0.4,0.74799705,-0.3,-1.2700005,-0.62000006,-0.7000001,-2.4699998,-1.8100003,0.48949945,-0.23400074,0.7889984,-0.92000014,-0.44,-2.0804846,-0.93599975
-0.57,-0.21740836,0.3816992,-2.1290004,-0.9674993,-0.46899995,0.06785345,-0.46999997,-1.5088009,-0.24999994,-0.53900003,-2.9006977,-0.608301,0.92206717,-1.4469991,2.0927334,-0.53199995,-0.7075001,0.25428948,-1.1334966
-0.4,-0.62080055,-0.8230004,-1.0190003,-0.92340016,-0.2,-0.43940258,-0.70000005,-1.4000002,-0.5,-0.8250001,-1.9350003,-1.2500002,0.6603992,-1.2350004,2.6470068,-0.65000004,-0.4,-2.765986,-2.0579948
0.62499994,0.70319545,-0.090501115,-0.23000064,0.49570382,-0.39999998,0.061502166,-0.92099994,-2.2739975,-0.42999992,-0.83700013,0.08370393,-0.5560048,1.2327391,0.70389897,1.4459882,-0.34100026,-0.46099997,0.9197211,-1.6759421
-0.22999999,-0.68000025,-1.0000002,0.080000035,-0.4700003,-0.3,0.6219975,-0.54,-1.3300002,-0.32,-0.75000006,-1.6000003,-1.6500002,0.9599991,-1.3570002,0.3099997,-0.35,-0.5,-3.5599926,-1.3099983
-0.35999998,0.23139879,-0.92650217,-1.3375008,-0.8534503,-0.016999982,-0.6128466,-0.94200015,-0.58680254,-0.24099997,0.4935002,0.8811272,-0.7625041,1.6880099,0.103495,-0.22300717,-1.0970001,-0.71500003,0.8976382,-2.4978032
-0.07499998,0.44180006,-1.2796999,-1.7014993,-0.7455008,-0.28999996,1.7959309,-0.15999997,-2.1095002,-0.46999997,-0.54500014,-1.8080001,-0.45800078,1.0755928,0.6459955,0.23159418,-0.02000001,-0.15999997,-0.9246464,-1.2306819
0.09749999,0.48959807,-1.6936009,0.30749947,-0.2809999,-0.5829,1.6633447,-0.5300001,-1.5772007,-0.4229,-0.5342499,-3.0373485,-2.5063493,1.2675991,1.263346,0.81469035,-0.37289986,-0.6050001,-0.043022037,-0.8219092
-0.5079999,0.025738224,0.048832573,-0.5902003,-0.72055894,-0.63100034,-0.28562787,-0.9462998,-1.091299,-1.0110005,-1.737399,-2.1411805,0.06562282,0.3997606,-1.5194234,0.9525056,-0.69790065,-0.6104005,3.8992312,-0.53140706
-1.4760002,0.17789993,1.0674763,-0.54240054,-0.2851036,-0.25799996,-0.39541298,-1.0430001,-0.89106673,-1.2000003,-0.9052999,-1.6997741,0.88873076,1.1823368,-0.09090361,0.005758263,-1.2829003,-0.9749005,1.6622868,-0.6703177
-0.4,-0.96,-0.9000001,-0.9000001,-0.7600001,-0.3,-1.7199988,-0.4,-0.070000075,-0.5,-0.9000001,-1.0499996,1.5400002,2.2070003,-0.051000185,-1.6200002,-1.0000001,-0.4,-3.3629937,-3.3309987
-0.6595,-0.11996993,-1.3044658,-0.27950007,-0.7119698,-0.4559999,-0.621077,-0.6410667,0.76699144,-0.31999987,-0.20256785,-0.09049853,-0.65127593,1.8458018,-0.4844631,-2.0080914,-0.053666607,-0.29259986,2.526177,-1.642177
-0.55,0.40732902,-1.0884508,-1.8730001,-0.19200057,-0.513,-0.17810598,-0.24999994,-0.16991404,-0.27499995,0.06470004,2.2799304,0.13724767,1.8769277,-0.4390012,-1.3785105,-1.2480005,-0.64000005,1.2598494,-1.6982881
-0.06699999,0.8033956,-2.1089983,0.30599836,-0.6900015,-0.57,0.40945014,-0.8030002,-1.1450024,-1.0000001,-0.5491999,-0.6444982,-1.3112,1.8051808,1.686215,0.9700001,0.06500002,-0.67,0.6454318,-2.1151416
-0.28,-0.59440166,-1.089003,-1.2019993,-0.07740042,-0.49,0.8078725,-0.45000005,-3.0159988,-0.48999995,-0.9130001,-1.8578979,-0.7374012,1.1601167,-0.70827025,1.8263553,-0.48999995,-0.355,0.31566635,-1.336148
-1.2285001,-0.7403671,-0.2502196,-0.6137534,0.26782203,-1.4787437,-0.5715899,-0.8082,1.1177826,-0.68591005,-0.57531,-0.89853084,-0.41940665,1.3049749,-1.1412787,-0.8936781,-0.35820922,-0.89130044,3.822496,-0.55047995
-0.1278,-0.3773604,-0.8478818,-1.6360008,-0.17628057,-0.29999998,0.42419448,-0.8800001,-2.0020003,-0.17999998,-0.61499995,-1.8531597,-1.1248798,1.1943922,-0.44000185,2.2322352,-0.48500004,-0.2928,-1.3142704,-0.836295
-0.2,-1.1750003,-0.8000001,-1.5000002,-0.9000001,-0.4,-2.0250003,-0.3,-0.9000001,-0.5,-0.70000005,-0.68000007,0.20999998,1.68,-0.15000007,-1.0900002,-0.70000005,-0.4,-3.249995,-2.8249989
-0.0080000125,0.36779994,-0.581002,-1.2450001,-1.0740012,-0.208,-0.94213396,-0.45299998,-0.269302,-0.30800003,-0.57800007,-0.52490103,-0.23959872,1.575973,-0.2920006,-0.8609997,-1.0430001,-0.58000004,0.88717645,-1.4413494
-0.039999977,-0.40360108,-1.2643006,-0.7044996,-0.73900086,-0.004999995,2.9696846,-0.255,-0.6380999,-0.55,-0.83470017,-2.3393989,-0.30770046,1.0762744,-1.686996,-0.9744988,0.45480007,0.34030005,-0.8219126,-1.4949752
-0.242,0.52814907,-0.8803205,-1.4600002,-0.7360019,-0.03399998,-0.39744297,-0.4709999,-2.2063205,-0.10899999,-1.0830008,-2.2799366,-0.040149704,1.3688285,-0.16450393,1.7539173,-1.2630005,0.059000097,0.5596393,-1.6245793
-0.735,-0.17080119,-1.4793917,-0.78950083,-0.3101031,-0.43688995,-0.6836894,-0.044599883,-0.22259203,-0.13248992,-0.8598902,0.047813863,-0.7449078,1.4999765,-0.8682928,-1.3443383,-0.1459898,-0.9565004,2.5662093,-1.1390078
-0.5,-0.35200012,-1.5300002,-1.5000002,-0.53,-0.2,-0.76030254,-0.4,1.1826015,-0.5,-1.0300001,-1.6950004,-1.5750004,1.8003048,1.7880014,-1.6350002,-1.0200001,-0.4,-1.7549734,-2.2291965
-0.1,-0.7490003,-1.1350002,-0.7325021,-0.44,-0.35,2.2130044,-0.25,-0.77000016,-0.25,-0.75000006,-1.7000003,-1.3300002,1.1975007,-1.1950004,-0.81000036,-0.28500003,-0.4,-3.6519823,-1.3724948
-0.1,-0.84,-1.0000001,-0.74000007,-0.7450001,-0.3,-2.1949992,-0.4,0.38000003,-0.3,-0.70000005,-0.90000045,-1.6400003,0.8599995,-0.3900001,-1.5700003,-0.6,-0.3,-2.839997,-1.7999995
-0.28499994,-0.7476996,-1.7935036,-0.89950114,0.33999977,-0.72800004,3.091975,0.15949976,-0.31400138,-0.68599993,-1.1489999,-2.0704985,0.38799924,0.93465644,-0.38800013,-2.1964056,2.2950013,0.57550013,0.7617248,-0.26437643
-0.04999999,0.026999645,-1.7350005,0.00049921125,-1.8050004,-0.28,1.3987695,-0.22999999,-2.2969997,-0.54,-0.47200006,-2.4349997,-1.7850003,0.72763306,-0.030001417,0.24649912,-0.322,-0.31,-1.5368022,-1.0069977
-0.16799998,0.5070795,-0.77121574,0.04399883,-0.12040403,-0.51850003,-0.76142,-0.16100048,-0.38890886,-0.36499995,-0.75475,-0.75976306,-0.5102869,1.2804896,-1.2618564,0.28933844,-0.819102,-0.50360024,2.5690274,-0.90396786
-0.115,1.2392035,-0.64339954,-0.34400117,0.32839978,-0.31150004,-0.4755129,-0.24099997,-1.4456023,-0.48,-0.37299994,-0.7370022,-0.95460397,1.8356051,-1.0084988,0.2971957,-0.84200007,-0.10849998,0.7036414,-1.3591263
-0.3,-0.25800017,-0.24999991,-1.3000002,-1.0400001,-0.34,-0.7100022,-0.8000001,-1.9200002,-0.5,-0.63000005,-0.99000067,2.2770011,2.073999,-0.55500054,0.51499987,-0.6,-0.4,-2.5799918,-2.4349976
-0.1,-1.4200003,-1.5000002,-1.1000001,-1.0000001,-0.4,-2.5599997,-0.6,-0.8000001,-0.3,-0.9000001,-1.4300002,-1.2000002,-0.120000094,-1.0000001,-0.46000004,-0.5,-0.6,-5.019995,-3.199999
-0.13,1.6205088,0.25799876,-1.3900001,1.0019989,-0.3,-0.17399645,-0.36999997,-2.5949998,-0.44,-0.32200003,-0.41839886,-0.48000106,1.1990367,1.033997,-0.7240022,-0.672,-0.332,-0.27873462,-1.2399697
-0.7960002,-0.31901008,-0.40764058,-0.53600264,-0.7472282,-1.87095,-0.492328,-0.9946018,1.1755992,-0.90895027,-0.75055224,0.07111227,-0.8078047,1.1678395,-0.029865555,-1.3617799,-1.0148457,-0.37099993,4.0411377,-1.0937638
-0.6100001,-0.30900058,-1.406,1.4830083,-0.23000023,-0.02000001,2.3643277,-0.48,-1.0,-0.18,-0.6460001,-2.7869997,-1.4570004,0.8471443,-1.128002,-0.031502143,-0.692,-0.347,-1.8333669,-0.7904935
-0.6850004,-0.34566993,0.07139166,-0.43590102,-1.3601028,0.09200005,-0.52503955,-0.20749989,-0.5682293,-0.48899993,-0.21599971,0.028468445,0.50120777,1.0021815,-0.9544086,0.10068625,-1.171,-0.2332997,2.2666388,-1.0151092
-0.6,0.8726005,-1.9000005,-0.4900018,-1.4099998,-0.70000005,2.2446673,-0.39000005,-1.0800005,-0.6,-0.6900002,-2.6749997,-0.7700003,1.0656195,-0.83500093,-0.39249954,-0.97500044,-0.64000005,-2.4147258,-1.0709825
-0.2,-0.66,-0.28000003,-1.4750003,-0.5400003,-0.1,-1.7099988,-0.4,-0.8900001,-0.4,-0.8000001,-1.6700003,-0.78000003,0.22499973,-0.47000024,0.7099998,-0.70000005,-0.3,-3.6799967,-1.8599993
-0.58,0.10572537,-0.8879994,-0.6094993,-0.45550174,-0.36299998,-0.9212801,-0.66099995,0.2908008,-0.4374999,-0.85450006,-0.8719099,-0.5342066,1.5605567,0.89513546,-1.2197645,-0.78950036,-0.73450017,1.2034403,-1.3973818
-0.05450011,2.48841,-0.5335974,0.46539772,-0.34199536,-0.26399988,-0.46851876,-0.60950047,-1.9258838,-0.3709998,-0.25058934,-0.27831852,-0.122224,0.5116627,0.20575796,1.4744338,-1.1194007,-0.8169004,3.0438912,-1.0342023
-0.43999997,5.3796396,-1.7359986,-1.3849993,-0.7650009,-0.57,-0.6210072,-0.51,-2.6749995,-0.42000005,0.005000122,-3.0209992,-1.8650007,0.6710865,0.6969992,0.8682271,-0.83,-0.67,-1.112042,-0.73497117
0.09000001,5.211422,-2.2049992,-2.4399998,-0.17700014,-0.26,-0.8255023,-0.8300001,-2.7599998,-0.33999997,-0.09499986,-1.2597995,-1.0619991,0.44306508,0.55199945,0.7314029,-0.42500004,-0.48,-1.8068591,-0.77598256
-0.13000003,6.3939323,-2.4339998,-1.9900004,-0.9080007,-0.52,-0.8999976,-0.648,-1.3500004,-0.17999999,-0.47799996,-3.0779994,-1.1900003,0.78385776,-0.2290001,0.97381705,-0.76000005,-0.38999996,-2.677676,-0.36298823
-0.20999998,6.188308,-2.7509992,-2.255,-0.66500044,-0.22,-0.85700047,-0.35999998,-1.6900003,-0.38,-0.33500025,-3.134999,-1.6230004,0.098767094,-0.44700268,0.81061053,-0.19499996,-0.69,-2.5939796,-0.46699053
-0.33999997,-0.11490079,-1.7850006,-1.3169993,0.41500002,-0.38999996,3.0757399,0.16499999,-1.0780002,-0.35999998,-0.9260002,-3.0549989,-1.0360003,0.6950356,-1.5569004,-0.79250115,0.3790003,-0.55,-1.3767478,-1.4606699
-0.3,-1.455,-1.5100002,-1.5603001,-0.70000005,-0.6,0.6369968,0.029999994,-0.54,-0.5,-0.8000001,-1.6200002,-1.3100002,0.8627994,0.23499973,-0.87999976,-0.73500013,-0.31,-3.867994,-1.6449977
-0.020000003,0.3944987,-0.85800034,-0.9373013,-0.5480007,-0.16,3.0935133,-0.054999918,-1.0800002,-0.31999996,-0.59,-2.1603,-1.6900003,0.8551813,-0.3250019,-0.6330034,-0.20800006,-0.55,-2.625999,-0.69349486
0.17,0.09099957,-1.1670002,-1.1750004,-0.5400006,-0.29,3.0190377,-0.6600001,-1.3700001,-0.53000003,-0.44000012,-2.0800002,-0.92000014,0.816007,-0.8890021,-0.5900031,-0.4290001,-0.61,-3.2681777,-0.90899146
-0.5649999,-0.18963924,-1.0604259,-0.64440274,-0.7108065,-0.7999,-0.4271768,-1.2124007,0.31368232,-0.63739985,-0.9598033,0.07338427,-0.0036329925,1.0896107,-0.75680435,-0.50848305,-0.63189965,-0.59670067,3.5049338,-0.83265865
-0.51350003,-0.3745014,-1.474499,-0.13400039,-0.32900095,-0.26399994,-0.67986816,-0.21199998,-0.40650508,-0.49499995,-0.73100096,1.2976681,-0.91090554,1.4871532,-0.5210059,-0.98659766,-0.8294999,-0.46399996,1.8277566,-2.0312996
-1.1100001,-0.47956777,-0.09245745,-0.6476,-0.119604155,-1.1755,-1.3337111,-0.4531999,0.41112497,-0.23499997,-0.25199974,0.6142555,0.84438604,1.1736823,-1.0867987,-0.9761594,-0.7769997,-0.57449996,1.5864528,-1.0025189
-0.48999998,-0.30750316,2.2282069,-1.8889998,-1.4598008,-0.42999995,0.0024107322,0.07310004,-0.71019906,-0.39999998,-0.36499992,-1.1295017,1.6912206,0.53890234,-0.681001,0.7889921,-0.639,-0.85900027,0.036858343,-2.0239654
0.040000007,-0.68000066,-1.3733401,-1.6116802,-0.4467,-0.70000005,1.9116246,0.41500002,-0.2799999,-0.53000003,-0.9000001,-1.8100003,-1.6300002,0.9949994,-0.56000024,-2.4433398,-0.7950002,-0.45000002,-3.4989905,-0.9000584
-0.19,-0.16401973,-1.4505999,0.0899998,-0.42600048,-0.41,1.0239758,-0.75000006,-1.0175403,-0.38999996,-0.62800014,-2.1085389,-2.4055204,1.4731337,1.887712,-0.8135001,-0.34499994,-0.091,-0.6507232,-1.1229725
-0.255,0.08999973,-0.9750008,-1.1029996,0.07999973,-0.71000004,2.2150056,-0.41,-0.90800047,-0.4,-0.73000014,-1.9100004,-1.5300002,0.1769993,-1.4530004,-1.5449991,-0.80400026,-0.22,-2.7369857,-1.2919949
-0.31,-0.7226337,-0.9820005,-0.4461345,-1.9500004,-0.14000002,2.2765791,-0.29999998,-1.2600003,-0.48000002,-0.57500005,-2.1150002,-1.5750006,0.37966308,-0.09600015,-0.49920106,-0.17573333,-0.060000002,-3.3469877,-0.91586787
-0.18899992,-0.30910614,-0.8347024,-1.126501,1.982224,0.115000024,0.46685067,-0.010999963,-1.8140022,-0.21399996,-0.19699979,-1.4380033,-1.7035017,1.4442185,-0.5710044,1.8719547,0.07100026,0.29000002,-0.30237585,-0.93562436
-0.2179999,-0.42260668,-2.4849036,-0.1970034,-0.09300073,-0.35,0.70279914,-0.26500008,-2.4034986,-0.075,-0.7395006,-2.0754986,-1.2224998,1.1674757,-0.1829017,2.4383745,-0.2744999,0.73549956,0.84119564,-1.6939632
-0.49499997,0.28219748,-0.8067014,-0.58750075,-0.18300232,-0.0059998855,3.6648326,-0.049999885,-2.1379998,-0.70600003,-0.3199998,-3.424999,-0.60499924,1.0412645,-0.0016080886,0.04369629,-0.13199952,-1.2400002,-1.0469042,-0.96323824
-0.12799999,0.06449854,-2.1163006,-0.66940045,-0.08950136,-0.25,0.82459056,-0.3075001,-1.4494988,-0.47,-0.5619999,-1.1163973,-1.5018998,0.7623146,-0.83550274,0.8165852,-0.863,-0.8980001,0.6586248,-1.6400373
0.020000026,0.54913926,-0.68979067,-1.3222,-0.4205026,-0.39499998,-1.27074,-0.14699996,1.0302911,0.142,-0.32079977,0.05516059,-0.2502011,1.2529511,-0.3913823,-1.580699,-0.71,-0.21649991,1.5901537,-1.8993438
-0.2,-1.0500003,-1.1000001,-1.5000002,-0.70000005,-0.3,-2.25,-0.3,-1.1000001,-0.4,-0.6,-1.4000002,-1.4000002,0.43999988,-1.5000002,-1.1500006,-0.8000001,-0.70000005,-4.6499925,-3.0999992
-0.49000007,0.50519913,-1.6160007,-1.0142032,-0.8230008,-0.015000001,3.9354126,-0.56,-1.3340002,-0.32500002,-0.5500001,-2.425,-2.152,0.7635759,-1.6160005,-0.3785062,-0.42299998,-0.48,-2.106428,-1.0499837
0.02300001,-0.9586012,1.0064993,0.45199946,-0.8245006,-0.15200001,1.4303504,-0.262,-0.8610004,-0.557,-0.7420003,-1.7575015,-0.5340001,1.1596227,-0.23400378,0.120998465,-0.06200006,-0.29999998,-1.3351047,-0.45440632
-0.3,-0.9070003,-0.9500001,-0.59200054,-0.9000002,-0.14,1.0819987,-0.70000005,-1.1000001,-0.5,-0.70000005,-1.4000002,-1.4000002,0.9759995,-1.16,-1.77,-0.7600001,-0.4,-5.1999917,-0.6859988
0.009999998,-0.08020019,-1.9850003,-2.79,-0.4300002,-0.77000004,2.6030726,-0.6,-2.0500002,-0.55,-0.62,-2.336,-1.7600007,1.0651793,-0.3959997,-0.89550155,0.5520001,-0.45999998,-1.8403277,-1.4039876
-0.5255002,0.03143259,-2.2354867,-1.0870001,-0.6194036,-0.28609002,-0.836449,-0.48900023,0.5339623,-0.43958995,-0.9005908,0.6440245,-0.76984334,1.2737815,-0.21709847,-1.291995,-0.8285902,-0.9205005,2.4085588,-2.121807
-0.5,0.789398,-0.6980012,0.06799953,-0.38500038,-0.15,-0.077611975,-0.37499997,-1.4745002,-0.315,-0.546,-1.8299993,-1.6870009,1.7845944,0.38999882,1.283996,-0.8710002,-0.26,-0.9941034,-1.620782
-0.16999993,-0.28520152,-1.9810011,-0.9095001,0.032499865,-0.66,3.2473464,-0.11499991,-1.5849999,-0.42,-0.6100002,-2.7499995,-2.0850003,0.8872865,-0.26700068,-0.8985075,0.68499994,-0.20999998,-1.8691046,-0.75649625
-0.3,1.8307469,-1.3750002,-1.2299999,0.22700016,-0.54,0.07300222,-0.8300001,-2.6229994,-0.52,-1.07,0.69151086,-0.7090011,1.4604146,0.37300006,-1.3210007,-0.48999995,-0.6,-0.6056492,-2.6029856
-0.20199999,-0.57600045,-0.5110004,-2.26,-0.5650014,-0.37,-0.3115558,-0.18,-0.9075006,-0.48000002,-0.8300002,-1.7291012,0.35099947,0.851575,-0.23500106,1.7300019,-1.1400001,-0.43,-1.3648202,-1.3794876
-0.22500002,-1.5950004,-1.2000002,-2.15,-0.9200002,-0.2,1.6325004,-0.63000005,-0.9300001,-0.3,-0.8000001,-1.3000002,-1.3300002,0.97999984,-0.78500026,-1.2800006,-0.44500002,-0.6,-4.078989,-2.1287985
-1.0360005,-0.45306826,-1.7960328,-1.2240002,-0.822003,-0.95100015,-0.69628537,-1.0619998,-0.6337527,-0.12579985,-1.3675996,0.2232317,-0.36361185,1.2675085,-0.120054394,-1.3405939,-0.2912008,-0.48069993,3.2557428,-1.6633981
0.78549975,-0.7981683,-1.8810006,-0.78516436,-0.10540148,0.47869977,1.8541356,-0.09200051,-1.5340031,-0.41329995,-0.17879975,-2.303548,-1.3945992,1.0894287,0.94140303,0.91649365,1.7799346,-0.58150023,1.154568,-0.830149
-0.022499986,0.15540004,-1.3175005,-1.6739984,-0.27299997,0.04500004,2.891524,-0.0975,-1.5700003,-0.37,-0.8100001,-2.5529997,-1.9430003,1.1182439,-0.86700153,0.2449986,0.352,-0.32,-2.5766387,-1.3124852
-0.86000025,0.027992137,-1.4443529,-0.574603,-0.046133682,-0.043899953,-0.72566944,-0.021500558,0.68060815,-0.56289995,-0.75082284,0.30766663,0.34817064,1.310152,-0.2777683,-0.68299,-0.81879985,-0.3923999,3.3914022,-1.467407
-0.27,-0.3250004,-1.4410001,-0.5759963,-0.4910003,-0.049999997,3.3693745,-0.15499999,-1.1600002,-0.39000002,-0.638,-1.7080003,-1.5320002,1.655074,-2.1014993,-1.1209987,-0.6610004,-0.0030000135,-3.0652978,-1.4504876
-0.4,-0.23100054,-1.3850002,-0.36100104,-1.1600002,-0.03999999,1.3261423,-0.45999998,-1.6200002,-0.4,-0.255,-2.0300002,-1.6000003,1.0208182,-0.48000005,0.53799975,-1.3300002,-0.52,-2.723041,-0.94999623
-0.46749994,-0.77379626,-0.16302082,-0.43750346,-0.4158759,-0.29746652,-0.7859774,-1.2410508,-0.2453546,-0.44049987,-0.7885008,-1.1952078,-0.16033106,0.89442927,-0.5484083,-1.0850127,-1.7370002,-1.7105004,3.6866,-0.9981661
-1.3965008,-0.5005122,-1.0585172,-0.7987049,-1.1300508,-1.6150002,-0.2446787,-0.989801,-0.19102442,-1.4175001,-1.793321,0.32089108,-0.1284295,0.4435353,0.04961585,-0.882466,-0.07549932,-0.77299964,4.4473906,-0.79229903
-0.6309999,0.44276944,-0.9654946,-0.44465196,-0.4702051,-0.5459501,-1.102752,-0.8691503,-0.71180636,-0.3374498,0.2194508,1.4668885,-0.12603578,1.1082873,-0.05192273,-0.39058727,-0.36894947,-1.0184004,3.4669845,-1.0886923
0.06500008,0.118613265,-0.7487009,-0.6975003,-0.48900372,-0.4449999,-0.8269215,0.30200022,-1.1285698,-0.21099995,-0.23899993,3.055483e-05,-0.18028563,1.5511203,-0.9074036,-0.37821048,-1.2665004,-0.5349999,1.4987637,-1.0176814
-0.25,-0.6050009,-1.2350001,0.6770009,-1.3900001,-0.32,1.4630041,-0.22,-1.4100001,-0.35,-0.71500003,-1.8800004,-1.3250002,1.2009995,-1.8130002,-0.29000127,-1.1950002,-0.42999998,-3.729992,-1.0749967
-0.6200002,0.47369912,-1.3684396,-1.6148999,-0.6352515,-0.47600025,-0.950828,-0.76705045,0.0042499416,-0.50904983,-0.008386008,1.9072284,0.75060046,1.8068434,-0.2935088,-0.6887121,-0.7547498,-0.20599987,2.1476398,-1.674115
-0.35949996,-0.4236997,-2.3602002,-1.3636004,-0.10450073,-0.56000006,0.02239732,-0.6916,-1.6549016,-0.45,-0.8816001,-0.3788021,-1.9520998,2.0398395,-0.5356008,-0.8734821,-0.1615999,-0.1216,0.3566614,-1.4155802
-0.42499998,0.2264654,-1.2850003,-0.5919992,-0.30200028,-0.77000016,3.0948575,-0.41,-1.5370003,-0.5800001,-1.1300001,-2.54,-1.9600003,0.88287395,-1.4949985,-0.5271326,-1.1720005,-0.75000006,-3.334343,-1.431316
-0.615,0.15928516,-1.7194061,-0.901001,-0.86239,-0.18299997,-0.2950635,-0.54800016,-2.0272982,-0.43799993,-0.31190977,0.5769916,-1.2954009,1.1534921,0.7900936,-2.2870984,-0.78800124,-0.21499991,1.770697,-1.6147596
-0.29999995,0.78786427,-1.9286009,0.29346558,-1.089001,-0.39999995,3.0244293,0.35500008,-1.599001,-0.47,-0.37,-3.1199992,-1.5049993,0.703679,-0.7389998,-0.55470103,0.4868666,-0.487,-0.31399557,-0.7795451
-0.46999994,0.3411979,-0.4267023,-1.905999,-0.42270303,0.28500006,0.61447704,0.20589998,-2.4095006,0.229,-1.1200005,-3.1948977,-1.324302,0.9058838,-0.4122024,2.372132,-0.963,-0.39999998,-0.03165151,-1.9454879
-0.31,-0.38470137,-1.5970006,-1.0405029,-0.89500093,-0.09999997,3.8260028,-0.14499995,-1.4330003,-0.70000017,-0.57000005,-2.9524994,-2.4699998,0.7328636,-0.7245029,-1.0235034,0.24300036,-0.6550001,-1.842483,-0.96499664
0.09400001,0.72690356,-2.0651982,-1.1829997,-0.11770093,-0.6910001,0.5692485,-0.75770015,-2.846298,-0.2276999,-0.36199984,0.69559467,-0.62570375,1.7844266,0.12579413,-0.39551288,-0.6407002,-0.5560001,1.4285834,-2.0168812
-0.1,-0.49700046,-0.96000016,-1.2650005,-0.3250001,-0.2,1.1669974,-0.42,-1.2000002,-0.5,-1.0000001,-1.6000003,-1.2200001,1.0830007,-1.3000002,-1.5850005,-1.0200001,-0.3,-2.8949988,-3.049999
-0.14500001,0.29799992,-1.2350003,-1.2949995,-1.0000002,-0.23699999,2.4294112,-0.15199997,-1.2,-0.8000001,-0.8300001,-1.7600003,-1.7150003,1.3056993,-1.0820006,-1.0800023,-0.56500036,-0.305,-3.1104846,-0.9999964
-0.5,-0.5018003,-0.18150112,-0.5705003,-0.11050011,-0.45000002,2.2703147,-0.46,-1.6575006,-0.5,-0.7010001,-2.2374997,-1.2234998,0.74427915,-1.2539992,-1.2945006,0.19400007,-0.26,-1.4491501,-1.1259832
-0.3,-1.3100003,-1.5300002,-1.4300003,-0.8000001,-0.2,1.3749985,-0.47,-0.6,-0.3,-0.70000005,-1.5000002,-1.1700001,1.27,-0.3580002,-1.7800001,-0.57000005,-0.2,-4.259986,-1.539999
-0.22999999,-0.19250001,-0.8050005,-1.8245006,-0.74500024,-0.4,-0.38308585,-0.19,-1.2000003,-0.21000001,-0.57,-1.7000008,-0.10500015,1.6727085,-0.6050004,1.4574994,-0.56,-0.32000002,-2.3884876,-1.8649983
-0.688,-0.7241131,-1.9579833,-1.1404,1.1029963,-0.037999965,-0.1950118,-0.86000025,-2.2595012,-0.0050000325,-1.5323797,-2.084878,-1.4315809,1.3471078,-0.13043329,2.5375273,-0.662,-0.058000006,-0.60237247,-1.4569551
-0.20500001,0.099400036,-1.3180006,-1.3294983,-0.3290005,-0.46,2.8995404,-0.036499918,-1.8360006,-0.64900005,-0.8050002,-2.7799993,-1.7049994,0.7676551,-0.54140323,-0.5234991,1.1119995,-0.17199999,-1.202335,-1.098966
-0.42999998,0.21650338,-1.7449992,-0.8000006,-0.23149928,-0.35399997,-0.4042921,-0.8290001,-0.095303886,-0.048999988,-0.5484998,1.6033709,-0.137483,1.8921801,-0.15650141,-0.6525002,-1.399,-0.57400006,2.0304973,-1.7952309
-0.32999995,-0.2867197,-1.7525196,-1.1404942,0.27317968,-0.285,3.607569,0.07800006,-0.17100027,-0.49999997,-0.69582033,-1.1539996,-0.08582036,1.0821238,-1.7574022,-2.126234,2.094002,-0.85500014,-0.75939,-1.2693745
-0.14250001,0.21749865,-0.9745011,-0.40699974,-1.9495004,-0.42399994,2.9615822,-0.4874999,-2.1349995,-0.08249997,-0.40649995,-2.9634986,-1.4100002,1.3112028,0.30099684,0.35499662,0.7005001,-1.6800002,-1.6919522,-1.0684954
-0.059999995,-0.8110003,-0.79000014,-1.2975012,-1.14,-0.14500003,1.8699988,-0.7600001,-1.1100001,-0.5,-0.51,-2.13,-1.5000002,0.87799966,0.20400041,0.19399978,-0.6820003,-0.019999996,-3.4719927,-1.0319991
0.64000005,0.42759863,-1.2041008,-1.5554993,-0.56050086,-0.47499993,3.326468,-0.24499997,-2.1949997,0.15000004,-0.593,-2.5249996,-2.4455,0.37740585,0.97099864,0.3097992,-0.34499985,-0.069999985,-1.871199,-1.1564032
-0.32999995,-0.32545042,1.5422559,-1.3230004,-1.0599,-0.74,-0.20294383,-0.26799998,-0.26965368,-0.41999996,-0.22379988,-3.052701,2.211415,0.8899183,-1.3815018,0.5958467,-1.1748004,-0.75680006,0.79734546,-1.3440874
-0.415,0.85499984,0.37999997,-1.0700004,-0.4349999,-0.315,-0.40000147,-0.74500006,-0.71,-0.045,-0.665,-1.1950006,-0.7199998,1.2299979,0.20499998,-0.2800005,-0.81500006,-0.5,-1.914993,-1.709998
-0.5,0.27999964,-1.6750002,-1.3000002,-1.2550001,-0.62,-2.2149997,-0.335,-1.5900002,-0.515,-0.8450001,-0.8680005,-0.6840009,1.905003,-0.6500004,-1.2650001,-0.8000001,-0.32,-1.9999846,-2.2949955
-0.325,0.68555164,-1.2757974,-1.0024991,-0.72829914,-0.903,-1.0157716,0.21800005,-1.1397525,-0.6180001,-0.051599685,0.3613451,3.1873293,2.0506752,-1.1796029,-0.64350665,-0.8718002,-0.15299991,0.83452475,-1.6875318
