0,1,2,3,4,5,6,7,8,9,10,11,12,13,14,15,16,17,18,19,20,21,22,23,24,25,26,27,28,29,30,31,32,33,34,35,36,37,38,39,40,41,42,43,44,45,46,47,48,49
-0.42000002,-0.021500323,-0.5,-0.2,-0.21000001,-0.050000653,-1.9600002,-0.87999994,-0.82500017,-0.35599953,-1.1500001,-0.13299981,-0.2,0.31300095,-2.3781903,0.7354952,-2.41453,-2.2319999,-0.2,-0.2,-0.67949986,-1.0,-0.3599997,-0.6,-0.2,-1.0,0.53760445,-2.1270018,-0.2,-0.2,-2.6335824,-0.40199995,-0.2,-0.18770011,-0.19949833,-0.96200216,-0.98,-0.6,-0.4,-0.4,1.4860041,-0.2,-2.2000003,-0.2,2.304396,-0.3540006,0.103000216,-0.6494999,-1.01,-0.69499993
0.25539884,-1.4270002,-0.2,-0.1,1.1109992,-0.19439943,-2.1559997,-1.51,-1.7754997,0.76111394,-1.8544999,-1.7919999,0.0,-0.43149912,-0.89100003,0.61000144,0.12899932,-0.20850018,0.17999999,-0.2,-1.6823995,-0.64,-1.6500001,-0.4,-0.792,-0.53999996,1.0075074,-0.9284993,-0.2,0.14,-2.215497,-0.33849996,-0.2,-0.07330068,1.5290096,-0.3224984,-0.62899977,-0.44,-0.2,-0.22000001,0.5590039,-0.24,-2.4400003,-0.64,2.2799692,-1.4550024,-0.7864993,-0.2549986,-0.89,-0.5519999
-1.6040016,-2.214,-0.4,-0.4,0.4020004,0.11169932,-1.4559994,-1.22,-1.271999,-1.3482981,-1.2389997,-1.2669998,-0.2,-1.3420011,-0.22749946,0.25858933,-1.9550008,-0.9689989,-0.2,-0.2,-0.69599795,-0.6,-0.45449987,-0.2,-0.8,-0.8,1.3060071,-0.0430998,0.16800001,-0.060000002,-2.6609902,-0.04100001,-0.4,-0.72599816,1.1985995,-1.5914996,-0.8840001,-0.8,-0.4,-0.6,0.5027558,-0.2,-2.2200003,-0.4,3.1529872,0.08099577,0.21099989,-0.2679001,-1.12,-0.78999996
-1.0949999,-1.9300002,-0.2,-0.6,-0.44,-1.1329998,-1.571,-1.2659999,3.6331034,0.54100746,-0.7925003,-3.0605009,-0.060000002,-1.4899999,-1.3120002,0.8110365,0.17799987,0.6020099,0.0,0.14,-0.03800001,-0.68,-0.1190003,-0.45999998,-0.45999998,-1.08,-0.010001771,-0.94499964,0.0,0.0,-2.6739836,-0.303,-0.2,-0.30225033,-2.61,-1.0564983,-0.44399995,-0.48000002,0.14,-0.4,0.8125128,0.11999999,-1.3000002,-0.48000002,1.989504,-0.50999695,-0.24300018,-1.9310002,0.7420089,-1.2139995
-0.66028684,-0.79219645,-0.714,-0.223,0.27300036,0.30501077,-0.28419584,-1.0331448,2.5444498,0.3561954,-0.7099237,-0.22356844,-0.06499997,-0.727766,-0.66115373,0.4801106,0.05931972,-0.12811483,0.63400006,-0.61,-0.16977756,-0.8819998,-0.17234696,0.12399977,-0.9249998,-0.094199575,1.090504,0.046800844,-0.595,0.15000007,2.9325206,-0.84149987,0.2620003,0.0048965923,0.32153246,-0.63438344,-1.5448002,0.28800017,-0.009999946,-0.5749999,0.53218704,-1.4750001,-0.81905943,-0.4959999,1.1491834,-0.15355018,-0.22354774,-1.2049482,0.9806913,-1.0224652
-0.107499756,-1.8365005,-0.08,-0.4,-0.12750001,0.051998753,-1.5184991,-2.1121993,2.2204022,1.214028,-1.4654016,-1.4710894,-0.36,-1.3457506,-0.43356127,0.47130546,0.39086196,1.0792348,-0.08,-0.7,0.020200074,-0.59,-0.12345131,-0.65,0.11,-1.0799999,1.0766553,-1.1370022,-0.35999998,-0.1,-0.16580833,-0.072999984,-0.009999998,0.13926345,-3.2860022,-0.82679296,-0.5734994,-0.39999998,-0.18,-0.4,0.6170818,-0.26,-2.4360003,0.050000012,1.2510273,-0.027001407,0.41270116,-2.5159996,-0.20575042,-0.51124394
-0.7699999,-1.58,-0.4,0.0,-0.16,-2.114,-0.00999985,-1.3000002,3.9258885,0.19700053,-0.005499929,-2.8185022,-0.2,-0.99999994,-1.5844986,0.5611899,-0.07349967,1.0568951,0.0,0.0,0.43625143,-0.42000002,-0.7710001,-0.2,-1.2,-0.82,-0.094501846,-1.2900012,0.0,0.0,-3.3409743,-0.31,0.0,-0.5739986,-2.402,-1.2704958,-0.63,-0.22000001,-0.2,0.0,1.0297523,-0.22000001,-2.2800004,-0.02000001,1.8318022,-0.19649966,-1.2089998,-1.8300002,1.4210024,-1.4430001
-0.8249995,-1.4905006,-0.4,-0.4,-0.42999998,-1.0260004,-1.1099999,-2.3079998,4.0185857,-0.19575015,-1.7409999,-2.8376,-0.2,-1.0079999,-1.7925969,0.86092854,0.21584871,0.3518106,0.0,-0.4,-0.2044994,-0.24,-0.23362027,-0.34000003,-0.46000004,-1.1999999,0.5961991,-2.36,0.0,-0.2,-1.7801151,-0.33999997,-0.4,-0.26109856,-0.64199924,-0.9410022,-0.38999993,-0.16000004,-0.4,-0.4,0.56280595,-0.48000002,-2.005001,-0.34000003,1.9551048,0.10639992,-0.024999779,-2.1000004,1.5811954,-2.001
-0.90849996,-1.702,-0.2,-0.2,-0.21000001,-0.70049906,-1.5739999,-1.8940002,4.987316,-0.7228371,-0.48749918,-2.7114697,-0.2,-0.8064999,-0.8589994,0.4362894,0.16965023,0.94859767,-0.2,-0.2,-1.3959994,-0.8,0.22512053,-0.4,-0.4,-1.0,0.23899904,-2.22,-0.2,-0.4,-2.8273597,-0.27200007,-0.4,-0.24799944,-2.7230008,-1.8700012,-0.62,-0.4,-0.4,-0.2,0.4595125,-0.2,-2.0200007,-0.6,2.189877,-0.6700993,-1.7684991,-1.5400001,-0.21813203,-1.4670006
-1.5324997,-1.5220013,-0.6,0.207,0.004999999,-0.8072998,-0.22684987,-1.729302,3.3844373,-0.9481438,-0.3443488,-1.3448768,-0.533,-0.7959996,-0.9005553,0.48486373,-0.021549456,-0.06715003,-0.4,-0.4,0.1467992,-0.97799987,-0.005846576,0.33800003,-1.32,-0.6809998,1.2684957,-0.6584499,-0.5,0.29900002,0.07911113,-0.47599986,0.235,-0.22100158,-1.2090012,-0.41347128,-0.9774318,0.18000005,-0.09999998,-0.099999994,0.37499818,-0.84,-1.4670005,0.07,0.93688613,-0.2094024,-0.9251979,-1.6555004,2.3532822,-1.8620033
-0.47999993,-1.605,0.0,-0.4,-0.26,-2.0600002,-1.15,-1.016,4.203873,-0.32286495,-1.1500001,-2.7633235,-0.44,-0.35999995,-0.99172956,0.7851168,0.109779075,1.0474943,-0.2,-0.2,-0.86399996,-0.91999996,-0.73740035,-0.6,-0.4,-0.58,0.27700013,-2.0600002,-0.2,-0.2,-2.8385763,-0.31,-0.4,0.029999858,-3.0499997,-2.596,-0.37999997,-0.060000002,-0.6,-0.2,0.8610004,-0.060000002,-1.66,-0.26,1.9549016,-1.3380011,-1.4835999,-1.32,-0.038300358,-0.91601956
-1.8573903,-1.6687491,-0.13999999,-0.11999996,-0.13459998,0.103887506,-1.4015001,-2.8397508,2.9180634,0.4260049,-0.46399325,-1.2117623,-0.11999999,-1.2042994,-0.47828054,0.45079756,0.17613071,0.36575252,0.08000001,0.16000001,-0.8211908,-0.24999994,-0.032594137,-0.08599996,-0.52999985,-1.3319998,1.3042816,-1.7002484,-0.26,-0.10000001,0.7998345,-0.08649991,-0.36,0.29368648,-2.6040516,-0.7106644,-1.2855002,0.824,-0.009999961,-0.54,0.23895848,-0.16000004,-2.6890008,-0.146,1.2578728,0.15983175,0.41439995,-1.1097012,-0.068856634,-1.1791004
-1.4138505,-1.1200004,-0.41000003,-0.51,-0.217,0.12437909,-1.0790014,-2.2738178,2.9296355,0.64087373,-1.2478013,-1.4680389,-0.71,-1.6244998,-0.623953,0.47975788,0.17060809,0.3355184,0.39,-0.010000005,-1.1419985,-0.74999994,-0.3407089,-0.029999964,-0.84999996,-0.80999994,1.1225786,-1.1504989,-0.4,-0.07000001,0.7719631,0.3270001,-0.46999997,0.15099062,-2.119805,-0.89449376,-0.95769924,0.060000032,0.26000002,-0.61,0.49944162,-0.060000002,-1.5402006,0.07000004,1.4686193,0.371016,0.34059894,-2.300999,0.72346944,-1.8170958
-1.5042001,-2.1228805,-0.2,-0.8,0.017999979,-0.50932854,-0.3474997,-1.1762494,2.718523,-0.5670982,-0.6400664,-1.0687244,-0.04,-0.5209998,-0.7699362,0.64969873,-0.08994142,-0.28665987,0.0,0.0,-0.3858487,-0.29000002,0.0766439,-0.040000007,-0.65,-1.1999999,1.2569947,-1.1869996,-0.2,-0.03999999,1.171006,-0.504,-1.13,-0.37938085,-1.7980479,-0.90112334,-0.30248705,-0.02000001,-0.2,-0.25,0.38300088,0.09,-2.6290007,-0.31,0.6138459,-0.29241455,-0.04590019,-1.0370002,0.017848369,-0.980247
-0.47600028,-1.9600002,-0.2,-0.060000002,-0.2,-0.5179999,-0.9299999,-1.8930001,3.5826175,-0.009000143,-1.0379999,-3.8034976,0.0,-0.8299998,-1.1800016,0.53849036,0.4655004,-0.7374969,-0.2,0.0,0.7335012,-0.28,-0.87249744,0.08,-0.78000003,-0.88,0.360002,-2.26,0.0,0.020000001,-2.0339704,-0.08,-0.2,0.5605019,-3.037,-1.8130043,-0.60299987,-0.62,-0.18,-0.4,0.522006,-0.2,-2.1100001,-0.24,1.5609968,-1.0689996,-1.3940014,-1.7400001,0.929001,-1.2939996
-0.7669996,-1.9935004,-0.2,-0.2,-0.14,-1.2364982,-0.32599968,-1.4996098,3.9193995,-0.10850164,-1.4160416,-2.032952,-0.03999999,-1.0109998,-0.8214467,0.7315382,0.24639831,0.13795117,-0.2,-0.2,-1.6677994,-0.28,-0.0106563205,-0.48000002,-0.3,-0.78,1.2819661,-1.82,-0.2,0.39000005,-0.7569833,-0.13499999,-0.2,-0.042331066,-2.9139998,-0.68704534,-0.5889998,-0.18,-0.1,-0.4,0.5697345,-0.2,-1.7960002,-0.28,1.3379762,-0.6384999,-0.23158054,-2.061,0.42176443,-1.7191
-1.0500001,-1.74,-0.4,-0.2,0.21000002,-1.2270012,-0.53999984,-1.812,3.3399665,-0.16949783,-0.66849947,-3.452501,-0.2,-0.7669998,-0.47599977,1.0795549,0.18289866,0.21965009,-0.2,-0.6,-0.22769968,-0.5,0.103400335,-0.6,-0.4,-0.54,-0.22800063,-2.0200002,-0.2,-0.2,-2.135781,-0.42,-0.2,-0.2655002,-2.6189997,-1.292996,-0.67199993,-0.44,-0.2,-0.2,0.5860167,-0.07999998,-2.1060002,-0.03999999,1.7483598,-1.292001,-0.8769996,-1.1240001,1.0562484,-1.2044995
-1.0280012,-2.7310011,-0.2,-0.2,-0.23999998,-0.33200112,-1.9075,-1.7384,2.4002564,0.6172296,-1.6844997,-1.2633967,-0.2,-1.1589997,-0.27649292,0.58771956,0.59465784,0.50031817,0.0,0.0,-1.1693021,-0.52,-0.37669232,-0.54,-0.86,-0.97999996,0.26869076,-2.1174994,-0.03999999,0.0,-0.5327545,-0.03700003,-0.3,0.64382297,-3.837,-0.68939495,-0.9920001,-0.11999999,-0.2,-0.2,0.91137034,-0.03999999,-2.0049999,1.4901161e-08,1.3476483,-0.7817985,0.63200873,-1.5100002,0.5289062,-1.4144987
-0.74189234,-1.5109053,-0.21000001,-0.26,-0.06300006,-0.4435898,-1.2672017,-2.0370002,-2.1750014,0.9614442,-0.66849715,-2.9579985,0.09900001,1.681799,-1.0965474,0.008772565,-0.1552789,-0.91449326,-0.33,-0.402,-0.6459953,-0.45,-1.5814993,-0.6,-0.252,-0.77,1.070818,1.1004089,0.22800003,-0.4,-1.0688723,-0.6739996,-0.12000001,0.6038036,-0.09900534,-0.36849308,-1.2509984,-0.46000004,0.30600002,-0.19600001,0.18199596,-0.060000002,-2.8700006,-0.84,3.1118715,-0.018313454,0.38690028,-1.1585997,-1.9000001,-0.93449956
-2.4818976,-1.0045023,-0.21000001,-0.2,-0.9280001,-1.1913931,-2.4820955,-1.5489999,-1.7529981,1.6473768,-1.0515008,-2.143,-0.4,1.8312597,-1.1570033,-0.11999911,0.28800035,-1.1144977,-0.4,-0.192,-0.7689006,-0.66,-2.128,-0.2,-0.193,-1.0600001,1.147883,1.3625621,0.289,-0.4,-1.3656639,-0.56099993,-0.62,0.30400142,0.016496856,-0.33009404,-0.98199975,-0.2,0.14510001,-0.4,0.7782133,-0.4,-2.5500004,-0.24,2.4282236,0.57093024,-0.013200191,-2.6841521,-1.0650002,-0.5719997
-1.5400002,-0.871,-0.2,-0.4,-0.2,-0.41,-0.6,-0.90549964,-0.81000006,-0.57899994,-0.5810001,-1.4960002,-0.2,-0.20700002,1.267002,1.0639986,-0.5040003,-1.0020001,-0.2,-0.2,0.14200005,-0.6,0.3025002,-0.2,-0.4,-0.6,-0.7,-0.21000001,0.0,-0.2,-3.299997,-0.2,-0.2,-0.94600004,-1.7660003,-1.0820007,-0.67799985,-0.6,-0.2,-0.4,1.4099984,-0.2,-2.2900002,-0.4,-3.322002,-0.51,2.9290032,-0.493,-0.9600001,-0.53699994
-2.1859977,-1.4700006,-0.41,-0.4,-1.261,-1.0464959,-2.313,-1.455,-1.8585002,1.7265252,-1.9755005,-2.1040003,-0.4,1.7102568,-1.0034994,-0.11000459,0.09574782,-0.57499737,-0.5,-0.39200002,-1.1054994,-0.46000004,-1.9800001,-0.4,-0.6,-0.54,1.1755365,1.5615146,0.359,-0.2,-1.4154694,-0.10199999,-0.5,0.5840129,-0.2854983,-0.34249985,-1.3269987,-0.6,0.34,-0.4,0.4980022,-0.2,-2.1700003,-0.44,2.4650445,0.17924929,0.05199772,-1.2634987,-1.5400001,-0.9409999
-0.89649713,-2.8528001,-0.24,-0.52,-0.89599997,0.1697985,-0.851498,-2.6526003,0.5608474,0.35513115,-0.14429991,0.39751425,-0.39,-1.0134983,0.16982731,0.5415163,0.055927187,0.061549142,0.16000001,-0.9,0.32370132,-1.21,0.02546042,-0.27,-0.32,-2.0300002,0.3762214,-0.060901307,0.0,-0.14250001,0.55135924,-0.27749985,-0.51,0.9312095,0.08430583,-0.84990895,-0.24929965,-0.67,-0.29,-0.55,0.38988766,-0.9,-2.2670004,-0.85,1.6528956,1.1714344,-1.7509986,-1.1195008,-2.4460018,-1.5433508
-0.01,-1.1,-0.4,-0.4,-0.4,-0.41,-0.51,-1.2060001,-0.463,-0.26000002,-0.53999996,-0.52299994,-0.4,-0.2,-0.6919999,1.4600003,-0.42,-0.52,0.0,0.0,-0.5,-0.4,0.48499995,0.0,-0.2,-0.8,-0.82,0.0,0.0,-0.2,-4.499999,0.0,-0.6,-0.32,-1.0800003,-0.92999953,-0.01,-0.6,0.0,-0.4,2.0700002,-0.2,-2.6000004,-0.2,-3.3500001,-0.61,1.5119998,-0.61,-0.50299996,-0.5159999
-1.6625001,-1.0374008,-0.21000001,-0.4,0.20399971,-0.8818692,-2.3449206,-1.2799999,-1.4060011,1.3962796,-1.3584014,-2.7494996,-0.2,1.6326809,-0.8995002,-0.014721643,0.11709922,-0.52949667,-0.45999998,-0.192,-1.0272791,-0.46000004,-1.6890002,-0.4,-0.4,-0.78000003,1.0593746,1.2766823,0.048,-0.2,-1.3019563,-0.55799985,-0.02000001,0.5980973,0.1579955,-0.62499624,-1.733,-0.8,0.13,-0.19600001,0.37750795,-0.26,-2.3200002,-0.42000002,2.6313949,0.14249784,0.0559988,-0.9095165,-1.8300002,-0.6049998
-0.76599884,0.5860019,-0.2,0.0,-0.18599992,-0.11700213,-0.60000014,-1.2520001,-0.26000044,-0.1555021,-0.5610004,-1.75,-0.4,0.0980001,-0.21450011,1.3539927,-0.34579724,-0.30900016,0.080000006,-0.22000001,-1.2899995,-0.6,-1.3299998,-0.4,-0.42000002,-0.82,0.9823998,-1.1170021,-0.2,-0.2,-2.3614762,-0.43999997,-0.54,0.20920102,-0.3186982,-1.8039976,-2.1339993,-0.22000001,-0.22000001,-0.22000001,0.15599917,-0.4,-3.0200005,-0.62,2.5189981,-1.2342004,1.141504,1.3902994,-1.1300001,-0.60399985
-1.5910001,0.5963014,-0.2,-0.193,-1.8100002,-0.76459605,0.23849931,-1.5500001,-2.6099997,-1.3499981,0.7835161,-1.7,-0.02000001,-0.29199964,-1.6090015,0.44099435,2.5139656,0.25900108,-0.26,-0.2,-0.018500326,-0.8,-1.5699999,-0.4,-0.6,-0.82,1.958407,0.52080333,0.0,0.0,-1.5244955,-0.106,-0.6,-0.3540001,-2.8479974,-2.0939999,-0.21350011,-0.4,-0.2,-0.4,0.5130015,-0.6,-2.0000002,-0.4,1.8940121,-1.3746,-1.1800002,-0.8739988,-0.9200001,-1.0199999
2.0163875,-0.063000455,0.036000006,-0.2,-1.2940001,-0.11660032,-2.8589997,-1.6679996,-2.7089999,-0.14860252,-1.6419997,-1.2540003,-0.644,-0.1850005,-1.2041987,0.28593996,-1.1764975,-2.535998,-0.324,-0.06400001,-0.42280006,-0.444,-0.864,-0.6,-0.54399997,-1.1839999,1.2627747,-0.62899786,-0.4,-0.24,-0.7650518,-0.49009982,-0.244,0.022111686,0.85161424,-1.3428041,-0.20020007,-0.144,-0.444,0.056,1.1185259,-0.444,-2.3200002,-0.54399997,2.5439105,-1.4346993,-0.08190033,0.027500765,-1.8840002,-0.6669998
-0.07843999,-0.7706931,-0.42999998,-0.18999961,-1.092,-0.088383496,-0.46038777,-0.53527427,-0.113221325,-0.4183144,-0.084026605,0.90204626,-0.82599986,-0.56404465,0.6072442,0.86718535,-0.33016518,0.23234871,-0.8999999,-0.8129999,-0.020784874,-2.7490005,-0.23519762,-0.6480001,-1.8900002,0.266001,0.5015408,-0.2637999,-1.22,-0.55299985,3.5702598,-0.16599986,-0.32499996,0.18449897,0.4968857,-0.6059133,-0.36114007,-0.12599975,1.0385002,-0.7299999,0.8275538,-0.6099997,-2.3204012,-0.7399998,0.32730973,0.25111178,-0.48517358,-0.72360474,-1.9173325,-0.77689487
-0.6104983,0.655258,-0.2,-0.2,-0.4,-0.025501188,-1.344,-1.0710008,-0.5353447,0.3412521,-1.1292503,-1.2414526,-0.27999997,-0.2524999,-0.7009673,1.2885426,-0.07026079,-0.80419487,0.14,-0.4,-0.060001053,-0.65999997,1.0202124,-0.47999996,-0.53,-1.22,-0.25598928,-2.23,-0.4,-0.4,1.1596984,-0.07199995,-0.2,0.19470984,-1.2564996,-1.2475028,-0.7149994,-0.26,-0.23,0.31,1.1538826,-0.62,-1.8239999,-0.45999998,-0.12022569,-2.7602007,2.1392949,-0.91199994,-1.2827508,-0.63939065
-0.7720641,-0.03554063,0.03500001,-0.31,0.11300008,0.0026256447,-1.5810004,-1.6419998,-0.61199963,-0.051901028,-0.7909996,-1.5439998,-0.4,-0.056939892,-0.40799984,-0.09730095,-0.31800112,-1.356999,-0.2,-0.4,0.36450148,-0.64,-1.148,-0.24,-0.138,-1.008,0.9008063,0.25218195,-0.21000001,-0.15,-2.5298908,-0.13549998,-0.2,0.6581847,2.0610878,-0.3405182,-2.3230002,-0.44,-0.2,-0.24,0.7205033,-0.6,-2.1680002,-0.6,2.793814,-2.2434964,-0.4859994,0.35379833,-1.12,-0.33199996
1.4181894,0.50282747,-0.010000013,0.23999998,0.1720001,0.71469337,-0.25880635,-1.4962966,-0.64151996,0.14247073,0.106948435,0.21157283,-0.426,0.08089936,-0.33808792,1.1251059,-0.2563852,0.2110143,0.515,0.19700001,-0.1755318,-0.91999984,0.56429553,-0.73999995,-0.9799999,-1.1049999,0.6923643,0.15649892,-0.46040002,-0.52000004,0.6429157,0.50720257,-0.48999998,0.140122,0.23386568,-0.9063495,-0.5724955,-0.24999996,-0.27999997,0.037999947,0.82772934,-0.2399999,-2.1150005,-0.24999997,2.1772168,0.303185,0.124462254,-0.5862942,-1.2272032,-0.21224247
-2.2420034,-3.0639994,-0.060000002,0.080000006,-0.52839977,-1.1964993,-1.6579998,-1.1759999,-0.8359996,1.5391974,-2.1560001,-1.1079993,-0.61,-1.2364999,-0.12049942,0.7225955,0.09009947,1.1906977,-0.2,-0.4,-0.88549787,-0.4,-0.946,-0.4,-0.4,-0.8,1.1755048,-0.06400075,-0.2,-0.4,-3.1099901,-0.537,-0.4,-0.7089963,0.69560266,-0.6505991,-0.7159997,-0.4,-0.2,-0.08,0.40299562,-0.6,-2.1200001,-0.23999998,2.5380082,-0.11270242,-1.9930001,-0.81869817,-0.86800003,-0.37699983
-0.7974968,-0.7680004,-0.6,-0.35999998,-0.84499973,0.2854554,1.405591,-1.6614999,-1.1912498,0.29290137,-2.1429994,-0.565643,-0.45000002,-0.51474786,-0.3145493,0.43699643,-0.42900303,-0.513496,-0.4,-0.19,0.29010156,-0.8,-0.54549915,-0.4,-0.2,-0.8,1.1185874,0.35275093,-0.4,-0.31,-0.708963,-0.79599994,-0.4,-0.3280978,-0.44950017,-0.7519968,-0.6479994,-0.44,-0.2,-0.255,0.5140024,-0.2,-1.9100004,0.009999981,2.6075068,0.59061784,-1.8535014,-1.5230005,-1.8030009,-0.90899986
0.4958049,2.759191,-0.03999999,-0.25,1.1480006,-0.17450102,1.181498,-1.8454989,-0.55949837,1.0021074,-0.6879506,-1.6039993,-0.4,-1.4304999,-1.0057988,1.2014829,-0.60530066,-0.5805,-0.07999999,-0.22000001,-0.82699984,-0.84,-0.1705,-0.32,0.002000004,-0.46000004,0.25980031,-0.19749999,0.26000002,-0.20800002,-0.09314367,-0.602,-0.2,0.16819827,-3.0569994,-0.13972531,-0.97440004,0.002000004,-0.4,-0.19800001,0.53099644,-0.61,-1.3680006,-0.47000003,0.5253638,-1.095,-0.85969836,-0.046301503,-1.0754999,-0.96919894
-0.5499997,-1.704,-0.4,-0.4,-0.4,-1.6050001,-1.14,-1.25,-1.3700001,-0.8868002,-2.315,-1.006,-0.4,-0.8039998,3.003007,1.1634989,-0.5315002,-1.35,0.0,0.0,-0.34499964,-0.8,-1.07,-0.2,-0.6,-0.8,-0.07999985,-1.6100001,-0.2,-0.2,-3.8320081,-0.1,-0.4,0.51900077,-1.8200002,-1.267998,-0.34199968,-0.6,-0.2,-0.4,0.538001,-0.4,-2.4500003,-0.4,0.73050106,-1.9600002,1.3035045,-1.4859997,-0.63,-0.44999996
-1.0780001,0.57350206,-0.2,-0.2,-1.427,-0.38249516,-0.8320007,-0.90999997,-2.1700008,-1.2580003,1.137992,-1.3699999,-0.2,-0.6394987,-0.7034994,0.40800533,2.8139517,-1.2604982,0.0,0.0,-0.29999864,-0.6,-1.4999999,-0.4,-0.6,-0.76,1.6240351,-0.06900023,0.0,-0.2,-1.6959946,0.23600002,-0.4,-0.033999465,-3.4999993,-2.3220046,0.17600009,-0.4,-0.2,-0.2,0.92100567,-0.2,-1.9600003,-0.4,1.3380154,-3.0674994,-1.6350001,-0.515999,-1.0100001,-0.7599999
0.40800646,1.039218,0.0,-0.29999995,-0.6329999,0.45660827,-2.8539994,-2.0409997,-1.2237492,0.1944988,-0.43449858,-1.1954994,-0.2,0.85041326,0.3059483,1.0941031,-0.06319919,-0.85949934,0.68,-0.01,-0.036800828,-0.33999997,-0.26549736,0.10000001,-0.72,-0.96,0.34152773,-1.2409995,-0.2,0.080000006,-0.19735105,-0.13599999,-0.29999998,0.6047931,-0.7175012,-1.330791,0.002398902,-0.44,-0.26,-0.21000001,1.3342704,-0.4,-2.6000006,0.08,1.1416098,-1.7499983,1.5739146,-0.010299105,-2.5597997,-0.29609975
0.35475466,0.71626467,-0.060000002,-0.33,0.0019999556,0.47000256,-1.6889994,-1.2591996,-0.5308973,0.12674944,0.01175062,-1.0879488,-0.4,1.5638002,0.24885269,1.0996251,0.102499664,-0.85119724,-0.14,-0.4,-0.020001676,-0.73999995,-0.3867452,0.24000001,-0.6999999,-1.0999999,-0.092714384,-0.51050055,-0.4,-0.325,-0.37719503,-1.49,-0.2,0.5392018,-0.5356992,-1.0610157,-0.6314976,-0.3,-1.0,0.19000001,1.2559047,0.10000001,-2.1300004,-0.13999999,1.0215017,-1.0625013,1.4027044,-0.524596,-1.0589995,-0.26600027
0.76559186,1.0281777,-0.6,-0.08,-0.37039986,0.45617512,-0.89400107,-1.1903925,-1.0264388,0.78262043,-0.6557937,-0.6396345,-0.74,0.8353621,-0.23257145,0.9545589,0.30737066,-0.7101951,0.38,0.26,-0.13184814,-0.7099999,-0.20729923,-0.26600003,-0.36,-1.1159998,0.19823392,-0.5991976,-0.10100001,-0.37,1.066264,-1.2765001,-0.28,0.2548232,-0.09220025,-1.2703195,-0.11956043,-0.78000003,-0.13999999,-0.19999999,0.8029551,-0.24,-1.906001,-0.79999995,0.82542145,-0.50169265,1.167632,0.42892003,-1.4174986,-0.82409567
0.39420888,0.96642715,-0.3,-0.52000004,-1.142,0.39680183,-1.1039991,-1.4264989,-0.8496981,0.20360489,-0.86849856,-2.4803486,-0.2,0.8545665,-0.16642235,1.267718,0.03409057,-1.1690004,0.19999999,-0.2,-0.41339806,-0.52000004,-0.38499618,-0.4,-0.2,-0.19000001,-0.01844866,-0.96874857,-0.2,0.0,0.291918,-0.28300005,-0.4,0.26940975,-0.10619967,-1.143652,-0.0641005,-0.4,0.0,-0.3,0.94326705,-0.2,-3.270001,-0.4,1.3397611,-0.9751461,1.7148073,0.22380172,-2.5910003,-1.0255985
-2.5359988,-1.7254994,-0.1,0.0,-0.49999994,-1.7221024,-1.0410032,-0.9439997,-0.74199903,-0.94169396,-1.0431002,-2.0249999,-0.8,2.0368807,-1.864996,-0.087004974,-0.6964964,-1.0310014,-0.24,-0.2,-0.60249853,-0.6,-1.6950005,-0.4,-0.4,-0.64,1.7387136,-0.8284969,-0.03999999,-0.24,-1.4424841,-0.8679999,-0.3,-0.07250032,-1.4909976,-1.4285067,2.0408976,-0.6,-0.4,-0.2,0.55200535,-0.6,-2.3600001,-0.12000001,3.1919713,-0.836002,0.758518,-0.49209884,-1.58,-0.64399993
-0.03520727,0.14797135,-0.5949999,-0.71479994,0.63350147,-0.43607828,-0.9362211,-0.12277482,0.20310088,0.40966263,-0.41369793,-0.12545654,-1.3399997,-0.92386436,-0.73911905,0.91663384,-0.21070752,-0.050095305,-0.6563997,-0.5203999,-0.78288823,-0.7421802,-0.056060847,0.44802025,-1.3919802,-0.84395885,-0.015381975,-0.39278302,-0.011999918,-0.5159997,5.195766,0.054214217,-0.23259984,0.073884025,0.37828526,-1.0989805,-0.9019034,-1.3013996,-1.7084001,-0.7079998,0.81593126,-1.4779999,-1.7011148,-0.7299998,-0.22579703,-0.7041605,-0.1607092,0.12699018,0.0015886282,-0.3693646
1.1784153,0.65981275,-0.6,-1.02,0.3415007,0.39130014,-0.41800085,-1.8029993,-0.8663976,-0.35259318,-0.25959852,-1.5831001,-0.71000004,0.3950057,-0.6350948,0.6061969,-1.0225928,-0.37429798,-0.41000003,-0.13299999,-0.38649958,-0.62,-0.5072986,-0.6,-0.41999996,-0.5999999,0.61885625,0.8658226,-0.59999996,-0.70000005,-0.29353175,0.15199992,0.23,0.4942922,0.34480175,-0.5135931,-0.9094983,-0.059999987,-0.8,-0.53999996,0.7142473,-0.33999997,-2.7260005,-0.65,2.6181679,-0.29310018,-0.7549989,-0.89310265,-2.117,-1.3499998
-1.0576996,-0.57384,-0.34,-0.45999998,0.6640023,0.673786,-1.0018007,-2.9687746,0.4498918,1.9808027,0.21220268,0.23491044,-0.27199998,-0.61000776,0.2782112,0.7080143,0.20962648,0.28459135,0.058,0.0875,0.32618207,-2.1480002,-0.1573801,-0.5719999,-0.53000003,-0.58999974,0.91682327,0.4870112,-0.6,-0.7300001,1.7959427,-0.3455001,-0.96,0.28445092,-0.20339783,-0.60210186,-0.0722511,-1.142,-1.6000001,-0.28000003,0.19667655,0.50299996,-2.9932015,0.29800004,1.0052394,0.15808845,0.39599675,-0.39400443,-1.0237339,-1.9163672
-0.49849996,-0.12599993,-0.4,-0.4,-0.346,-0.045800142,1.2362976,-1.38,-1.4619994,1.5672069,-1.6170001,-1.1881995,-0.4,-0.91719806,0.32800043,-0.036405865,-1.0679994,-0.13949938,0.0,0.0,-0.491,-0.6,-1.1999999,-0.6,-0.4,-0.6,1.4079963,-0.08710021,-0.4,0.0,-2.244993,0.41300017,-0.4,0.13399991,-0.14739798,-0.58560014,-0.7044999,-0.4,-0.4,-0.4,0.8399986,0.0,-2.3100002,-0.4,1.3759899,1.2545047,-2.194,-2.8199997,-0.82000005,-0.97999996
0.2334991,0.19740123,-0.2,-0.2,-0.26999998,-0.819999,-0.9054997,-1.4864998,0.03760084,0.23450097,-0.16020109,-0.4758987,-0.6,-1.0532,1.594009,0.11699469,0.046100393,-0.13429995,-0.4,-0.2,2.452703,-0.8,-1.2209003,-0.4,-0.2,-0.56,0.39300013,0.93640035,-0.396,-0.2,-1.560761,-0.39600006,-0.08,0.8940024,-2.82,-1.3110015,1.2492087,-0.2,-0.4,-0.4,0.9920103,-0.5,-2.5200007,-0.4,-0.00019930955,-1.297,0.25389984,-1.1735,-2.23,-0.7654996
-1.346457,-0.38294193,0.27,-0.1809999,-0.37739828,0.62454206,2.0604587,-2.0826027,-0.36057118,-0.5767469,-0.2815503,-0.10827258,-0.5199999,0.59483135,-0.039678827,0.4905278,1.840643,-0.5479743,1.0350001,-0.33999994,-0.23039487,-0.5469998,-0.2061525,-0.38200003,-1.545,-0.8969996,1.5857894,0.8142318,0.47000003,-0.71,0.9384589,0.41150072,-1.0910001,0.18055938,0.16021284,-0.42735967,-0.2211017,0.48400018,-0.39149997,-0.7049999,-0.19645603,-1.34,-2.8574,-1.305,3.34109,-0.5829353,-0.51493067,0.1919643,-1.3399962,-1.2942016
-0.623288,-0.16430156,-0.24,0.029000115,-0.46729732,-0.029223846,1.6880088,-1.2318932,-0.174621,-1.0817908,0.13699132,-0.23661548,-0.71000004,0.66007,-0.18668269,0.8559163,0.9372375,-0.4995498,-0.45200002,-0.831,-0.21771587,-1.6180001,0.13536306,-0.007999994,-0.5999999,-1.2299998,0.8205597,0.27515584,-0.302,0.33000007,0.7321067,-0.121750474,0.71699995,0.2562489,0.5618775,-0.23023362,-0.034719553,-0.6999999,-0.69,-0.2399999,0.00023671426,-1.14,-2.2588801,-0.09999992,3.3382468,-0.37913308,-0.5816362,0.19892205,-1.6464002,-1.5590097
-0.7011994,-0.33639902,-0.2,-0.3,-0.35399997,-0.59979904,0.5910014,-1.8510002,-2.9449987,-1.3567014,-1.7049989,-1.8219997,-0.6,0.9594576,0.28300214,0.35482627,-0.7019907,-1.0025005,-0.2,-0.3,-1.6344976,-0.8,-0.99300027,-0.4,-0.8,-1.264,1.4624032,-1.0719974,-0.2,0.16200002,-1.4948595,1.8619999,-0.6,-0.0835312,-0.6316991,-0.9965149,-1.2624999,-0.6,-0.802,-0.6,0.17314157,-0.6,-2.5240002,-0.4,3.8136222,-0.96919996,-1.9210001,-1.0936992,-1.3410001,-0.78
1.4785008,0.94750273,-0.2,-0.4,-0.16000001,-1.6035012,-2.0320003,-1.9790008,-0.64199895,-0.048250012,-1.1440011,-2.034003,-0.4,-0.6509997,0.92900926,1.0419968,0.25250146,-1.3035004,-0.2,-0.4,-2.0699995,-0.62,-1.5004997,-0.6,-0.44,-0.82,0.6215013,-0.24700001,-0.2,-0.03999999,-0.022991534,-0.20150001,-0.4,0.11649916,-2.5499997,-1.5580055,-0.078499876,-0.060000002,-0.4,-0.24,0.96250314,-0.4,-2.42,-0.42000002,-0.14050123,-0.48199946,-0.51149917,1.0384984,-1.9030002,-1.3190008
-0.9335995,-0.87000096,-0.2,-0.6,-0.4,-1.7356999,0.02100068,-1.5000001,-1.58,-0.60449827,-1.5949998,-0.94899935,-0.4,-0.2141006,-0.84849787,0.92100155,-1.1210012,0.004000388,-0.13,-0.2,3.384471,-0.8,-1.2599999,-0.6,-0.4,-0.8,1.9671795,-0.59839743,-0.2,-0.32,-2.6480038,-0.58000004,-0.4,0.21090247,-1.2106065,-3.2590003,-1.1310003,-0.2,-0.2,-0.2,0.24400076,-0.2,-1.9000002,-0.6,1.7710133,0.8941275,-1.3770001,-1.4316005,-0.8400001,-0.34700003
-0.8399992,-2.2150002,-0.4,-0.6,-0.31799996,-0.57499903,-0.05650008,-1.4200001,-1.7900001,-3.1580005,-1.463,-0.7739998,-0.2,1.7730062,0.3080006,0.5830007,-0.8279984,-1.3999997,0.0,0.0,-1.6134987,-0.4,-1.078249,-0.2,-0.4,-0.8,0.5270009,-2.406002,-0.2,0.0,-2.6109962,0.68600047,-0.2,-0.18074943,-1.4779999,-2.6630027,-1.223,-0.6,0.0,-0.6,0.8005026,-0.2,-2.6000004,-0.4,2.998987,-1.1614993,-2.7499995,-2.1324992,-0.81000006,-0.82000005
-0.57897943,-0.66524786,0.38000005,-0.48499995,-0.5679994,0.32675427,-1.5629985,-3.166598,0.48749295,1.3253312,-0.3340756,0.5799778,-0.36,-0.5160954,0.16139197,0.8122961,-0.10492108,0.4611532,-0.3,-0.18,0.4053604,-1.155,0.014050396,-0.09000002,-0.44999996,-0.82999986,0.94175047,0.5579623,0.21622223,-0.5923,1.296656,0.6197018,-0.07000001,0.016549801,-0.72379744,-0.86260825,-0.21869716,-0.9999999,-0.099999994,-0.099999994,0.73320407,0.27,-2.8190012,-0.22199999,1.0889286,0.7511189,-0.20857364,-1.1515983,-2.3514984,-1.0569979
-1.0382656,-0.9429995,-1.2,-0.24999979,-0.262,-0.93669397,-0.38242343,-0.5988791,1.4635589,-0.15829478,-0.6148956,0.25179622,0.18160029,-0.912694,-0.70484746,0.8944623,-0.00085053965,-0.4039635,-0.013999979,-1.462,-0.1544586,-0.59699965,0.0901329,0.7819988,-0.1789997,0.041800626,0.098262444,-0.64599663,-0.94399995,1.0980002,4.022302,-0.99199927,0.48200008,0.036346987,0.51307064,-0.6876762,-0.8341299,-0.33599985,-0.508,-0.75599986,1.1791027,-1.2700003,-0.9192438,-1.5540004,0.17195787,-0.39973032,-1.135567,-1.1659484,0.7988563,-0.058951866
-0.92739946,-0.5478004,-0.4,-0.4,0.16000001,-1.2608995,-1.3799999,-1.8505,1.7839454,0.025093779,0.42438936,0.042958893,-0.4,-0.8359998,-1.1870614,1.3243195,0.62006426,-0.06171931,-0.393,-0.4,0.15105972,-1.02,0.32209924,-0.42000002,-0.26,-0.9899999,0.036796443,-2.3949997,-0.2,0.0,-0.10379184,-0.186,-0.4,0.41626605,-3.2940004,-0.68038964,-0.35499987,-0.6,-0.45999998,-0.2,1.7353631,-0.12,-1.8200006,0.0,0.609849,-1.8205,-2.2888994,-1.7798003,-0.8527512,0.28184256
-0.7229994,-1.9753008,-0.4,-0.2,-0.5,-1.595,-1.5400001,-2.058801,2.1894598,0.06731894,0.7399988,-0.27629524,-0.6,-1.063,-0.9579088,1.4481877,0.5277083,-0.0034813927,-0.193,-0.4,0.29532966,-1.2,-0.018313129,0.0,-0.26,-0.66,0.081796035,-2.16,-0.2,-0.2,-0.40190467,0.0,-0.4,0.66241235,-3.5405998,-1.4520077,-0.49249956,-0.2,-0.060000002,-0.21000001,1.5547842,0.080000006,-2.2280004,-0.4,0.41633067,-2.1715,-2.0460002,-1.25,-0.3138004,0.41825536
-1.130501,-1.1455,-0.23,-0.4,-0.85,0.32050008,-1.4520005,-1.2149999,-2.0129988,-0.37650204,-0.030000104,-0.48549917,-0.222,-0.1204995,-0.53349996,0.20799601,-0.49699733,-0.4904987,-0.53000003,-0.23,-1.1450008,-0.43,-1.4139999,0.0,-0.83,-1.03,0.79851186,-1.2169982,0.0,0.0,-2.0459821,-0.14700006,-0.23,0.2309999,-0.0815032,-1.139512,-0.2719998,-0.43,-0.23,-0.43,0.9220025,-0.030000001,-2.6800005,-0.23,3.2789948,0.3280045,0.6565026,-3.0879989,-0.67,-0.69799995
-0.48220047,-1.3609971,-0.2,-0.4,-1.096,-1.2588916,-2.0989983,-1.2829998,-1.3310007,0.44586477,-0.86299896,-2.486498,-0.6,1.8466034,-0.49314868,0.05150087,0.026000654,-1.9050019,-0.54,-0.6,-0.63069856,-0.6,-1.6800002,-0.4,-0.2,-1.0,0.90400094,-0.88199884,-0.54,0.009999998,-1.3024755,-0.32099995,-0.4,0.8620104,-0.69299716,-1.0984033,0.49200302,-0.4,-0.4,-0.4,-0.21249993,-0.4,-2.5340004,0.11999999,2.871009,-1.7097989,1.034716,-0.020499427,-1.521,-0.5739999
-0.22300002,-0.8,-0.2,-0.4,-0.2,-0.42,-0.21000001,-1.4070001,-0.8459993,-0.19549997,-1.023,-0.35599974,-0.6,-0.42,-0.9615,0.27000007,-0.503,0.23699988,0.0,0.0,-1.02,-0.6,-0.6699997,-0.2,-0.4,-0.8,-1.01,0.0,-0.4,0.0,-2.889995,-0.4,-0.8,-0.25,-1.288,-0.42550144,-0.22000001,-0.4,0.0,-0.4,1.1499994,-0.4,-2.4000003,-0.6,-1.6800004,-0.613,-0.8980001,-1.0,-0.71000004,-0.33799985
0.24199988,0.8580006,-0.4,-0.6,-0.21000001,-1.7400007,-0.99929976,-1.49,-1.6210002,-1.4699997,0.3990003,-1.3599999,-0.4,-0.25139943,0.60000145,0.29799566,-1.7480001,-0.78149974,0.0,-0.2,0.31899992,-0.8,0.68030035,-0.2,-0.4,-1.2,1.2719973,-1.6050001,-0.2,0.0,-2.525598,-0.103,-0.6,0.9839993,-0.5800001,-2.5120025,-0.48000002,-0.2,-0.2,-0.4,0.6569997,-0.4,-2.4000003,-0.4,1.4489992,-1.1841006,0.9160009,-1.9600002,-0.72,-0.47999993
-0.14649901,-0.2250002,-0.2,-0.2,-0.32999998,-0.55699843,-1.1959999,-1.22,-1.5699999,-0.28099978,-1.47,-0.11899999,-0.03999999,-1.2534995,0.315001,1.1259972,-1.4250001,-1.0659997,0.089999996,-0.4,0.11600019,-0.4,-1.2800001,-0.4,-0.4,-0.8,0.51700395,-1.4280003,-0.2,-0.2,-2.9659848,-0.0039999997,-0.4,0.776251,-0.30550292,-1.3019968,-0.6139997,-0.4,-0.2,-0.4,0.18299955,-0.4,-2.4000003,-0.4,1.7369965,1.3695027,-0.98600084,-0.05299983,-0.9000001,-0.54999995
-0.5977271,-0.3504316,-0.9755,0.01180031,-1.3621999,-1.4234982,-0.9668969,0.39868724,-0.31473482,-0.062455,-0.04754713,-0.22575167,-2.4253204,-0.37311637,-0.1680629,0.7201912,-0.13103837,-0.119443275,-1.13872,-0.9269198,-0.014977906,-0.31691813,0.004623442,-1.2019994,-0.120319426,-0.3663182,0.14698638,-0.30605096,-0.63319993,-1.211,5.318301,-1.8611994,-0.5381994,-0.057134867,-0.4509986,-1.0700914,-0.61622286,-1.7829196,-1.5661201,-1.3051995,0.6872839,-0.7079993,-0.8064558,-1.6611997,-0.54097337,-0.444549,-0.28703657,-0.2023608,-0.44945621,0.2879176
0.05689958,0.6913478,-0.4,-0.35,-0.40399995,0.02870133,-1.8854989,-1.5168471,-0.48883694,0.31544808,-0.30641747,-0.5510632,-0.2,1.3450031,1.5885528,0.6309507,-0.07080087,-0.70235735,-0.4,0.0,0.067655414,-0.94,-0.08067906,-0.7,-0.16,-0.4599999,0.65307355,-1.0495998,-0.38,-0.4,0.2673617,0.4390009,-0.28,0.00040737167,-0.23432708,-0.8005109,0.8880024,-0.9,-0.24,-0.28,0.7790444,0.030000012,-2.7280009,-0.56,0.7451144,-0.59355956,0.38612953,-0.47709957,-2.5085,-1.8062599
-0.34244967,0.14374977,-0.2,-0.22000001,-0.71400005,-0.7939994,-1.3148,-1.3144996,-0.903401,0.429511,-0.60924757,-1.749501,-0.2,1.4665499,1.8585683,-0.098299794,0.41900206,-1.1285003,-0.4,-0.2,0.83911073,-0.6,-0.14315054,-0.6,-0.22000003,-0.7,-0.5359974,-1.7112998,-0.4,-0.2,-1.0167744,-0.3185,-0.18,0.5320526,-0.5109986,-0.8602523,1.1323068,-0.22000001,-0.2,-0.2,0.93750226,-0.42000002,-2.7320006,-0.22000001,1.019319,-2.4090033,-0.3735999,-0.11045085,-1.8820001,-1.37225
-0.09200086,-0.40799993,-0.2,0.0,-0.41,0.49650225,-0.251,-1.04,-1.5124999,-0.24950072,-0.83100003,-1.1964995,-0.4,-0.80449885,-1.271,1.6499995,-2.2939997,-0.32500023,-0.22999999,-0.2,0.13100007,-0.6,-1.27,-0.6,-0.6,-1.2,-0.09400065,-0.7864988,-0.2,-0.4,-2.8644764,-0.41399994,-0.2,-1.5460012,0.6830028,-1.0700006,-0.531,-0.2,-0.4,-0.2,1.1535996,-0.2,-1.6800002,-0.2,1.8520067,0.26300156,-0.6879999,-1.9620001,-0.51,-0.45999995
-1.0000001,-1.5052495,-0.2,-0.48000002,-0.05200001,-1.6995002,-1.1281402,-1.0382105,-0.3478993,-0.45658806,-1.3178988,-2.1046984,-0.4,-0.8659398,-0.9847976,0.65422434,-1.1567504,-1.5098379,-0.08,-0.4,-0.22623971,-0.38,2.7864017,-0.312,-0.32,-0.8619999,0.5359999,-1.2500001,-0.2,0.0,-0.3888065,0.37594014,-0.4,0.060000084,-0.98339957,-0.7452607,-1.07094,-0.312,-0.28,-0.02000001,1.1934592,-0.02000001,-0.6588,-0.292,-0.16570099,-1.8479999,2.783608,-1.0178001,1.2239598,-0.6797657
-0.7778278,1.2595367,-0.8,-0.51,-0.6710979,0.95759404,-0.22770135,-1.3104506,-0.6767396,-0.31635374,-0.22303063,-0.6401182,-0.53199995,0.46248567,-0.247069,0.4767876,-0.28136215,-0.29015282,-0.030000001,-0.08200001,0.20569956,-0.71259993,-0.027439201,-0.77199996,-0.582,-0.86959994,0.6642588,0.131751,-0.6265001,-0.47000003,0.8374537,-1.8424996,0.29000002,2.0151076,0.198121,-0.39318764,0.4844219,-0.7020001,-1.0849999,-1.15,-0.0976161,-0.79999995,-2.5918012,0.3847501,2.723402,-0.33535758,-0.35372496,-0.15799907,-1.0917493,-0.8701492
-1.2229992,1.1271014,-0.65999997,-0.39,-0.07999984,0.13366497,-0.9047981,-1.9069997,-1.1800001,-0.9826874,-0.5861961,-2.686497,-0.65999997,-0.7933858,-0.68605936,-0.16562577,-0.054541558,-0.62849516,-0.06999999,0.13000003,0.2516024,-0.46999997,-0.36199984,0.010000035,-0.59999996,-0.96000004,0.04989934,-0.3578002,0.043999974,-0.14000003,-0.53193456,-0.74499995,-0.54,4.2314277,-0.3200999,-0.29870263,0.85982436,-0.23999996,0.02000001,-0.51,-0.46749628,0.11000001,-2.6040003,-0.94,2.2531872,-0.96299297,-1.2596511,-0.008200675,-2.2,-0.6814997
-1.3730011,1.1710622,-0.03999999,-0.32999998,-0.081000105,0.12657483,-0.5544977,-1.6829998,-1.600998,-0.9121898,-0.32899842,-2.8319979,-0.26,-1.0870317,-0.76630425,-0.37711182,0.026996486,-0.52169895,0.029999979,-0.29000002,0.30870664,-0.44,-0.7019992,-0.09999998,-0.49,-1.05,0.20609827,-0.25062653,0.3655,-0.83,-1.116143,-0.46499994,-0.64000005,4.657487,-0.17622657,-0.42350036,0.88257504,-0.32999998,-0.13000001,-0.49,-0.30249548,-0.070000015,-3.0600007,-0.53,2.0757859,-1.1134967,-1.0316482,-0.55533016,-2.17,-1.3304999
-1.7959996,0.9839179,-0.060000002,0.08000003,-0.39199966,-0.14206234,-1.3240007,-1.3899997,-2.875999,-1.084997,-0.056999106,-2.3959985,-0.26,-1.1286885,-1.2276118,-0.24201944,0.14149976,-0.6809986,-0.11999999,-0.48000002,0.3297486,-0.28,-2.0969996,-0.29000002,-0.51,-0.9699999,-0.051495686,0.101012945,-0.25300002,-0.54,-1.0247432,-1.025,-0.3,4.821883,-0.17668599,-0.5201913,0.9783129,-0.51000005,-0.47999996,-0.28000003,-0.17800395,-0.68,-2.5100005,-0.51,1.6905804,-0.6094987,-1.0465,-0.58322865,-1.6500001,-0.9199998
-0.535493,-0.5647573,-0.17199995,-1.4152001,-0.35499996,-1.9534967,-1.8719007,-0.5765568,-0.14992316,0.1429282,-0.20098118,0.65167254,-0.4697999,-1.1336002,-0.773256,1.3595704,-0.1311483,-0.12589084,-0.107299976,-0.42529994,0.021849008,-1.6454995,0.030559918,-0.1979997,-0.35169995,-1.1226996,-0.18268876,-0.881697,-0.38,-0.77499986,3.921706,-0.85949963,0.16800009,0.043406114,-0.3113716,-1.5195599,-1.389299,-0.6832997,0.17870016,-1.1380001,1.0862824,-1.468,-0.15896918,-0.2759999,-0.31925803,-0.58425945,-1.3846058,-0.8962753,-0.10085249,0.5638548
-0.35999995,-1.4300001,-0.6,-0.2,-0.4,-0.41,-0.77,-1.01,-0.83,0.93500036,1.0000008,-0.42999998,-0.2,1.4700007,0.5400003,1.2300005,-0.62,-0.4,-0.2,-0.2,-0.49399987,-0.8,-0.84,-0.2,-0.4,-0.8,-1.01,-0.21000001,-0.2,-0.2,-4.771993,0.0,-0.4,1.6000009,-1.0,-2.66,-0.15,-0.6,-0.2,-0.6,1.9140006,-0.2,-2.0000002,-0.2,-3.646,-0.72,-0.41,-0.91,-0.5,-0.7579999
-0.5999999,-0.96000004,-0.6,-0.6,-0.41,-0.75899994,-0.81000006,-1.6000001,-1.0,-0.13299996,-0.71000004,-0.4,-0.4,0.025999984,-0.20299985,0.5800001,-0.74,-0.90000004,-0.2,-0.2,0.44000003,-1.0,-0.4,-0.2,-0.2,-0.8,0.0019999654,-0.82000005,0.0,0.0,-6.4029984,-0.030000001,-0.6,-0.3979997,-0.86000013,-1.9090016,-0.25000003,-0.4,-0.2,-0.6,-1.0352,-0.2,-2.2000003,-0.6,0.59600025,0.58800054,-0.61,-0.09299998,-0.6,-0.4
0.10129742,-1.1915014,-0.2,-0.58,-0.725,0.06530107,0.6375067,-1.8245,0.17159078,-0.91553503,-0.794799,-0.050347053,-0.21250002,0.02350015,-0.84088796,0.6795955,-0.44799468,-0.7279975,0.16999999,-0.26,-0.52954596,-1.18,-0.03204902,-0.28000003,-0.6999999,-1.44,0.5390178,-0.522497,-0.22000001,-0.34,-0.15960956,-0.6534997,-0.42000002,0.18914965,-0.6068971,-1.0951083,-1.7740002,-0.23000002,-0.16999997,-0.08,0.37299982,-0.29000002,-2.2450004,-0.26000005,2.6847422,1.233297,-2.2830007,-1.1855019,0.98380274,-1.6954998
0.13999999,-0.26799992,-0.2,-0.2,-0.22000001,0.44500047,-1.22,-1.22,-0.90000004,0.2625,-0.53,-0.7335,-0.4,-0.4099999,-0.08900008,1.1700022,-0.83500004,-0.63,-0.2,-0.2,-0.47999996,-0.4,-0.75,-0.6,-0.6,-0.8,-0.9999998,-0.84000003,-0.4,-0.2,-4.230006,-0.2,0.0,-0.47399974,-2.0300002,-2.4469988,-0.615,-0.2,-0.2,-0.2,1.7100012,-0.2,-1.8000002,-0.4,-1.3718382e-06,-1.8449999,1.0100003,0.6965,-0.5,-0.38999996
-0.2,-0.6,-0.2,-0.6,-0.4,-0.5,-0.6,-1.1770002,-1.299,-0.44499996,-0.39999992,-1.15,-0.4,-0.2,-1.36,1.4799997,-0.42,-0.39299998,-0.2,-0.2,-0.90000004,-0.6,-0.28299987,-0.4,-0.2,-0.8,-0.61,-0.21000001,-0.4,-0.4,-2.2099972,-0.2,-0.4,-0.2,-0.031000093,-1.6010007,-0.21000001,-0.4,-0.2,-0.4,-0.54999995,-0.4,-2.2000003,-0.2,-3.5300004,-0.61,0.33999994,-0.4,-0.5779995,-0.7834999
-0.5994933,-3.1979995,-0.6,0.0,-1.0400001,-1.3210987,-0.21049973,-1.3,-3.1819994,2.4329526,-2.3645003,-2.4619997,-0.2,-0.977898,-1.4403602,0.26842946,-0.22419961,-0.93979764,-0.6,-0.5,-1.0699997,-0.4,-0.5883402,-0.4,-0.8,-0.68,1.2640843,0.49100056,-0.201,-0.4,-2.8912299,-0.06499999,0.21500002,0.34096795,-0.41699356,-0.8232933,0.09449986,-0.46000004,-0.4,-0.09000001,0.025360454,-0.4,-2.9200003,-0.4,3.4694133,0.36219463,0.67240924,0.29800132,-1.2100002,-0.7260002
0.1089994,-0.86024874,-0.6,-0.6,-0.033000026,-0.21879986,-0.896997,-1.4649999,-1.5890003,-0.8197914,-1.3940004,-2.1859996,-0.4,-0.060750876,-1.1930006,0.2016252,-0.42709747,1.4710246,-0.07999998,-0.2,-0.7732462,-1.0550001,-0.99099994,-0.4,-0.4,-0.86999995,1.1709104,0.07749965,-0.01200001,-0.44,-1.3094537,-0.50749993,-0.4,0.28752688,0.43390056,-1.3362476,0.24950011,-0.611,-0.08499999,-0.6,0.53071696,-0.2,-2.285,-0.42000002,3.6626778,0.72437704,-0.7184993,-2.3998983,-1.26,-0.88499993
-0.018401323,-0.54149985,-0.16,0.12499999,1.3563981,0.17865103,1.2857951,-2.0990002,-0.47044736,-1.0180908,-1.4360032,-1.4044013,-0.8,0.040699393,-1.0762873,0.026448285,-0.4716624,0.0008493876,0.32,-0.61,-1.3011943,-0.75499994,-0.47089902,-0.83,-0.705,-0.99500006,1.1384164,0.025099767,-0.62,-0.12499999,-0.7004773,-0.8059995,-0.64,0.13605323,0.37640804,-0.8979865,-1.2955008,-0.34650004,-0.30200002,-0.09000005,0.9619813,-0.325,-2.4400003,-0.004999995,3.8714836,0.73755133,-2.5249991,-1.1620013,-1.3334993,-1.3485001
-0.72199947,-1.8880001,-0.4,-0.2,-0.4,-1.6830002,-1.426,-0.9456974,-0.14719886,-0.8695995,-0.6774993,0.43395412,-0.4,-0.6249998,1.736202,1.5811018,0.9360023,-1.0814997,-0.2,-0.2,-1.0499023,-1.0,0.26675004,-0.4,-0.2,-1.0,0.009999867,-1.3700001,-0.2,-0.2,-1.9089919,0.28,-0.4,-0.087500334,-1.8605006,0.33369613,-0.9560001,-0.4,-0.2,-0.2,0.3340006,-0.4,-1.4650005,-0.4,0.024999335,-1.0883001,-1.4294994,-1.2480003,-1.4989998,-0.4923484
-0.50039977,0.103799835,-0.6,-0.56,-0.19489998,-1.2080014,0.65103155,-0.06287551,-0.33804995,-0.66534543,-0.3960969,-0.8722378,-0.28,-0.20610018,-0.1568407,0.6018404,-1.1271394,-0.63944596,-0.28,-0.28,-1.5402007,0.69000006,1.7654048,-0.52,-0.44000003,-1.1400002,0.93780255,-0.46200016,0.0,-0.02000001,0.9569193,0.9573016,-0.34,0.37140068,0.14026476,-0.8104427,-1.0618999,-0.5,-0.28000003,-0.14,0.5129065,0.26,-1.672401,-0.49999994,-0.3327025,-1.7164996,1.6367033,-1.7149999,0.08076643,-0.7981949
-2.1799998,-0.28199983,-0.4,-0.2,-0.5,-1.4920001,-0.997,-1.3588005,-0.90699965,-0.9169995,-1.0903993,0.21170011,-0.2,-0.91799986,2.5111063,0.613,-1.048,-1.6159999,-0.2,-0.2,0.4624998,-0.6,0.22999991,-0.2,-0.6,-0.6,-0.19000024,-0.014499873,-0.2,-0.2,-2.8969972,-0.22000001,-0.4,-0.870001,-1.8100002,-0.8701009,0.71250117,-0.4,-0.2,-0.4,-0.6140001,0.0,-2.4000003,-0.6,0.47400016,-0.80299956,0.28750032,0.035,-0.81000006,-0.5297998
-1.4584999,0.6470003,-0.2,-0.4,-0.29499987,-0.056999836,-1.2699991,-0.5019999,-0.4239989,-0.072000146,-0.35699987,-1.6430005,-0.4,0.26149994,-0.4925009,1.2530015,-0.70519704,-0.8469998,-0.060000002,-0.62,-0.6099989,-0.2,-1.7099998,-0.6,-0.22000001,-0.62,1.2961988,-1.1950028,-0.4,-0.4,-1.9344888,-0.42,0.16000001,0.49230343,0.14775282,-2.4860027,-1.53,-0.62,-0.22000001,-0.22000001,0.14499886,-0.4,-2.1200001,-0.42000002,2.301995,-1.129248,0.83400124,0.9785047,-1.26,-0.4839998
-0.56099856,-2.7799995,-0.1,-0.060000002,-0.702,-0.9299989,-1.5870007,-1.6400001,-2.32,-2.5599997,-0.38999993,-1.9210006,-0.4,1.4685079,-0.20350066,0.12957084,-1.2185003,-1.4379997,0.0,-0.4,-2.187499,-0.2,-0.31999993,-0.2,-1.0,-1.0,1.4585536,-1.591496,-0.1,0.19600001,-1.9478099,1.1280004,-0.6,-0.13898452,-0.718499,-0.9730035,-0.66349965,-0.4,-0.2,-0.4,0.35987827,-0.2,-2.2000003,-0.4,3.3517134,-0.7869946,-1.7489996,-2.307998,-0.64,-0.6019999
-0.20320018,2.1223996,-0.2,-0.2,-0.391,-1.0700005,-1.3626,-1.1280001,-0.6680003,-0.33819953,-0.3950002,-0.97800004,-0.22000001,-0.6309996,-0.57260025,0.79000044,-0.648,-1.274,-0.2,-0.2,-0.82300013,-0.8,-0.88,-0.4,0.0,-0.8,-1.2099992,-1.2730001,-0.1425,-0.2,-3.578996,-0.21000001,-0.2,0.029999856,-1.1710004,-0.11500132,-1.301,-0.4,-0.6,-0.2,2.0580006,-0.2,-2.2600002,-0.2,0.9740013,-1.5400001,1.2891009,-1.2141999,-0.93000007,-0.853
1.8800004,-1.32,-0.4,-0.2,-0.21000001,-1.2710001,-0.31,-1.21,-0.8,0.13200006,-0.5,-0.32,-0.4,0.012000007,-0.82,1.534001,-0.91,-1.1300001,0.0,-0.2,-0.93,-0.8,-0.52,-0.4,-0.2,-0.8,-1.9199997,0.12000025,0.0,0.0,-5.4999943,0.0,-0.6,1.0900009,2.7899978,-3.0200005,-0.41,0.0,-0.2,-0.6,2.0300007,-0.4,-2.2000003,-0.6,-1.2300013,-1.4699997,-0.62,-1.22,-0.4,-0.41
-0.019000007,-0.6801996,-0.6,0.080000006,-0.52,-2.7024994,-0.79399943,-1.1297995,-0.36675,-1.1977516,0.02699934,-0.38269824,-0.42000002,-0.14399976,0.96960396,0.23396793,0.5570018,-0.17750037,-0.4,-0.4,-0.455,-0.84,0.19889967,-0.6,-0.64,-1.077,-0.041116145,-1.098002,-0.2,-0.2,-1.5054939,-0.597,-0.4,0.80349547,-1.3810006,-1.0896033,-0.1335003,-0.24,-0.22000001,-0.4,1.3742062,-0.24,-2.1100001,-0.03999999,2.1817653,-1.1434997,1.8577969,-2.3730004,-1.5145999,-1.0309999
-1.195001,-1.1899999,-0.2,-0.03999999,-0.53999996,-1.343998,-1.5045006,-0.92119974,-0.35079962,-1.0990012,-1.3898002,-1.2988014,-0.2,-0.19450034,-3.4038007,0.20878966,-1.5609995,-0.5207987,-0.21000001,-0.3,2.5075808,0.0,-1.2580004,-0.2,-0.6,-1.0,1.6715056,0.010000102,-0.3,-0.2,-1.5139848,-0.33999997,-0.2,-0.24600108,0.20879242,-1.2670028,-0.18800007,-0.4,-0.4,-0.2,0.7540053,-0.2,-2.0400002,-0.4,1.9110149,0.5614037,-0.8240001,0.19449987,-1.2,-0.06060013
-1.7465016,-0.3379994,-0.4,-0.24,-0.926,-1.0879995,-0.77699983,-1.1459998,-1.2200004,-1.2154992,-2.1120002,-1.4423993,-0.2,-0.14980014,-0.24209903,0.2388973,-0.04330088,-0.9639989,-0.3,-0.2,0.44679934,-0.4,-1.5720005,-0.2,-0.4,-0.8,0.5330019,-1.0855021,0.0,-0.4,-1.5449866,-0.5525,-0.4,0.33750135,1.3243101,-0.99200094,1.0706029,-0.4,-0.4,-0.24,0.40500242,-0.2,-2.5000002,-0.21000001,1.5270146,2.1430037,-0.64299923,1.058011,-1.531,-0.56199986
-0.41,-0.4,-0.4,-0.4,-0.4,-0.4,-0.4,-1.2,-0.8,-0.4,-0.1,-0.6,-0.4,0.0,-0.81,2.14,-0.84000015,-0.01,-0.2,-0.4,-0.21000001,-1.0,-1.0,-0.2,-0.4,-0.8,-1.02,-0.21000001,-0.2,0.0,-6.919998,0.0,-0.4,-1.01,-0.8,-2.6000004,-0.6,-0.6,0.0,-0.6,1.96,-0.2,-2.4000003,-0.4,-2.6300004,-0.4,-0.61,-0.4,-0.4,-0.21000001
-0.5,-0.6,-0.2,-0.4,-0.4,-1.0000001,-0.82000005,-1.2,2.4419997,-0.68399966,-0.07400011,1.0784007,-0.8,-0.45999995,-1.0650003,1.5099983,-0.6900002,-0.6079998,-0.4,-0.2,-0.3150001,-1.0,-1.4319993,-0.6,-0.4,-1.0,-1.1499999,-0.42999998,-0.2,-0.2,-4.714013,-0.2,-0.4,-1.1500006,-1.9100002,-3.2530003,-0.61,-0.4,-0.6,-0.2,1.4390004,-0.4,-1.6940002,-0.6,0.19599888,-0.6100001,-0.3,-0.8,-1.0640001,-0.63299984
-0.37599996,-1.4075,-0.2,0.0,-0.5,-0.82000005,1.0734997,-0.9034996,0.04900034,0.32649973,-0.88949966,-0.6934988,-0.2,-0.22800003,-0.18849999,0.6805958,-0.16249941,1.4930013,-0.2,-0.2,0.12299996,-0.4,1.0810022,-0.2,-0.4,-0.6,-1.0120002,-1.0200001,-0.2,-0.2,-2.3739867,-0.25619996,-0.2,-0.29499987,-1.436,-1.9690034,-0.53999996,-0.6,-0.4,-0.6,1.8985062,-0.2,-1.3600001,0.0,-0.76500064,-0.85,1.7232,-1.0799999,-0.9937001,0.9069025
-0.38723132,1.1945299,-0.26,-0.63,-0.480397,0.70971966,-0.6965059,-1.531098,-1.0020959,0.2204627,0.20811449,-1.0114368,-0.9,1.2037798,0.14306393,0.6226325,0.0015211371,-0.3721448,-0.0019999975,-0.15299998,-0.44096908,-1.6000001,-0.18620013,-0.17999999,-0.18999997,-1.3000001,0.260311,0.2612585,0.29600003,-0.024999958,0.40448898,-0.07049993,-0.32,0.7558217,0.10804793,-0.5506058,0.30045876,-0.90199995,-0.94,-0.17999999,0.4127174,-0.03399993,-2.2660012,-0.31,2.5298083,-0.3209901,0.19914295,-0.03875435,-1.0591995,-0.8337949
-2.2884986,-2.6799996,0.14,-0.24,-0.46849987,-0.31299588,-0.09999893,-1.41,-1.4189978,1.4446129,-2.2649999,-2.0049994,-0.4,-1.2829983,-0.21899882,0.8079995,0.10099942,1.321709,-0.4,-0.4,-1.4660015,-0.8,-1.63,-0.6,-0.2,-1.14,0.7810103,-0.2844997,-0.4,-0.4,-2.5924952,-0.752,-0.70000005,-0.69399655,0.6234959,-0.63399416,-0.8885,-0.4,-0.4,-0.060000002,0.21600202,-0.72,-1.8800001,-0.38,2.9109738,0.021499699,-2.1570005,-2.0330014,-1.1500001,-0.6739999
-0.19449972,0.22660089,-0.2,-0.8,0.2674997,1.361919,-0.9174968,-1.895,-0.99324536,-0.42514333,-0.3409989,-1.971498,-0.6,1.1450009,-0.4837504,0.69796544,0.4820927,0.01179867,-0.03999999,-0.44,-0.5670963,-0.85999995,-2.5397487,-0.6,-0.24,-0.7,0.46291324,-0.4768492,-0.31,-0.17999999,0.35231152,0.30400002,-0.12000001,1.0048299,-1.8704997,-1.5350986,-0.7541995,-0.45999998,-0.22000001,-0.2,0.89151466,-0.6,-2.56,-0.48000002,2.5449274,-1.2029964,0.12285097,-0.4209978,-2.012,-1.7790008
1.2010058,-0.46449995,-0.4,-0.22000001,-0.9740001,0.5900976,-0.81269836,-1.5000001,-1.58,0.39250875,-1.7360002,-1.8945,-0.4,-0.9384989,-0.7514995,0.81950295,-1.2450002,-2.6010003,-0.3,-0.4,-1.9680002,-0.8,-1.5120001,-0.2,-0.8,-0.8,0.98150504,-0.8558996,-0.19070001,0.0,-1.9664845,0.337,-0.42000002,-0.35649866,0.15780108,-1.1923043,-1.35,-0.22000001,-0.4,-0.4,0.42500177,-0.4,-2.7200005,-0.62,2.412004,-1.5504998,0.44210288,-0.7631021,-1.4300001,-0.7659999
-0.3956992,-0.9837987,0.0,-0.2,-0.12,1.134305,-2.153,-1.52,0.4008021,0.6889174,-2.6179998,-0.6187979,-0.6,-1.0434991,0.020599717,0.8651921,-0.5987453,0.54480517,-0.2,-0.4,0.09650013,-0.6,-1.7943007,-0.6,-0.2,-1.2800001,0.29149994,-0.6449959,-0.4,-0.4,-1.363185,-0.20799993,-0.2,0.04890001,-0.4362999,-1.5546963,-1.1751003,-0.2,-0.4,-0.2,0.99799806,-0.4,-2.0500002,-0.2,1.6323076,-0.1880008,0.806204,-2.8273993,-1.8400002,-0.9799999
-1.157003,-2.0319993,0.0,0.0,0.23299998,0.05129586,1.2104975,-1.1309999,-0.98249984,-0.5729952,-1.8350002,-2.0180001,-0.8,-0.39349777,-0.95899904,0.41198862,-0.8990004,0.39749917,-0.22000001,-0.11000001,-1.2865015,-0.4,-1.2729999,-0.4,-0.31,-0.87999994,1.1309946,-0.034998372,-0.4,-0.15,-1.4274948,-0.14299998,-0.2,-0.11599911,0.35749274,-0.9255048,-0.05299991,-0.4,-0.6,-0.2,0.30099943,-0.4,-1.9100003,-0.4,3.2289765,0.09270021,-2.556999,-1.5184995,-1.05,-0.943
-0.33099997,-1.2705001,-0.2,-0.4,-0.61,-0.32999998,-0.3905,-1.0170003,0.38650075,-0.088999964,-0.7514996,-0.95549935,-0.2,-0.42,-1.5925007,0.5980006,-0.80999994,0.99000025,-0.2,-0.2,1.6014988,-1.0,0.30400038,-0.4,-0.2,-1.0,0.120000154,-0.1,-0.2,0.0,-1.8259964,-0.01,-0.4,0.28499997,-0.92099965,-1.2820013,-0.272,-0.4,-0.2,-0.4,1.0419972,-0.2,-1.8700002,-0.6,-2.857999,-0.90000004,2.1394997,-0.5199999,-0.72599995,-0.40149957
-0.32,2.0250003,-0.4,-0.2,-0.4,-0.67,-0.71000004,-1.21,-1.5100001,0.16800003,-0.1790001,-0.93000007,-0.4,-0.32999998,0.6780007,1.6800001,-0.61,-0.21000001,-0.6,-0.2,-0.6,-0.6,-0.81000006,-0.6,-0.6,-1.0,-1.25,-0.4,-0.2,-0.2,-3.9400055,-0.2,-0.2,1.8900018,-1.21,-3.0800002,-0.51,-0.2,-0.6,-0.2,-0.5099998,-0.2,-1.8000002,-0.4,-2.3799996,-0.51,-0.395,-0.6,-0.31,-0.70000005
1.0413514,1.4840319,-0.8,-0.039999977,1.5895017,0.09620245,-0.5437473,-1.600097,-0.7919052,0.14787893,0.113064066,0.43878862,-1.013,0.45049602,0.60663223,1.1018019,-0.39361158,0.075778924,-0.13499999,0.15300001,-0.5717814,-2.2750003,0.16318884,-0.13499998,-0.7149999,-0.68299943,0.39966246,0.62842244,-0.195,-0.026999995,2.0041103,0.9242039,-0.32,-0.085703984,-0.4446899,-0.9230586,0.049511127,0.013000032,-1.158,-0.32899997,1.3128082,0.392,-1.7550014,-0.91499996,1.0051323,-0.2559115,-0.06404076,-0.09059948,-2.5912495,-0.6559469
-1.686998,0.8846634,-0.68,-0.6,-0.6194998,0.7636204,-1.2654032,-1.8469998,-0.9688996,-0.5358896,-2.7309978,-1.9200937,-0.8,0.15875955,-0.6932434,0.02731274,-0.1294945,-1.312001,-0.4,-0.32000002,-0.26644194,0.029999986,-0.27290088,-0.27,-0.04000002,-1.2800001,0.6530831,-0.009840267,-0.20199998,-0.48000002,-0.22815463,-0.16699998,-0.16000003,2.7161193,-0.10764202,-0.71350884,1.0716724,-0.050000012,-1.0600001,-0.28,-0.3647598,-0.42000002,-2.4900005,0.06999998,2.2158153,-0.62979305,-0.04089944,0.0741006,-2.0630007,-0.939
-1.9454998,1.011035,-0.2,-0.6,0.10200006,0.5839141,-1.1730002,-1.5299999,-2.2019002,-1.1050001,-2.0800009,-1.8830004,-0.6,-0.5504948,-1.3052021,0.10638952,-0.46499458,-1.5239993,0.120000005,-0.2,-0.16850013,-0.65999997,-1.8239002,-0.2,-0.8,-1.0,0.20900626,0.3507,-0.15,0.06999999,-1.0374819,-0.45499998,-0.4,3.9929004,-0.5659986,-0.97749776,1.6892998,-0.6,0.14,-0.4,0.28099617,-0.4,-2.5800002,-0.4,1.137003,-0.60799915,-1.1100993,-0.48449853,-1.2600001,-0.88199985
0.27514547,0.5181266,-0.5785,-0.65699965,0.1775996,-0.884641,0.14014596,0.21831854,-0.23670316,-0.50654554,-0.020069972,0.07006964,-0.021899886,0.23686977,-0.4947751,0.78683555,-0.51823235,-1.1959507,0.37500027,-0.26999998,-0.6859015,-1.1587989,0.07261736,0.052760385,-1.0000004,-1.5286394,0.6675392,-0.08074769,-0.88199997,-1.0470002,4.732165,-0.48707768,-1.3379999,0.04928805,0.4143932,-1.0123826,-1.0787542,-0.09099929,0.4710006,-0.5999999,0.6294921,0.46400058,-0.5781796,-0.24299982,0.025742145,0.052188415,-0.5901963,-0.5584387,0.44677708,-0.45535505
1.0505016,-1.6730001,0.0,-0.2,0.99800056,-1.8669987,-0.34000018,-1.21,-1.4200001,-0.38549948,-0.97,-1.1819996,-0.2,0.66900104,0.14349958,1.3280014,-1.4509999,-1.9550002,-0.03999999,-0.2,-0.5399996,-0.8,-1.2260004,-0.4,-0.4,-1.0,-0.44000065,-0.8159996,-0.2,-0.2,-3.0574946,-0.24,-0.2,-0.953999,-0.27749878,-3.1694996,-0.37299994,-0.6,-0.4,-0.6,1.5459992,-0.2,-2.2000003,-0.4,1.9700083,0.44100237,-1.4825001,-0.2580002,-0.41,-0.33999997
1.7242941,0.29739553,-0.11000001,-0.73,-1.3135005,0.26539633,-0.6386969,-1.8405999,-0.84050006,0.113104,-0.6109983,-1.8274008,-0.2,-0.3794987,-1.0214651,0.7986669,-0.5413838,-1.1487052,-0.52000004,-0.08999999,-0.80089647,-0.67999995,-0.30679962,-0.6,-0.6,-0.8699999,0.68156284,-0.6249975,-0.18900001,-0.28000003,-0.666902,0.9695012,-0.27999997,0.17093232,0.87662244,-0.5888852,-0.40459886,-0.47999996,-0.25,-0.49,0.5436496,-0.060000002,-3.3580008,-0.84,3.0945368,-0.009701685,0.61740667,-0.117498785,-1.96,-1.429
0.48400453,0.106000274,-0.2,-0.060000002,-1.3410002,-0.026400335,-0.2672503,-1.23,-2.4199998,-0.38429627,-1.4067001,-2.043,-0.4,-0.6459979,-1.6319005,0.8195094,-1.7541981,-1.3144994,0.67,0.06000001,-0.7013994,-0.44,-0.45999968,0.0,-0.4,-0.84,0.67641413,0.07060044,0.16000001,-0.315,-2.3275895,-0.90200007,-0.24,0.0014000707,0.44355324,-0.4740042,-1.32825,-0.64,-0.4,-0.24,0.4967234,-0.03999999,-2.38,-0.64,3.3740807,-0.5168321,-1.3580004,0.29299882,-0.9700001,-0.58499986
0.33999994,-0.81,-0.2,0.0,-0.2,-1.394,-0.5,-1.2,-0.82000005,-0.60999954,-0.8,-0.53999996,-0.4,-0.12700005,-1.5000001,2.3399951,-0.42,-0.22000001,0.0,-0.4,-0.41,-0.6,-0.34999996,-0.4,-0.6,-0.8,-0.52999866,-0.84000003,-0.2,-0.2,-5.5499973,-0.2,-0.2,-0.31800008,1.820001,-2.8100004,-0.2,-0.4,-0.2,-0.4,1.5800009,-0.4,-2.4000003,0.0,-1.37,-1.6200001,-0.653,-0.62,-0.4,-0.22000001
-1.7609993,-0.5409987,-0.2,-0.2,-0.45999995,0.13300006,1.2640003,-1.1329999,-1.0370003,-0.82199997,-1.5874999,-1.0845,-0.6,-0.38400048,1.356004,-0.2520001,-0.8619979,0.08599966,0.0,-0.2,1.037001,-0.4,-1.0200001,-0.4,-0.4,-0.6,0.20249939,-0.4500001,0.0,0.0,-2.7144997,-0.37999997,-0.4,1.0659987,-2.0600002,-1.1230034,0.87550175,-0.4,-0.2,0.0,0.9999987,-0.2,-2.2000003,-0.2,0.5035054,-0.060000036,1.159501,0.63450134,-0.53999996,-0.55999994
-0.26280066,0.11874779,-0.58000004,0.4500002,-1.098,0.09170269,0.23055577,-1.3221745,-0.21769825,-0.12301731,-0.0017466154,0.04948066,-1.07,0.67462915,1.6067551,0.6115827,0.13346606,-0.15749732,0.63,-0.97299993,-0.108101286,-0.6840003,0.05434552,-0.45999992,-0.13399985,-0.07399992,1.1708004,0.15450044,-0.30300003,-0.39999998,1.8899461,-1.3114995,-0.9559999,0.13703617,-0.4410956,-0.80764884,0.96324944,-0.010999985,-1.2400001,-1.2800002,0.44930577,0.020000048,-2.6380036,-0.8399998,0.52985793,0.024898477,0.36669344,0.4057678,-1.5322987,-1.5434974
-0.31710023,-0.3312936,-0.292,0.24000001,-0.2579999,0.16654958,-0.30370143,-2.4155025,-0.21867272,-0.92839503,-0.4636941,-0.41115674,-0.24999996,0.13179982,2.5528686,0.7995711,-0.01044311,-0.5433883,-0.22,-0.8,-0.5657948,-0.6399999,0.2451993,0.066000015,-0.774,-1.0939997,1.2799362,0.68880725,-0.72,-0.26,-0.0029703462,-0.6214993,-0.38,-0.782726,-1.5258995,-1.2374268,2.058688,-0.276,0.36,-0.52,0.5385082,0.026000075,-2.1980002,-0.38400006,0.5485958,0.46400172,-0.67019856,-0.13485286,-3.0054998,-1.7922007
1.4187183,0.04239905,0.04,-0.2,0.6169999,0.07259786,-2.42,-1.8000001,-2.7799997,0.0047977725,-1.2660012,-2.2780004,-0.26,-0.43049803,-2.786002,0.41658834,-0.53129476,-0.25950274,-7.450581e-09,-0.16999999,-1.1350031,-0.7,-1.8900001,-0.65999997,-0.36999997,-0.7099999,1.3550217,-0.40129834,-0.2,-0.19,-1.5672662,-0.9179999,-0.02000001,0.38150108,1.1758152,-0.84220135,-1.2881,-0.53999996,-0.4,-0.060000002,0.26059696,-0.24,-2.3100002,-0.55999994,2.8540223,-0.40039614,-0.48469913,0.12750493,-1.13,-0.9479999
0.7520009,1.1680002,-0.2,-0.4,-0.31,-1.9200001,-1.3100001,-1.0,-0.94,-1.4680002,-0.94,-1.11,-0.2,-0.43699977,-1.4300001,1.5819969,-0.42999998,-1.6300001,-0.2,-0.2,-1.15,-0.6,-0.41,-0.4,-0.4,-0.8,-1.2540016,-1.43,-0.2,-0.2,-4.950001,-0.2,-0.2,-0.68000007,0.21900031,-2.3639996,-0.631,-0.4,-0.2,-0.4,1.7179978,-0.4,-2.4000003,-0.4,1.3499947,0.129,0.85799944,-1.36,-0.5,-0.9100001
-0.2,-1.0,-0.2,-0.2,-0.2,-0.21000001,-0.4,-1.2,-1.0,-0.41,-0.2,-0.59,-0.4,-0.2,-0.6,2.22,-0.26000014,-0.4,-0.2,-0.4,-0.2,-0.8,-0.816,-0.4,-0.4,-1.0,-1.01,-0.2,-0.2,-0.2,-5.659996,-0.2,-0.4,-0.41,-0.81,-3.2200005,-0.2,-0.4,-0.4,-0.2,1.9300002,-0.4,-1.8000002,-0.4,-3.6200006,-1.01,-0.42999998,-0.2,-0.4,-0.4
-0.31,-0.8,-0.6,-0.4,-0.6,-0.4,-0.70000005,-1.0,-1.0,-0.2,-0.5,-0.37500003,-0.4,-0.4,-0.5,-0.41,-0.8,-0.4,-0.2,-0.4,-0.3,-0.6,-0.595,-0.4,-0.2,-0.8,-1.4000001,-0.21000001,0.0,0.0,-5.2099924,0.0,-0.8,-0.5,-0.6,-3.2000005,-0.6,-0.6,-0.4,-0.6,-0.3,-0.2,-2.0000002,-0.8,-3.6100006,-0.8,-0.2,-0.2,-0.6,-0.5
-0.41,-0.8,-0.2,-0.2,-0.2,-0.41,-0.4,-1.0,-0.55999994,-0.15,-0.2,-0.65,-0.4,-0.2,-1.23,2.3499992,-0.20000003,-0.22000001,-0.2,-0.4,-0.71000004,-0.6,1.6000004,-0.6,-0.4,-0.8,-1.32,-0.4,-0.2,-0.2,-6.360001,-0.2,-0.2,-0.82,-1.2,-2.6100004,-0.4,-0.2,-0.4,-0.2,2.7529995,-0.2,-1.8000002,0.0,-3.7299998,-0.41,1.1199994,-0.4,-0.01,-0.32
-1.5643026,-0.6282917,-0.95,-0.021000054,0.9186921,0.45195723,2.9074857,-2.0820003,-0.53519523,-0.885065,-0.102699384,-1.9962032,-0.03000001,0.0098999515,-0.42085475,0.22400436,2.4346192,-0.5565932,-0.442,-0.25,0.38980567,-0.33999997,-0.4586998,-0.64000005,-0.8,-1.0799999,1.8952181,0.31142795,-0.602,-0.050000027,-0.5841291,0.37890074,-0.492,-0.122201204,-1.0861019,-1.2209269,-0.0023021526,-0.76000005,-0.2,-0.6,-0.3120033,-1.02,-2.8600004,-0.34,3.864471,-1.2229962,-1.4031961,0.19212322,-2.0280006,-1.8451995
0.9785005,-0.455,-0.2,-0.2,-0.4,-0.0074999114,-0.61,-0.98999995,0.9171614,1.5280021,-1.2444501,-1.0024993,-0.2,-0.75,-0.13954973,1.1939967,-0.38699982,0.5565008,0.0,-0.2,-0.959801,-0.4,-0.26711956,-0.2,-0.8,-0.6,-1.6319995,-1.1000001,0.0,0.0,-2.4437919,0.0,-0.4,-0.5870005,-1.6400001,-2.9799976,-0.1035,-0.4,-0.2,-0.4,1.4427997,-0.2,-1.4778001,-0.6,-0.18200088,-1.8300002,-0.19149987,-0.738,-1.0300001,-0.5247797
0.058299687,0.8108359,-0.02000001,-0.52000004,-0.11800004,-0.9660001,-0.973,0.23028663,0.2830213,0.6961431,-0.57888377,-0.91149443,-0.13000001,-0.8031998,-1.0156436,1.4841219,0.15320055,0.4375663,0.0,-0.28,-0.036249883,0.65320027,0.07553331,-0.844,-0.05399996,-1.5280001,-0.33605084,-1.7450001,-0.34,-0.24,0.45007363,0.495,-0.6,-0.36799812,-1.9149,-1.0942322,-0.6702998,-0.6639999,0.07000001,-0.33999997,1.5688018,-0.54399997,0.8095002,-0.38399994,-0.39402685,-1.0169008,-0.6065969,-1.2745899,0.94826645,0.5581259
-0.5170001,-0.75799996,-0.22000001,-0.6,-0.2,-0.91,-0.92,-0.9854998,-0.15359873,-0.56564933,-1.0291994,0.25255543,-0.4,-0.12,-0.24120033,0.091991656,-0.049300298,1.6466498,-0.2,-0.22000001,-0.15885004,-0.32000002,1.2757556,-0.1,-0.82,-1.12,0.63,-0.71000004,0.0,-0.02000001,-1.6229856,0.255,-0.6,-0.42020038,-2.045,-1.6469988,0.09999999,-0.52,-0.42000002,-0.42000002,2.2313044,-0.4,-1.4960004,-0.7,-0.65300065,0.079000115,1.5143014,-0.92,-1.6085,0.66110617
-0.5472001,-2.5399997,0.0,-0.4,-0.576,0.22999825,-1.0370001,-1.6100001,-1.2700001,-0.63119745,-1.0300001,-0.5999999,-0.4,-0.6654989,-2.7499995,1.4876,-0.75799835,0.3039999,-0.03999999,0.0,-1.376,-0.8,-0.73,-0.2,-0.6,-1.2,0.15400055,-0.5640991,0.0,-0.2,-4.364995,-0.11,-0.2,-0.4173984,1.0568087,-0.40640238,0.03000003,-0.4,-0.4,-0.4,0.8760037,-0.70000005,-2.4000003,-0.31,2.4559972,-0.9858011,-0.43099964,-0.7059988,-0.42,-0.26999998
-0.80399996,-1.173499,-0.2,-0.02000001,-0.452,-1.3800001,-1.0730001,-0.65529525,0.6135403,0.21897928,-0.9984483,-0.9244211,-0.5,-0.4612998,-0.61106384,1.0036825,0.20821029,-1.4907492,-0.2,-0.2,-0.8953996,-0.54,-0.003534839,-0.48000002,0.24800001,-0.82,-0.25430864,-1.1463,0.0,-0.22000001,1.3682647,-0.04000001,-0.65999997,-0.10163119,-1.9624993,-2.145898,-0.5516,-1.06,-0.14000002,-0.67999995,1.9462632,-0.28000003,-1.3490006,-0.68,-0.82279146,-2.218,0.19720104,-0.91700006,-0.75749695,0.33395138
-1.2474991,-2.1389992,-0.2,-0.193,-0.4249998,-0.52899563,0.1514996,-1.7900002,-2.4514997,-1.2889996,-0.6134981,-1.9865,-0.4,-0.11300042,-0.5404999,-0.20780876,-1.1830018,1.969511,-0.4,-0.4,-1.2779988,-1.0,-1.16,-0.6,-0.4,-0.68,1.9620211,-0.6046997,-0.03999999,-0.2,-1.9659654,-0.48499995,-0.2,-0.13049985,-1.4289966,-1.8514996,-1.5930002,-0.70000005,-0.6,-0.2,0.8884998,-0.6,-2.2200003,-0.59,3.43999,0.16305257,-0.8129999,-0.091999955,-1.03,-0.82
-0.74,-0.70000005,0.0,0.0,-0.2,-0.73,-0.90000004,-1.2,-0.6,-0.51,-0.3,-0.8,-0.2,-0.13,-1.1,1.6300005,-0.41,-0.9100001,-0.6,-0.4,-0.62,-0.2,-0.81,-0.4,-0.8,-0.8,0.47000024,-1.1200001,-0.2,-0.2,-6.609998,-0.2,-0.2,-0.73,2.52,-3.0000005,-0.2,-0.6,-0.2,-0.2,1.7200009,-0.4,-2.2000003,-0.6,-2.24,-1.26,-0.51,-0.8,0.0,-0.2
0.59800094,-1.1,-0.4,-0.4,-0.4,-2.0600002,-0.82,-1.6000001,-0.91,-1.6500002,-0.70000005,-0.73,-0.4,-0.110500015,-0.30999994,2.7049966,-0.85,0.49999982,-0.4,-0.2,-0.67999995,-0.4,-1.02,-0.2,-0.2,-1.0,-0.31000057,-0.6350004,-0.2,-0.2,-5.0449924,-0.4,-0.4,-1.1360002,1.112,-3.7000003,-0.72,-0.2,-0.4,-0.2,-0.52999866,-0.2,-2.0000002,-0.4,-4.2133033e-06,0.23000094,-0.35999998,-1.0100001,-0.6,-0.51
-0.23900008,-1.3000001,-0.2,-0.2,-0.67899996,0.05899988,-0.77000016,-1.3100001,-0.91,-0.5259999,-0.7169998,-0.43999997,-0.4,0.23300005,-0.40999955,1.9059975,0.7034012,-1.413,-0.2,-0.2,-0.67299974,-0.6,-0.75,-0.2,-0.6,-0.4,0.70160156,-0.8999996,0.14,0.0,-4.3839955,0.0,-0.4,-1.2286006,0.69000065,-1.347,-0.33,-0.4,0.0,-0.6,1.9299984,-0.4,-1.4000001,-0.4,-0.7580019,-0.92300045,-1.0100001,2.07,-0.56,-0.52
-0.63577425,-0.1529637,-0.88,-0.35999984,0.7185008,-0.07560623,-0.29934892,-1.29857,0.2327858,-0.15531857,-0.35800633,0.39652768,-1.194,0.01793893,1.9940783,0.57179487,-0.03874342,-0.5448186,0.23500009,-0.98999995,-0.1498074,-1.9600012,-0.1944475,-1.2180002,-0.6599999,-1.6550001,0.6400292,0.7123722,-0.22900006,-0.44,2.5591168,0.21649997,-0.9350001,-0.4541599,-0.5801273,-0.68541723,1.6556355,-0.75299984,-0.50999993,-0.030000024,0.84958977,-0.6809999,-2.2255454,-0.33599997,0.13639073,0.13634244,-0.7219919,-0.48300982,-1.4680961,-1.558541
-0.77709174,-0.096349835,-0.2,-0.060000002,0.07550003,-0.09650123,-0.8379988,-2.4746528,0.64141923,-0.010501619,0.11185173,-0.31459236,-0.2,0.09680042,2.386555,0.9681159,0.059078462,0.013199239,-0.07,-0.22999999,0.27769792,-1.0400001,-0.26369554,-0.3,-0.57,-0.74999994,0.59660286,0.5200027,-0.111999996,-0.060000002,0.06646962,0.5665005,-0.28000003,-0.01979867,-3.4150002,-0.9763502,2.0181768,-0.78000003,0.08,-0.48000005,0.9208086,-0.88,-2.1940005,0.11999999,-0.2766963,-0.13750173,-0.99199384,-0.85200065,-2.7169995,-1.5592986
-0.63499993,0.86650306,-0.2,-0.192,-1.1240009,-1.1600096,-0.067001864,-1.1099999,-0.06699995,-1.776502,1.1539968,-1.7070004,-0.2,-0.28630024,-1.3179994,0.6343948,2.9399981,-0.85599995,-0.2,-0.4,0.05100007,-0.2,-0.85999954,-0.2,-0.2,-0.8,2.118511,0.61040723,-0.2,-0.4,-1.9195004,-0.13799995,-0.2,-0.2619994,-2.4100018,-2.2019997,-0.02399982,-0.2,-0.2,0.0,0.18200053,-0.4,-2.4000003,-0.6,1.6199976,-2.6529996,-1.1210002,-0.80099505,-1.1400001,-0.70599973
-1.1884999,-2.3999999,-0.2,-0.08,-0.26199993,-1.2818022,-0.48299915,-0.98999995,-1.6490002,-0.9162998,-0.40500015,-0.92999995,-0.4,-0.20699911,-2.3,-0.47800678,-2.6460009,1.0970006,-0.2,-0.4,-1.7539998,-0.45999998,-0.97999966,-0.2,-0.28,-1.2800001,1.9740068,-0.6899981,-0.03999999,-0.2,-3.1039755,-0.094,-0.2,0.48800173,-0.42099923,-1.7875015,0.17999998,-0.68,-0.26,-0.08,0.7554054,-0.2,-1.9400002,-0.28,3.143995,-0.7429949,-0.60999894,0.90799963,-0.32999998,-0.53
0.037499577,-0.57949984,-0.2,-0.2,0.81500113,-1.0659987,-2.4659996,-1.4300001,-0.16400002,-0.811497,1.6750001,0.26600033,-0.4,-0.8629987,-0.89499974,1.1920047,-2.948998,1.5620035,-0.049999997,-0.6,-1.298999,-0.4,-0.9399999,-0.6,-0.22000001,-0.6,0.62400734,1.3145086,-0.2,-0.2,-4.0775113,-0.42999998,-0.2,-0.6555968,-0.25200257,-1.2269998,-0.485,-0.4,-0.4,0.0,0.77200544,-0.4,-2.2400002,-0.2,2.8519711,-1.0114982,-1.1560004,-1.3410006,-0.44999996,-0.46499988
0.0074982457,0.47625494,-0.2,-0.33,-0.026999893,0.46032786,-0.06024281,-2.1018064,-0.102044635,0.15749592,0.045354858,-0.11285012,-0.4,0.84882,0.9267482,0.91828454,-0.13968374,-0.37499276,-0.16,-0.192,0.31526536,-0.76,-0.17779809,-0.45999998,-0.4,-1.6500001,1.0547458,-0.14380093,-0.4,-0.24,0.19720532,-0.5335997,-0.4,0.13663578,0.654475,-0.9408551,-0.17240214,-0.41000003,-0.08999999,-0.09999998,0.7127523,-0.16999999,-2.3140016,-0.35999995,1.2924423,0.16075227,0.7524393,0.09690161,-2.6399012,-1.0988992
-0.9628,0.43109992,-0.2,-0.4,-0.21000001,-1.0439999,-0.84279996,0.2838,-0.6560986,0.23259972,0.65800166,-1.2585988,-0.4,-0.3879999,0.22179891,1.0625002,0.29000145,-1.1937994,-0.2,-0.2,-1.704,-0.6,-0.05280012,-0.4,-0.4,-0.8,-0.5159992,-0.4999999,-0.2,-0.2,-1.475984,-0.4,-0.4,-0.50799954,-1.6255002,-1.4079986,-0.73,-0.6,-0.6,-0.4,2.8699872,-0.2,-1.9400002,-0.4,-0.7970013,-1.501,-0.62279946,-0.479,-1.0904,-0.8369992
-0.3,-0.36499995,-0.4,-0.4,-0.2,-0.4,-1.0,-0.81,-1.0,-0.4,-0.91,-0.62,-0.2,-0.2,-1.1,2.1500018,-0.51,-0.51,-0.2,-0.2,-0.5,-0.6,-0.21500011,-0.4,-0.2,-1.2,-0.18000016,-0.6,-0.2,-0.4,-5.1899943,-0.2,-0.2,-1.1890001,-1.18,-3.0000005,-0.3,-0.4,-0.6,-0.2,1.3249998,-0.4,-1.8000002,-0.6,-2.220001,-0.70000005,-0.2,-0.2,-0.41,-0.5
-0.5212405,-0.17486027,-1.715,-1.5150007,-1.7500002,-1.2479081,-0.86662114,0.37179807,-0.08035325,0.07047061,-0.06741479,-0.028553706,-1.6301014,-0.59569556,-0.09749657,0.83291173,0.031524613,-0.20949754,-0.5986997,-0.6866998,-0.16831216,-0.5756994,-0.2649358,-1.3550006,-1.5834005,-0.5614652,-0.10098415,-0.43544877,-1.4970002,-0.97799987,5.5578575,-1.1132009,-1.0460006,-0.11305027,0.048580203,-0.88039577,-0.81464374,-1.7746996,-1.5001004,-1.805,0.72293895,-0.5649996,-1.57598,-0.87299967,-0.79857206,-0.8298589,-0.22428267,-0.18061595,-0.088694654,0.16655065
-0.7319965,-0.37319812,-0.28000003,-0.91999996,-0.10299999,-0.98899925,-1.6869999,-0.6445803,-0.09346408,0.24627586,0.21041396,-0.63269216,-0.52,-0.97400004,-0.26641163,1.0009174,0.7499742,1.0852376,-0.6,-0.48000002,0.67451936,-0.90000004,0.2581777,-0.8,-0.23000002,-0.19399996,-0.25759938,-0.7839996,-0.4,-0.4,0.8579099,-0.043999985,-0.26,0.30559832,-1.921499,-0.86979514,-0.9524991,-0.42000002,-0.74,-0.02000001,1.0418081,-0.28,-1.0981997,-0.11999999,0.022005059,-1.5400013,0.124601744,-0.728498,-1.9418211,0.51431096
-0.24749933,0.34100068,-0.2,-0.2,-0.712,0.09200082,-1.5579997,-1.25,-1.9940001,-0.7004984,-1.4800001,-0.6719993,-0.2,-1.1425,-0.8429984,0.3720007,-1.0920002,-1.4950001,-0.2,-0.4,-0.48899928,-0.6,-1.4039999,-0.2,-0.4,-0.6,1.0600053,0.31250092,-0.2,-0.25,-1.6609936,-0.332,-0.2,-0.08350001,1.0280156,-1.8609979,-0.205,-0.4,-0.4,-0.4,0.7700182,-0.4,-2.2600002,-0.48000002,2.657962,0.17599976,0.595001,-1.5730017,-1.2000002,-0.8500001
-1.5914003,-1.422,-0.4,-0.2,-0.51,-0.52700007,-1.1100001,-1.7100002,-1.0464993,1.6860057,-1.9969993,-1.2279996,-0.4,-1.171,0.30000266,0.23999977,1.1100038,-1.7028999,-0.2,-0.4,1.0855,-0.8,-1.7459993,-0.4,-0.2,-0.8,-0.893998,-1.4160001,-0.4,-0.2,-1.949992,-0.32,-0.26,0.86480576,-1.7130005,-4.4180007,-0.5739995,-0.4,-0.4,-0.4,1.7750129,-0.2,-2.0000002,-0.4,0.35800293,-2.1100001,1.6229981,-0.35999998,-1.2100002,-0.73199993
0.24699946,2.4930036,-0.6,-0.19000001,-1.365,0.18279524,-1.2804993,-1.475,-1.2679999,1.3249103,-0.3799998,-1.2790012,-0.2,-0.8574991,-0.25719813,0.5990039,-0.56599694,-1.2720007,-0.04,-0.2,-0.68239963,-0.8,-1.1128008,-0.2,-0.8,-0.24000002,0.55720764,1.2213036,0.245,-0.2,-0.60899466,-0.19150004,-0.4,0.07150152,-0.8249997,-0.6582954,-1.9354005,-0.46000004,-0.4,-0.4,1.196504,0.0,-1.9400008,-0.6,1.1422881,-1.1910001,-0.2541006,0.30500317,-1.705,-1.2444997
0.8195122,0.26499978,-0.2,-0.24,0.34400028,-1.1294981,0.9070049,-1.38,-1.790001,-1.5329969,-1.4760001,-2.5115018,-0.4,0.4835019,-1.124002,0.36846662,-1.2299981,-1.0270014,-0.4,-0.2,-0.08300134,-1.0,0.21749969,-0.2,-1.0,-0.46000004,0.92150676,0.5260056,-0.12,-0.2,-1.0479401,-0.339,-0.4,0.28555107,-0.16999732,-1.5179981,-1.2550004,-0.44,-0.6,-0.4,0.52550775,-0.6,-2.6300004,-0.4,2.6764493,1.0100278,-0.6259992,-1.0654976,-1.4699999,-1.1639999
-0.2,-1.0,-0.2,-0.2,-0.2,-0.4,-0.8,-1.4000001,-1.4200001,-0.21600002,-0.6,-0.4525001,-0.2,-0.4,-1.5920001,1.9500005,-0.82,-0.6,-0.2,-0.2,-0.6,-0.4,-0.73799974,-0.4,0.0,-1.0,-1.6000001,-0.2,-0.4,-0.2,-4.14,-0.2,-0.2,-0.4,-1.21,-2.5000002,-0.4,-0.4,-0.2,-0.4,1.1400002,-0.4,-1.8300003,-0.6,-4.2100005,-0.8,0.0,-0.6,-0.69150007,-0.40549988
-0.4,-0.90000004,0.0,0.0,0.0,-0.4,-0.4,-1.6000001,-1.01,0.31999987,-0.4,-0.982,-0.4,0.0,-0.30800024,2.0499995,-0.24000014,-0.5,-0.2,-0.4,-0.8,-0.6,-0.91,-0.4,-0.4,-1.2,-0.8,-0.4,-0.2,-0.4,-4.8799953,-0.4,0.0,-0.90000004,-0.792,-2.7400002,-0.6,-0.4,-0.2,-0.2,1.83,-0.6,-2.0000002,-0.2,-3.5920005,-0.8,0.34399986,-0.4,-0.6,-0.22000001
-0.583999,1.2615798,-0.14,-0.4,0.15200001,-1.200001,-0.78,-1.215777,0.46409976,0.6700572,-0.9877212,-0.5232805,-0.34,-0.1619998,-0.624973,1.1548867,-0.06550884,-2.1331012,0.060000002,-0.2,-0.54044604,-0.53999996,0.06544862,-0.6,-0.14,-1.2600001,0.20465237,-1.0550003,-0.049999997,-0.2,0.59371656,-0.033,-0.14,-0.011077457,-2.7729998,-1.3600478,-0.6619997,-0.66,-0.34,-0.4,1.6602083,-0.4,-1.9559999,-0.45999998,-0.22147286,-2.2970023,0.3798015,-1.399,0.12980214,0.43295252
-0.41980046,-1.1,-0.2,0.0,-0.2,-0.48999992,-0.71000004,-1.4000001,-0.61,-1.0100003,-0.81000006,-0.41,-0.2,-0.2649999,-1.11,3.146,-0.53999996,0.4322005,-0.2,-0.2,-1.0300001,-0.4,-0.62,-0.2,-0.6,-0.4,-1.4200026,-0.76259995,0.0,-0.2,-6.7329946,-0.1922,-0.6,-0.60300004,1.1899996,-2.8000004,-0.6,-0.6,-0.4,-0.8,1.129998,-0.2,-2.4000003,-0.2,-0.3940012,0.34559998,-0.81000006,-0.8,-0.2,-0.41
0.7432407,-0.34450033,-0.16999999,-0.1,-0.07050027,1.0564467,-0.020001821,-2.4995,-1.1419011,-0.5869741,-0.73649627,-0.7354788,-0.08,0.42071605,-0.84157526,1.1164539,-0.17818385,0.017550388,0.53,-0.4,-0.64718854,-0.64,-0.47244528,-0.75999993,-0.76,-0.90999997,0.62598556,0.292098,-0.502,0.04,-0.1818882,-0.9484995,-0.22000001,0.26481333,-0.79038984,-0.94169134,-3.292999,-0.561,-0.45,-0.64,0.6828719,1.4901161e-08,-2.1199996,-0.01200001,3.5223575,0.21745425,-1.7053521,-1.3071945,-1.7629993,-1.4775003
-0.1,-1.0230001,-0.6,-0.4,-0.2,-0.5,-0.81,-0.7289999,-1.0450002,-0.74599993,-1.4980003,-0.8049999,-0.4,-0.1,-0.18600003,0.3339999,-0.36900002,-0.09400001,0.0,-0.2,-1.0,-0.46000004,-0.7999995,-0.4,-0.86,-1.0600001,-0.71000004,0.07,-0.5,0.0,-3.07,0.0,-0.2,-0.26999998,-0.71000004,0.02299989,-0.51,-0.6,-0.060000002,-0.2,0.9900004,-0.2,-2.4600003,-0.6,-3.8300004,-0.31,-0.483,-0.8,-0.63,-0.293
-1.1285039,-0.66764796,-0.22,-0.13999999,-1.1270002,-1.0940045,-0.06585093,-0.22782157,0.21761249,0.29999128,-0.7019408,0.034337763,-0.26000002,-1.7722011,-0.30087268,0.92221487,-0.087637566,-0.13666646,-0.75,-0.3,-0.50557697,-0.96199995,-0.089936,-1.356,-0.34599996,-0.9819999,0.60511345,-1.420501,0.030000016,-0.059999987,2.9161978,-0.8369994,-1.36,-0.039063692,1.2926034,-1.2636813,-1.2398019,0.22400007,0.093999945,-0.71999985,0.7854426,-0.53999996,-0.69799846,-0.039999977,-0.14487791,-0.5910982,1.2009999,0.23314974,-1.0271504,-0.79187095
-0.83800036,-0.61649984,-0.2,-0.4,-0.6,-0.7620001,-0.7132,-0.7976988,-0.8756,-1.5159988,0.15949745,-1.0270998,-0.4,-0.7739999,1.7301,0.9486011,-0.9267003,0.36910033,0.0,0.0,-1.3210001,-0.8,-0.8965991,-0.2,-0.6,-1.0,-0.100000024,-0.29999998,-0.2,0.0,-1.8159871,-0.21000001,-0.4,-0.92800033,-1.1460003,-1.7832038,0.89670163,-0.4,-0.4,-0.4,0.15200016,-0.2,-2.1700003,-0.4,-0.8607011,-0.8013,1.7336998,0.5144006,-0.39399996,-0.5070996
0.3178549,-0.48916328,0.31000003,-0.46999964,-0.4649997,0.6843892,-0.42790005,-1.6653144,-0.06295585,0.45629185,0.0073731747,0.7466669,-0.05999998,-0.17009139,0.24915068,0.7599461,-0.29463345,0.42825934,-0.45999998,-0.13999999,0.46219334,-1.7680005,-0.04054272,-0.55999994,-0.61,-0.33360082,1.0512373,0.09575591,0.43822223,-0.43999997,1.8690497,0.60110307,-0.81999993,0.0022982466,-0.11009844,-0.5250457,-0.57438964,-0.37999985,-0.026000002,-0.66999996,0.7294946,-0.67999995,-2.6902013,-0.68149996,1.5258117,0.703099,-0.047336675,-0.80643797,-1.6229966,-1.3081949
-1.0040003,-0.7430001,-0.25,-0.61,-1.052,-0.61229163,-1.8109999,-1.48,-1.6,0.6354075,-1.856,-0.8,-0.45,0.736508,-0.5129986,0.35999054,0.61250865,-0.58499885,-0.15,-0.65,-0.54699767,-0.45,-0.95500004,-0.6,-1.0500001,-0.65,1.4780146,-0.47699866,-0.24,-0.28,-3.5279832,-0.36299998,-0.65,0.013500038,-0.36850116,-1.0414976,-0.7989999,-0.25,-0.65,-0.65,0.21899925,-0.25,-2.8000004,-0.049999997,2.4219801,-1.5220003,1.0575008,0.16449967,-0.38999996,-0.64
-0.42999998,-1.13,0.0,-0.2,-0.4,-1.03,-0.77,-1.1899999,1.4600004,0.10529991,-1.16,0.39980075,-0.26,-0.109999985,0.24199979,0.54999954,-0.026999831,-0.169,0.0,0.0,-1.1220002,-0.6,-0.8225992,-0.4,-0.45999998,-1.06,-2.6299996,-0.42,-0.2,0.0,-3.7520008,0.07,-0.2,-0.8700001,-0.9200001,-1.4279999,-0.45999995,-0.4,-0.2,0.0,2.9200006,-0.4,-2.0600002,-0.6,-0.4900003,-0.88,1.3999996,-1.11,-0.652,1.2645012
-0.94089663,-2.0365007,-0.2,-0.391,-0.4509997,-0.33820435,1.2228068,-1.6070004,-0.7629947,-1.4275043,-1.3589987,-2.3095016,-0.2,-1.2654988,-0.6066476,0.2527543,-0.29264426,1.2765294,0.009999998,-0.5,-1.7084985,-0.76,-0.1554994,-0.82,-0.35999995,-0.8999999,1.4701493,0.2524044,0.31,-0.8,-0.97917986,-0.86000013,0.0,0.029223504,-0.7801952,-1.0884014,-1.5465002,-0.16,-0.34,-0.2,0.3993504,-0.44,-2.2200005,-0.24,3.553844,0.5999196,-2.4054992,-3.7434995,-1.1055007,-0.8689998
-2.5159996,-1.0891936,0.040000044,0.30600014,0.5500002,-2.5169995,-1.7184999,-0.5296179,1.2533602,-0.14530131,-0.46720815,-0.35840014,0.33130026,-1.1414994,-0.84592223,0.69796664,0.06671226,-0.9707494,-0.52,-0.254,0.5718803,-0.33110058,-0.07519032,0.24700034,-0.2069999,-0.93599975,0.25938314,-1.4435011,-0.42000002,0.58100015,2.5704489,-0.64249974,-0.083599955,-0.20675586,-0.26154,-0.65220475,-1.5067242,0.3020001,-0.28899983,-1.3139999,1.0243993,-0.79999995,0.15542331,-0.1979999,-0.22581376,-0.6014584,-0.93417263,-1.9393513,2.1722279,-0.11787754
-0.19400011,0.48,0.0,-0.2,-0.2,-0.88999987,-1.2,-1.02,-1.32,-1.1750001,-0.21000001,-0.82000005,-0.4,0.8320006,-1.5400001,2.5950003,-0.71000004,-0.61,-0.2,-0.4,-0.56999993,-0.6,-0.8,-0.2,-0.6,-1.0,-1.1999995,-0.83,-0.2,-0.2,-5.539995,-0.21000001,0.0,-0.93,1.2179983,-3.0100002,-0.3,-0.4,-0.4,0.0,0.3600001,-0.2,-2.2000003,-0.2,-0.19000173,0.42600015,-0.53000003,-1.21,-0.11,-0.21000001
-0.4,-0.8,-0.6,-0.6,-0.8,-0.2,-0.70000005,-1.4000001,-1.1,-0.4,-0.8,-0.5,-0.2,-0.4,-1.3000001,2.27,-0.64000016,-0.2,-0.2,-0.4,-0.4,-0.6,-0.31,-0.4,-0.2,-0.8,-1.11,-0.2,-0.2,-0.2,-6.4199986,-0.2,-0.6,-0.91,-0.6,-2.8000004,-0.4,-0.4,-0.2,-0.6,1.79,-0.4,-2.2000003,-0.8,-3.6100004,-1.0,-0.2,-0.4,-0.4,-0.41
-1.2050022,1.0059999,-0.6,-0.2,-0.77,0.32429934,-0.9900001,-1.4300001,-0.5459995,0.5086099,-0.25199997,-1.753,-0.2,0.6050107,-2.0340002,0.8165972,-1.6625005,-0.13700184,0.0,-0.2,-0.16500062,-0.6,-1.355,-0.2,-0.4,-1.0,0.9440026,-0.55959636,-0.2,-0.2,-2.1844878,-0.08,-0.2,0.35350427,0.43950272,-1.2800049,-1.6270002,-0.6,0.0,-0.2,0.7215095,-0.2,-2.5200005,-0.2,2.1829891,-1.2930022,0.0940002,0.34300026,-0.99000007,-0.28100005
-0.1555012,-1.5349988,-0.4,-0.4,-0.94349986,-0.37359843,0.066401444,-1.4600002,-2.872999,-0.9839955,-2.051,-1.3789977,-0.36,0.056298785,-0.91049594,0.026563294,-1.4375014,-0.44349736,-0.13999999,0.0,2.1664739,-0.84,-1.5490011,-0.4,-0.4,-0.44,1.8707296,0.25399914,-0.16,-0.03999999,-1.6123517,-0.5494998,-0.44,-0.14316337,-0.23920527,-1.6950035,-0.37999907,-0.27999997,-0.2,-0.44,0.48915848,0.16000001,-2.2000003,-0.24,3.2661448,0.81083316,-0.6939988,-0.92820215,-1.44,-0.95999986
-0.28484008,-0.028086575,-1.843,-0.82079977,-1.6269,-0.8456614,-0.03754247,0.26840273,-0.14439267,0.062990956,0.10256548,0.01974284,-2.1624336,-0.14366785,0.0019339658,0.5466294,0.16332857,0.3515494,-1.4599997,-1.2317997,-0.32975575,-1.8223984,-0.25845447,-1.499999,-0.92989904,-2.1678312,1.0301104,0.07814922,-0.8534997,-1.3518006,5.9955683,-1.4870819,-1.8348005,-0.07406387,0.007966128,-0.47375625,0.1254507,-1.2383988,-2.0462,-1.1248,0.503416,-1.2955004,-1.2403408,-2.715401,-0.2580915,-0.15632387,-0.10897536,0.33932915,-0.4636453,-0.03859862
-0.03401769,-0.71869075,-0.45599997,-1.2150002,-1.4004999,-1.0529037,-0.25733483,0.40617943,-0.24530412,-0.28665465,0.23862594,-0.4701026,-1.358,-0.6096872,-0.10993591,0.9648126,0.25565004,1.8458037,-0.7999999,-0.668,0.013910467,-2.2245996,-0.055076398,-0.86559904,0.22240008,-0.26759878,-0.2556077,0.057832852,-0.267,-0.019999966,3.864375,-1.5359011,-1.4920005,0.21477284,-0.51935387,-1.0988569,0.13470164,-0.65259975,-1.028,-0.9059996,0.9218655,-0.5399998,-1.2026159,-2.0606012,-0.6357438,-0.38937312,-0.44372052,1.2786913,-1.0249482,-0.26289672
0.093885385,-0.3862433,-1.4840002,-0.90199983,-1.7269998,-1.1150736,-0.26383185,0.20923449,-0.33594593,-0.119734004,0.37804705,-0.50071895,-1.6007999,-0.47338566,-0.12523197,0.96542114,0.3124519,1.557928,-0.32399988,0.08800008,-0.033486843,-1.4704003,-0.14639467,-1.1713988,0.10560019,-0.27039805,-0.30521998,-0.030735351,-0.84000003,-0.03299988,3.8292694,-2.1872025,-1.4919997,0.012550989,-0.6211658,-0.83509135,0.14649948,-0.8243998,-0.902,-0.52199966,0.81830597,-1.3039999,-1.3650022,-1.4063995,-0.6312988,-0.20017523,-0.2424754,1.2570354,-0.8804951,-0.24362288
-0.8780001,0.6599998,-0.2,-0.060000002,-0.4,-0.94000006,-0.57,-1.6000001,-0.81000006,0.30600053,-0.84000003,-0.31700006,-0.4,-0.5999999,0.5840002,2.5200002,-0.53000015,-1.4300001,-0.2,-0.2,-0.5150003,-0.4,-1.23,-0.4,-0.4,-0.45999998,-0.63000023,-1.07,-0.2,-0.4,-5.2069964,-0.21000001,-0.2,-1.0109999,0.58000016,-1.3600008,-0.32,-0.8,-0.4,-0.2,2.0550008,-0.2,-2.0600002,-0.4,-0.4420015,-0.7330003,-0.514,-0.64400005,-0.2,-0.21000001
-0.4444964,-1.4020985,-0.2,-0.64,-0.6335996,-0.83469033,0.6360083,-1.641,-0.54949784,-1.8445,-1.3135002,-2.464002,-0.2,0.2204978,-1.4079996,0.4814924,-1.1166964,-0.6759965,-0.4,-0.2,1.7777133,-0.24,-0.678499,-0.2,-0.4,-1.12,1.5003376,-0.08480312,-0.113,-0.2,-1.5449439,-0.3029999,-0.2,-0.3383985,-0.35400113,-0.7612973,-0.636499,-0.03999999,-0.03999999,-0.2,0.3450038,-0.4,-2.4500003,-0.56000006,3.2059183,0.73454,-0.32949987,-0.76699805,-1.72,-0.90000004
0.6894465,-0.46515805,-0.07,-0.17000003,-0.8164994,0.9594748,-1.3785021,-1.5234998,-1.7065016,0.3340134,-1.0130005,-1.0518981,-0.48000002,-0.3507522,-0.8587069,1.0676779,-0.09764579,-0.5770978,0.030000016,-0.060000002,0.33590117,-0.71999997,-1.4708,-0.26,-0.010000043,-1.0999999,0.5661438,0.081820995,-0.21999998,0.14999999,-0.57192767,-0.09000003,-0.060000002,0.070995755,0.42321223,-0.5151667,-1.1630014,-0.36000007,-0.4,-0.32000005,0.4203176,-0.22000001,-2.9080002,-0.62,2.972296,-0.11015518,0.54801464,0.4178042,-2.362,-1.3179997
-0.02000001,-1.3989993,-0.2,-0.4,-0.2,-0.85,-0.91,-0.9974989,0.4180004,-0.3414994,-0.29100066,-1.8830004,-0.2,-0.41,-0.11699979,0.9604986,0.898502,-0.7869998,-0.2,-0.2,-0.75799996,-0.6,-0.9689988,-0.2,-0.2,-0.6,-1.7200017,-1.12,-0.4,-0.4,-1.3199856,-0.4,-0.2,1.048001,-1.7030002,-0.74750054,-0.69799995,-0.2,-0.4,-0.2,1.6480036,-0.2,-2.1000001,-0.2,-0.71900076,-1.11,0.30399993,-0.445,-0.86399984,-0.69449914
-0.3929996,-1.996,-0.4,-0.6,0.8650004,0.3145988,-1.5970001,-1.22,-1.055,-0.6769986,-1.34,-0.2810001,-0.2,-0.96199954,-2.3259995,-0.1110064,-2.200002,0.43100098,0.31,0.0,-1.1079998,-0.4,0.5670009,-0.4,-0.4,-0.8,1.2953993,-1.0192986,0.0,0.0,-2.7569911,-0.024000006,-0.4,-0.82800007,0.8275107,-1.1400045,0.10500008,-0.2,0.0,-0.4,0.9420008,-0.4,-2.0760002,-0.6,2.629986,0.24299525,-1.2550007,-2.1380022,-0.53999996,-0.79999995
0.43599987,-0.24000022,-0.4,-0.4,-0.6,-0.6329998,-0.61,-1.4000001,-0.9494996,-0.17549983,-0.4575001,-1.2969999,-0.2,-0.59499997,0.6275014,0.21500073,-1.1929989,-0.16500032,-0.2,-0.4,0.99699974,-1.0,-0.983999,-0.2,-0.4,-0.6,-2.0120006,-1.2060001,-0.2,0.0,-2.8699975,-0.11,-0.4,-1.0630006,-0.3900004,-2.794002,-0.17200002,-0.6,-0.2,-0.6,3.554,-0.2,-2.6000004,-0.4,0.24000056,-1.5200002,0.49549997,-1.5100001,-0.9100001,-0.39000002
-0.48547465,-0.025801318,-1.3783002,-1.3002992,-1.8876009,-0.8844973,-0.3384585,0.20826073,-0.02261737,-0.034899734,0.7146407,0.06943797,-2.2162995,0.047854327,-0.06953257,0.45717326,0.049402952,-0.118120864,-1.9670001,-1.8690002,-0.100467265,-0.6712003,-0.09356117,-2.0378687,-1.1680996,-1.5890718,1.1629169,0.1489282,-1.7620008,-1.5490003,6.180634,-1.2578535,-1.1091987,-0.035156354,0.074003585,-0.48618624,0.1469607,-2.1319993,-2.1480002,-2.3669994,0.3730093,-1.5732,-1.6161402,-2.0562,-0.4152192,-0.16706035,0.085272804,-0.05361279,-0.13002706,0.15353805
-0.94053096,-0.31724876,-1.39,-0.2929998,-2.1110013,-1.0982127,-1.6039702,0.1997878,0.15623955,-0.7295147,2.905452,-0.70201904,-1.1423999,0.6584528,-0.48954734,1.2495496,0.16417183,-0.076987535,-0.5399998,-0.29999992,0.23736611,-2.5710003,-0.07239333,-2.6590009,-0.4253994,-0.96199906,-0.66090035,0.04929311,-1.4500002,-2.0400004,3.99295,-1.664,-0.036000222,0.3326866,-0.57629806,-0.96884465,0.41804048,-2.1100006,-1.1954002,-0.6799999,0.84931284,-0.9490003,-0.46075243,-0.5899999,-0.22123708,0.07040968,0.13877554,-0.032174572,-0.8652552,0.19413576
-1.0295702,-0.2951188,-1.6750001,-0.3949995,-1.7450002,-0.8849487,-1.5853854,0.026936743,0.27056205,-1.1857504,3.1426141,-0.7216161,-0.1439999,0.59428453,-0.3429984,1.2957593,0.12918225,0.21237428,0.1449998,-0.55899984,0.23333675,-3.0420005,-0.098199025,-1.4619998,-0.38899916,-1.5755993,-0.740962,-0.17552252,-0.46499997,-2.3700001,3.5312045,-1.5790002,-0.57299966,0.25653723,-0.51970893,-0.93876106,0.5439083,-1.8579999,-1.8720001,-0.47899973,1.120677,-0.31900188,-0.87151235,-0.9589989,-0.1486448,0.0806488,0.3210194,0.18954234,-0.81648505,0.3477757
-0.32690677,-0.03355155,-0.35799992,-0.75499994,-1.0050004,-0.47693697,-0.83075505,-0.26557577,-0.23450956,-0.054701887,0.66374385,-0.26648694,-0.80549985,0.16797641,0.032587677,0.9349093,0.11569781,0.10241871,-0.75799996,-0.14699998,-0.20559718,-1.1387999,0.37596625,-0.9847999,0.13980034,-0.8223999,-0.09192355,-0.5039411,-1.15,-1.3920001,4.00659,-1.1309991,-0.62999994,0.039942175,-0.6551172,-1.0256912,-0.079379074,-1.0109999,-0.4289999,-1.5300001,0.9945021,-0.35199994,-1.04635,-0.99549973,-0.2353167,-0.75200266,0.14431423,-0.44725975,-0.86672926,0.33347046
-0.30368036,0.19800141,-0.90799993,-0.23999995,-1.353,-0.9902915,-0.7336965,-0.26715088,-0.37076673,-0.38260132,0.6525563,-0.33220604,-0.20199992,0.35185677,-0.371667,0.9635743,0.080471694,0.15880072,0.3020001,-0.292,-0.34894216,-0.16013946,0.24327011,-0.12899968,-0.17749989,-1.1670016,0.12543516,-0.33527392,-0.32299998,-1.9280002,3.8076627,-0.71619916,-0.10299989,-0.16217658,-1.4435523,-1.0167991,-0.23903066,-0.7169997,-1.6750001,-0.68099976,1.1911606,-0.58399993,-0.66677904,-0.022999823,0.017763536,-1.014747,0.06941455,-0.5026522,-0.33913183,0.287815
-0.83711654,0.21588075,-1.2,-1.6940005,-1.9625003,-1.2616445,-1.5743777,-0.095890805,0.02189893,-0.5970959,2.3157997,-0.55313766,-0.17600001,0.4049567,-0.19503534,1.3268256,0.30913037,0.25867587,-0.51600003,-0.39999992,-0.14115956,-2.1544201,-0.11203526,-1.216001,-1.5760001,-0.17999934,-0.8345509,0.44866657,-0.78,-0.806,3.2733524,-0.70799893,-0.4689999,0.34878713,-0.151836,-0.8395792,0.746021,-1.0839999,-1.5694201,-0.86999977,1.0832462,-0.46999967,-1.3244168,-0.40599966,-0.2318933,-0.072651096,0.47968888,0.37368292,-1.4364879,0.012448885
-1.8800001,-1.4050002,-0.4,-0.6,-0.492,-1.7580004,-1.2600001,-1.2,-0.92,-0.5529982,0.5200001,-0.63,-0.4,1.0230033,0.13400036,2.9629924,-0.06500006,-0.58299994,0.0,0.0,-1.0979999,-1.0,-0.44999996,-0.2,-0.8,-1.0,-0.2780047,-1.0319985,0.0,-0.2,-5.492003,-0.41,-0.6,-0.34899998,0.5310013,-0.41300088,-0.32199973,-0.6,-0.2,-0.8,0.92000186,-0.2,-2.2000003,-0.4,1.1499999,-3.1099997,0.924002,-0.2999996,0.0,-0.52
-1.3749999,-2.16,-0.4,-0.4,-0.5,-2.196002,-2.1000001,-1.4100001,-0.8659993,2.3107896,-2.2759998,-1.8799999,-0.2,-0.687999,0.42349976,0.16599084,-0.18100055,-0.4184993,-0.2,-0.2,0.87950265,-0.4,-1.1099999,-0.2,-0.6,-0.8,1.2890036,-0.6609999,0.0,-0.4,-2.5190005,-0.12,-0.4,-0.43049744,-0.2849998,-2.6229987,-1.0040001,-0.6,-0.4,-0.4,1.1600033,-0.2,-2.2000003,-0.4,1.0130146,1.3540037,0.21800017,-0.55699897,-0.83000004,-0.7399999
-0.5608887,0.7620121,-0.4,-0.07999998,0.7160009,0.663633,-1.4673955,-1.714,-0.5867898,-0.11048349,-0.5694983,-2.5405009,-0.4,1.0358123,-0.96558106,0.06622716,-0.65074426,-0.052490324,-0.120000005,-0.3,-0.6284988,-0.58,-0.1245005,-0.62,-0.33999997,-0.65999997,0.7296429,0.2549973,-0.22399999,0.21000002,-0.9517793,-1.5640002,-0.4,0.5723626,0.014581509,-0.41589987,-0.09509969,-0.74,-0.65999997,-0.441,0.6094062,-0.34,-2.1798005,-0.19299999,2.7762632,0.15679239,-0.048820183,-1.0751987,-0.84600025,-0.6785
-1.119598,0.39465523,-0.42000002,0.146,-0.23299997,-0.67720044,-0.35859942,0.17829528,0.020799492,-0.5294772,-0.24937028,-0.48187426,-0.016000018,-0.7570389,0.3553548,1.1112453,0.05703021,-0.19473739,-0.03999999,-0.8,0.6942101,0.29600006,0.6382285,-0.71999997,-0.18600003,-0.34399992,0.4375467,-0.9312003,-0.28,-0.49600005,2.1467423,-0.2229998,-0.716,-0.31498694,-0.20678867,-1.2419194,-1.6179992,-0.25,0.033999942,-0.34000003,0.5623026,-0.41999996,-0.75925857,-0.43600005,-0.21678767,-0.8752123,0.7370143,-0.46679965,-0.70635086,-0.21018311
-0.16829912,0.08038994,-0.525,-1.1539999,-0.0024999608,-1.9494998,-0.03679943,-0.76263505,-0.21569242,-0.39917907,0.59288764,-0.037640706,0.13499999,0.1544988,0.055129003,0.9107553,0.23527332,1.1005011,-0.08500002,0.00500001,0.29076293,-0.99090004,0.19564638,-0.385,-1.405,-0.5948999,-0.018996987,0.052200377,-0.385,-0.060000002,2.1718616,-0.19850002,-0.018999994,0.6436071,-2.4313014,-1.015873,0.1713514,-0.44499996,-0.23499997,-0.09499994,0.99261194,0.305,-1.2975008,-0.36499995,-0.24688132,-0.45948955,0.3275563,0.3486717,-4.0191026,-0.345868
0.13099843,-0.92060894,-0.8,-1.46,-1.1899999,-1.697,-0.33184946,0.08470514,-0.13183875,-0.2839443,0.019943599,-0.83766454,-0.8399999,-1.1733347,-0.097425595,1.1759524,0.3501258,2.6576169,-0.41000003,-1.12,-0.028108342,-1.3958004,-0.44173482,0.55420005,-0.73379993,-0.5537997,-0.24560554,-0.4280002,0.24700004,0.27000004,2.1465056,-0.5460999,-0.15999998,0.41813305,-0.8052292,-1.3257356,0.15128157,-0.3858,-0.98999995,-0.38,0.958379,-0.65999997,-1.6857321,-0.64579993,-0.6858324,-0.46556738,-0.33625853,1.7910252,-1.5476433,-0.6779489
-0.52249473,-0.15400048,0.15,-0.08999999,1.0994989,-0.8491924,0.87110114,-1.7780002,-1.9585006,-1.0698929,-1.817,-1.3544971,-0.6,0.061299965,-1.3069934,0.18678963,-0.9980025,-0.79649776,-0.213,-0.45,2.0126889,-0.65,-0.7980005,-0.65,-0.25,-1.11,1.5049062,-0.02949979,-0.32,-0.2,-1.3494841,-1.0020001,-0.2,-0.43164322,-0.04700161,-0.6725024,-0.89859957,-0.49,-0.4,-0.111,0.41301212,-0.39000002,-2.1700003,-0.8,2.9643066,0.8899315,-0.3359998,-0.9694973,-1.4330007,-0.7759998
0.4285038,0.24929953,-0.32,-0.24,-0.7609996,-0.38769332,-1.2259986,-1.2399999,-1.748001,-0.39819655,-1.572,-2.1360004,-0.2,-0.7179961,-1.2990003,-0.13550189,-0.6719961,-2.049,-0.3,-0.03999999,0.29000035,-0.6,-1.8000007,-0.68,-0.78,-1.18,0.8750067,-0.034798782,0.1,-0.20999998,-1.7394794,-0.90500003,-0.2,0.26099786,1.7134042,-1.0516065,-0.30469966,-0.38,-0.08,-0.38,0.8260059,-0.08,-1.8100002,-0.38,3.3909955,-1.7218996,0.2706021,0.48740005,-1.1800001,-0.32999998
-0.53,-0.8,-0.4,-0.2,-0.2,-0.32999998,-0.8,-0.4,-0.8,-0.1450001,-0.6,-0.5,-0.4,-0.4,-1.12,2.6900015,-0.25000006,-0.2,-0.4,-0.4,-0.61,-0.4,-1.4000001,-0.6,-0.2,-1.0,-1.48,-0.53999996,-0.4,-0.2,-6.4199915,-0.4,-0.4,-0.72,-0.6,-2.7100003,-0.6,-0.6,-0.4,-0.4,2.4100015,-0.6,-2.0000002,-0.2,-2.4999986,-0.81,-0.70000005,-0.70000005,-0.6,-0.8000001
0.32820144,0.14525032,-0.4,-0.25599998,1.0417005,-1.1502496,-2.0115001,-1.14,-1.2839999,-2.1519978,0.57,-1.4839998,-0.4,-0.7177482,-0.63299984,0.3187017,-1.7447515,1.209907,-0.6,-0.2,-2.269002,-0.8,-1.0799999,-0.4,0.14,-0.8,1.3740097,0.8519681,0.0,-0.2,-2.3562064,-0.43999997,-0.2,-0.08650021,-0.13400365,-1.6040003,-0.90000004,-0.6,-0.6,-0.4,0.538004,-0.2,-1.9600002,-0.03999999,3.1029687,-0.22249839,-1.8100001,0.0770005,-0.86,-0.9700001
-0.60400003,0.9199998,0.0,-0.2,-0.2,-0.42,-0.6,-1.2,-0.71000004,0.5999997,-0.51,-0.23000002,-0.2,-0.25000003,-1.04,3.26,-0.12999997,-0.8000001,-0.2,-0.2,-0.6,-0.4,-0.71000004,-0.4,-0.4,-1.0,-1.39,-0.43999997,-0.2,-0.2,-6.4699984,-0.4,-0.2,0.028,-0.81000006,-3.2000005,-0.5,-0.2,-0.8,-0.4,2.1000001,-0.2,-2.0000002,0.0,-2.3999999,-0.41,-0.52,1.0900006,-0.1,-0.21000001
-1.068,-1.7325001,-0.2,-0.02000001,-0.21000001,-0.8540001,-0.17449982,-0.41702607,0.23850052,-1.1955,-2.2080092,-1.2419002,-0.2,-0.27050003,-0.3659979,0.45289788,-1.865,-1.4212006,-0.4,-0.2,-0.30599976,-0.72999996,1.2522464,-0.24,-0.2,-1.04,1.1600008,-1.3100001,-0.2,-0.2,-0.40321788,0.15320002,-0.2,-0.3100003,1.9457046,-0.6047034,0.000500042,-0.24,-0.4,-0.2,1.4705049,-0.2,-2.6400003,-0.24,-0.7230021,-1.9100002,2.1912432,-0.41799983,-0.98080903,-0.83132017
-0.06324711,0.1375085,-1.125,-0.4568016,1.2026,-0.6252378,0.6714227,0.37066177,-0.28035524,-0.101144224,-0.021547947,-0.20942903,-1.395,-0.34750587,0.31184107,0.66553485,-0.30719823,0.008416779,-1.2849998,-0.20799968,0.15316658,-1.5545905,0.19316684,-2.1135998,-0.96500015,-1.1174006,0.43679586,-0.103267245,-0.9589999,-1.5990002,4.9846554,0.3013418,-2.261001,-0.38004237,0.73043776,-0.8025044,-0.29461932,-1.0289993,-0.43799216,-1.0000001,0.5878652,-1.0969998,-1.6020167,-1.0529989,-0.120669216,-0.2218761,0.7330026,0.43343955,-0.33511224,-0.7200489
-0.020498717,-0.596999,-0.4,0.050000004,2.0459998,0.3670508,-0.40499976,-1.24,-1.99,-0.8628964,-0.53599966,-0.25999972,-0.4,-1.2710006,-1.1940001,0.3193881,-1.4660971,-0.9300001,-0.4,-0.2,-0.47899964,-0.8,-1.1599998,-0.4,-0.6,-0.6,0.8006071,0.3117009,-0.4,0.0,-2.106004,-0.34499997,-0.6,0.46020287,0.9018049,-1.4070035,-0.54999995,-0.4,-0.4,-0.4,0.9908072,-0.4,-2.6000004,0.39000002,2.5169854,-0.6043968,-2.531,-0.73299867,-0.85,-1.0
-1.9690003,-0.92899984,-0.25,-0.2,-0.6920001,-0.851696,-1.0914992,-1.06,-1.1099999,0.6336043,-1.4815,-0.99999994,-0.25,0.8555072,-0.98800063,-0.104003064,0.16400068,-0.174,-0.049999997,-0.25,0.11399943,-0.25,-1.0699999,-0.8,-0.644,-1.25,2.0389838,-0.26800027,-0.060000002,-0.4,-3.8639822,-0.42,-0.25,0.09300022,0.28949893,-0.80549836,-0.89400005,-0.45,-0.45,-0.45,0.3199999,-0.45,-2.4000003,-0.25,2.0680032,-2.617999,1.0784972,0.54600143,-0.47999996,-0.5
-0.6844403,0.2720969,-0.16399997,-0.81899977,0.014700002,-1.3879973,-2.449659,0.3910404,0.20312387,0.00831181,-0.5253317,-0.15970354,0.05300016,-1.3829815,-0.56520873,1.226406,-0.22196488,-0.5531165,-0.664,-0.38000005,0.1579858,-0.4703983,-0.105410494,-1.319,0.22940023,-1.3505993,-0.19983672,-1.3533989,-0.91,-0.84599996,3.8431993,-0.54069954,-1.2270001,-0.32411975,0.6305024,-0.78775966,-0.71770394,-1.4499999,-0.06899975,-0.894,1.2422419,-0.072999924,-0.9795194,1.0980002,-0.67225385,-0.8960111,-0.94007516,-0.6686234,0.69810903,0.2552831
-0.11,-0.81,-0.2,-0.2,-0.2,-0.41,-0.4,-1.2,-0.8,0.4399999,-0.6,-0.62,-0.4,-0.01,1.0899999,0.8300001,-0.595,-0.41,0.0,-0.2,-0.735,-0.6,-0.61,-0.4,-0.6,-0.8,0.75,-0.22000001,0.0,-0.2,-5.4299927,-0.2,-0.6,-1.065,-0.62,-2.8000004,-0.4,-0.4,-0.4,-0.4,1.3399998,0.0,-2.4000003,-0.2,-1.9700005,-1.21,-0.6,-0.6,-0.1,-0.61
-0.4,-0.90000004,-0.4,-0.2,-0.4,-0.6,-0.4,-1.356,-0.992,-0.16900001,-0.81000006,0.07300002,-0.4,-0.2,-0.892,-1.2,-0.4,-0.405,-0.6,-0.4,-0.5,-0.6,-0.8,-0.6,-0.2,-1.0,-1.0,-0.2,-0.4,-0.4,-3.6700041,-0.2,-0.6,-0.5,-1.0,-0.8699999,-0.41,-0.4,-0.4,-0.4,-0.2,-0.4,-1.8000002,-0.4,-3.5,-0.52000004,-0.212,-0.24,-0.71000004,-0.09000005
-0.71749884,-0.78800046,-0.2,-0.14,-0.31,-0.77199954,-1.4410001,-1.5949999,-0.46050012,-2.315998,-2.707999,-0.8899981,-0.4,-1.0969993,2.5691762,1.5689994,0.026500653,-0.6960001,-0.2,-0.4,-0.21050012,-0.4,-1.6713395,-0.6,-0.2,-0.3,0.8540022,-0.764,-0.2,-0.4,-1.9857807,-0.73,-0.2,-0.12500021,-1.7500004,-1.4790056,2.319019,-0.4,-0.4,-0.4,0.7680004,-0.4,-2.6200004,-0.02000001,-0.38680133,-0.31499958,-0.29350007,1.5974965,-1.8200002,-0.9145
-2.3834996,-1.4820004,0.0,-0.2,-0.42999998,-1.8870002,-0.2579999,-0.9079998,-1.2955,-0.9870013,-0.48150036,-1.5609999,-0.4,-1.0475001,2.870646,1.5570022,0.15299976,-1.9240001,0.0,-0.4,-0.14600006,-0.6,-1.1568398,-0.2,-0.4,-1.0,-1.327,-0.084999934,-0.2,-0.4,-3.2402909,-0.51,-0.2,-0.669999,-2.3,-1.1820006,1.6410012,-0.6,-0.4,-0.6,0.5700007,-0.61,-2.5000002,-0.08,0.36419845,-1.4050001,-0.3309998,0.9569997,-1.1000001,-0.51299995
-0.01,-1.2,-0.4,-0.4,-0.2,-0.3,-0.2,-1.6000001,-1.1339996,-0.2,-0.6,-0.59800005,-0.2,-0.6,-0.6,2.7700005,-0.5000001,-0.5,-0.2,-0.2,-0.61,-0.6,-0.64200026,-0.4,-0.4,-1.2,-1.12,-0.12,0.0,-0.2,-6.2299986,0.0,-0.4,-1.0,-1.2,-2.6000004,-0.1,-0.4,-0.2,-0.2,2.500001,-0.2,-2.4000003,-0.4,-3.43,-0.91,-0.22000001,0.0,-0.2,-0.494
-0.7847467,-0.3367574,-1.7830001,-0.59719944,-2.0270007,-0.9161681,-0.78223467,0.15367311,-0.1966151,-0.0007252991,-0.021254033,0.32338908,-1.7554005,-0.32115117,0.078875214,0.61728776,-0.025800692,0.060538523,-1.9904002,-1.0763997,0.20073745,-2.2100022,-0.11161324,-1.2353508,-1.0484989,-1.3471466,0.13011532,-0.37065956,-0.6995,-1.6710002,5.58824,-0.75514597,-1.8490001,-0.037565246,0.19723535,-0.5679952,-0.31613797,-1.7163997,-1.2103993,-1.3169996,0.565142,-1.4809997,-1.3334382,-1.6479992,-0.54452294,0.24638572,-0.49401322,-0.30353346,-0.7779602,-0.005600459
-0.62199366,-0.29970658,-0.26,-1.2379999,0.0997002,0.8613016,-0.56416434,-2.0386078,0.54844844,1.4342105,-0.021327121,0.5194498,-0.4939999,-0.40778357,0.31607905,0.45586634,0.062439717,0.37951848,-0.28499997,0.38600004,0.5749901,-2.6240003,-0.1972266,-0.35000002,-0.60799986,0.19973393,1.4416244,0.46702376,-1.0786666,-0.9339998,2.8980553,-1.8663001,-1.1870004,0.06497765,-0.0029595885,-0.6648446,-0.45850813,-1.0439999,0.14600009,-0.42799994,0.56594443,-0.41999993,-2.313267,-0.45699984,0.73935354,-0.0041628703,0.38385797,-0.21041958,-0.9261092,-1.517844
-0.79864544,-0.9138954,-0.41,-0.8,-0.105999894,0.6589217,-4.435,-2.5199995,0.17021522,2.0253046,0.21679908,-0.005853961,-0.39200002,-0.85609835,0.424577,0.73307586,0.2754388,0.6737692,-0.4,0.16000001,1.2348037,-0.84999996,-0.21899897,-0.60999995,-0.45999998,-1.102,0.7364157,0.37149918,-0.4,-0.45999998,-0.065428615,-0.99700004,-0.6,0.4746205,-1.8341992,-1.1324931,-0.58809805,-0.46999997,-0.26,-0.45999998,0.60876983,0.037999988,-2.6980002,-0.40999997,0.97352916,-0.2329032,0.6965174,-0.881996,-3.3559992,-2.5660002
-0.45999995,-1.21,-0.2,-0.4,-0.4,-1.2600001,-1.21,-1.32,-1.4449998,0.14500022,-0.81650025,-0.90199995,-0.4,-0.54999995,-0.29499978,0.71600616,0.08000008,0.4005,-0.2,-0.4,-0.80549985,-1.0,2.1649942,-0.2,-0.2,-1.0,-2.9499998,-0.75,-0.2,-0.2,-3.2059994,-0.1956,-0.2,-0.14499986,-2.1100001,-4.0600014,-0.31,-0.6,-0.6,-0.2,2.499997,-0.2,-2.2800004,-0.4,0.21099976,-1.3100001,1.539999,-0.33999997,0.15680005,-0.8269994
-0.17209913,-1.4686015,-0.45999998,-0.4,0.81700027,1.1020023,-1.7870002,-1.1769996,-0.26929814,1.1236074,-1.5084001,-0.45050025,-0.45399997,-0.4994976,0.014697922,1.0169485,-0.4339993,-2.185002,-0.45999998,-0.46000004,-0.4782995,-0.42000002,-0.32289842,-0.6,-0.65999997,-0.93999994,-0.93565214,-1.9059998,-0.39200002,0.0,-0.37186158,-0.42899996,-0.26,-0.043273784,-2.4924982,-0.88200206,1.1855015,-0.6,-0.060000002,-0.6,0.9481152,-0.2,-1.9340003,-0.6,0.6470218,-1.7533995,0.50970304,-0.78399944,-2.5399997,-1.5661988
-0.16359934,-0.7448572,-0.22000001,-0.3,-0.75599986,-0.31515613,0.2825193,-1.8342496,-0.24209733,-1.0388435,-0.59774876,-0.29889414,-0.4,0.9092544,0.17460144,0.5680523,-0.33824956,-0.11434773,0.14,-0.5,-0.6419977,-0.4,-0.34899926,-0.4,-0.4,-0.86,0.9761438,0.12589721,-0.192,-0.53000003,-0.31457803,-0.25599992,0.020000001,-0.29290286,0.29992712,-0.63439935,0.15964064,-0.8,-0.4,-0.6,0.477687,-0.6,-2.075,-0.4,2.8782372,-0.032647744,0.06574876,-0.34192157,-1.9177498,-1.3772498
-0.11310021,0.16999957,-0.2,-0.4,-0.53,0.95379806,-1.44,-1.0799999,-1.073,-0.9164983,-1.3,-1.1830001,-0.4,0.82400554,0.36889958,1.0380039,-2.049995,-1.4256006,-0.2,-0.2,-0.76999944,-0.6,-1.37,-0.6,-0.2,-0.6,1.2914977,-1.8908001,-0.2,-0.4,-2.198492,-0.24000002,-0.2,0.9070015,0.097000025,-1.3399985,-0.48099962,-0.4,-0.8,-0.2,0.5860005,-0.4,-2.0000002,-0.2,0.824008,-1.4904994,1.2474027,1.0944983,-0.61,-0.83000004
-0.21000001,-1.4000001,-0.2,-0.6,-0.2,-0.41,-0.6,-1.6000001,-0.62,-0.22000001,-0.4,-0.2,-0.4,-0.2,-0.70000005,2.24,-0.45000017,-0.6,-0.2,-0.2,-0.6,-0.4,-0.6,-0.6,-0.4,-0.6,-1.13,-0.2,-0.4,-0.2,-6.919998,-0.2,-0.4,-0.72,-0.22000001,-2.9100003,-0.4,-0.4,-0.2,-0.4,2.4499998,-0.4,-2.2000003,-0.2,-3.0400002,-0.61,-0.4,-0.4,-0.2,-0.4
-1.3060014,-0.56899375,-0.2,-0.39200002,0.32600018,0.3512511,0.17009972,-1.6600001,-1.4909991,-0.4442495,0.62271744,-2.1530013,-0.24,-0.10595137,-1.4379995,-0.24125333,2.6694777,-0.27599996,-0.2,-0.4,0.33830416,-0.4,-1.9930005,-0.4,-0.2,-0.44,2.4477181,0.33460182,-0.2,0.07999999,-1.1238803,-0.052999936,-0.39200002,-0.25949633,-1.8070047,-2.955003,1.3910038,-0.4,-0.2,-0.2,0.28799978,-0.5,-2.1000001,-0.58000004,2.3739622,-3.599001,-1.3234981,0.26039988,-1.4200001,-0.98999995
-0.53999996,-0.90000004,-0.4,0.0,-0.2,-0.61,-0.70000005,-1.01,-0.0040000747,-0.35599998,-0.81000006,-0.81,-0.6,-0.32,-0.90000004,0.41000012,-0.71000004,-0.51,-0.4,-0.6,-0.42,-0.6,-0.72,-0.6,0.0,-1.2,-0.099999756,-0.3,-0.4,-0.2,-3.6599967,-0.4,-0.4,-0.7479996,-1.21,-2.8000002,-0.61,-0.2,-0.4,-0.4,0.7000005,-0.6,-2.0000002,-0.4,-0.35000014,-0.82000005,-0.02,-0.71000004,-0.21000001,-0.3
1.0900018,1.1540004,0.0,-0.2,0.0,-0.7340006,-0.9000001,-1.2,-0.91,-0.41599938,-0.71000004,-0.49,-0.6,0.028000012,-1.3699996,2.1979973,-1.1730005,-1.1700015,0.0,0.0,-0.023999996,-0.2,-0.90000004,-0.2,-0.6,-1.0,-0.1300008,-1.6800002,-0.2,-0.2,-5.573996,-0.4,-0.4,0.64100015,0.47999987,-0.89600086,0.25000006,-0.2,-0.4,-0.08,0.47000173,-0.2,-2.2000003,-0.6,0.3100025,-1.7019986,-0.136,0.54199994,-0.5,-0.19
-0.25000003,-0.8,-0.4,-0.4,0.0,-0.32,-0.6,-1.4000001,-0.62,-0.32999998,-0.3,-0.44999996,-0.4,0.51000017,-0.81000006,3.1299999,-0.44400015,-0.02,0.0,-0.2,-0.72,-1.0,-0.64,-0.4,-0.8,-0.4,0.13999999,-0.5,-0.2,-0.2,-6.7799997,0.0,-0.2,0.51999986,-1.0,-2.8100004,-0.2,-0.2,-0.2,-0.4,1.2700001,-0.2,-2.2000003,-0.2,-3.069999,-0.81000006,-0.1,-1.0,-0.4,-0.41
-0.3549991,-2.52,0.0,-0.6,-1.1,0.37000242,-1.9000002,-2.0100002,-1.7900002,-0.20650096,-1.8440001,-1.3570001,-0.4,-0.12249927,0.7050035,0.62499887,0.14699955,-1.2009996,-0.4,-0.2,-0.54099923,-0.4,-1.16,0.0,-0.46000004,-1.0,0.5760014,-1.394999,-0.2,0.0,-3.2319903,-0.4335,-0.08,0.3030017,-1.4069992,-1.4920025,-0.4999992,-0.8,-0.4,-0.2,0.13900024,-0.6,-2.6000004,-0.6,1.710008,-2.9249992,2.4515107,0.4530026,-0.49999994,-0.54999995
-0.5104986,-1.9530001,-0.03999999,-0.2,-0.42999992,0.6020033,-2.4599998,-1.335,-1.9000002,-0.6914984,-2.224999,-1.5375005,-0.6,-0.6734974,1.5240014,0.45700225,-0.0010003373,-2.1400003,-0.12,-0.2,-1.7300004,-0.485,-1.7200001,-0.24,-0.3,-1.04,1.5669975,-0.5939986,-0.2,-0.4,-2.5704794,-0.93,0.0,-0.5897496,-0.21300012,-1.2280003,-0.17949979,-0.44,-0.445,-0.24,0.120000355,-0.4,-2.7450004,-0.6,2.04051,-2.0290039,1.515498,0.44650245,-0.16,-0.36800003
-0.3239995,-2.116,-0.2,-0.4,-0.54999995,0.4935022,-1.6400002,-1.44,-1.6200001,-2.120999,-1.564,-1.0359998,-0.4,-0.69999886,1.8675002,0.48600113,-0.92800033,-1.8610001,-0.13,-0.2,-0.9650006,-1.0,-1.05,-0.6,-0.4,-1.2,0.8220016,-1.1290019,-0.4,-0.2,-3.190998,-0.37999994,-0.2,0.11999958,-1.1464995,-1.3840005,-0.87199926,-0.4,-0.2,-0.4,0.592001,-0.4,-2.4000003,-0.24,2.1799965,-2.3500018,0.92750144,0.23000027,-0.74000007,-0.55999994
0.044999987,2.6500025,-0.4,-0.2,-0.4,-0.74,-0.3,-1.4000001,-0.801,1.6619982,-0.70000005,-0.5,-0.4,-0.26000002,-0.741,-0.70000005,-0.70000005,-0.91,-0.2,-0.2,-0.62,-0.8,-0.6,-0.6,-0.4,-1.0,-1.1,-0.42999998,0.0,-0.2,-4.820001,0.0,-0.4,-0.81100005,-0.33,-0.65600127,-0.34999996,-0.8,-0.4,-0.6,-0.4,-0.4,-2.2000003,-0.6,-1.914001,-0.53,0.6490001,-0.601,-0.4,-0.6
-2.2750006,-1.0574986,-0.2,-0.59999996,-0.49999997,-1.000599,0.6959013,-1.8141004,-0.26249817,-1.5362014,-0.16635309,0.33305132,-0.4,-0.7788989,2.382427,1.140442,-0.03400075,-0.6768933,-0.19,-0.2,0.44259897,-0.74,-0.12494904,-0.6,-0.120000005,-0.52000004,0.7084679,-2.107,-0.26,0.02000001,-0.7392,0.012000021,-0.26,-0.5640141,-1.805,-0.6808984,1.4805013,-0.25999993,-0.65999997,-0.26,1.1513398,-1.0,-2.2860007,-0.42,0.6587503,-0.52629745,0.16305068,-0.38270032,-2.4929986,-1.0707
0.080000006,-1.2,-0.4,-0.2,-0.4,-0.3,-0.90000004,-1.6000001,-0.62,-0.4,-0.5,-0.41,-0.4,-0.4,-0.90000004,2.9100003,-0.59000015,-0.32,0.0,-0.2,-0.4,-0.6,-0.61,-0.2,-0.4,-0.8,-0.66000056,-0.82000005,0.0,-0.2,-7.5199976,-0.2,-0.4,-0.92,0.9599998,-2.6000004,-0.2,-0.4,-0.2,-0.4,2.3600006,-0.2,-2.6000004,-0.4,-3.3799999,-0.81000006,-0.22000001,-0.6,-0.4,-0.5
0.28849936,0.44124362,-0.15100001,-0.47999993,-0.354,-1.0467004,-0.6697899,0.17259246,-0.096767835,-0.73365235,-0.23909009,-0.40554327,0.055000022,0.16270022,-0.28501976,0.9080054,0.20528033,-0.9870975,-0.655,-0.36499998,-0.2541518,-0.26100004,0.85628504,-0.37,-0.37800005,-0.98499995,0.3976015,-1.5335009,-0.14,0.09000001,2.4074707,0.08654998,-0.33,-0.039199986,-0.45844904,-1.1160715,-0.7332971,-0.215,-0.39499992,-0.08000001,0.8042727,-0.56,0.27752104,-0.14999999,-0.4548425,0.30745944,-0.31040925,-1.5776203,-0.42523143,-0.8849062
-1.0095016,-1.1399999,-0.2,-0.2,-0.31,-1.7429997,-0.4019993,-1.4300001,-1.42,-0.50629926,-1.58,-1.4199998,-0.4,-0.40300006,-1.6204982,0.3029985,-1.9070005,-0.030999523,0.14,-0.4,3.501676,-0.8,0.44000018,-0.2,-0.6,-0.8,2.6764765,-0.41099757,-0.2,-0.12,-2.2660005,-0.049999982,-0.2,0.06674845,-1.1059989,-3.517999,-0.9,-0.4,-0.2,-0.2,0.50700563,-0.4,-2.0800002,-0.2,1.2709906,0.49151886,0.101000406,-0.827999,-0.5799999,-0.61199987
-0.64,-1.0,0.0,0.0,-0.4,-0.63,-0.4,-0.8,-0.73,-0.31999984,-0.2,-0.7750001,-0.6,-0.41,-1.3000001,2.4699986,-0.37000012,-0.6,0.0,-0.4,-0.8,-0.6,-0.71500003,-0.4,-0.8,-0.6,-0.9900004,-0.70000005,0.0,-0.4,-5.8799934,-0.4,-0.4,-0.16000018,-1.4200001,-2.4,-0.4,-0.6,-0.6,-0.8,2.4499986,-0.4,-2.0000002,-0.4,-2.1800015,-0.8,-0.81799984,-0.6,-0.2,-0.8
-0.2,-0.6,0.0,0.0,-0.2,-0.6,-0.8,-1.0,-1.0,-0.4,-0.4,-0.70000005,-0.2,-0.6,-0.8,1.86,-0.36000013,-0.2,0.0,0.0,-0.5,-0.2,-0.90000004,-0.2,-0.6,-1.0,-1.6100001,-0.3,-0.2,0.0,-6.9999976,-0.2,-0.8,-0.51,-0.8,-2.3000002,-0.1,-0.8,-0.2,-0.2,2.36,-0.2,-1.8000002,-0.8,-3.5100005,-0.5,-0.81000006,-0.8,-0.5,-0.5
-0.047499947,0.43740362,0.0,0.0,-0.24000005,-1.0544996,-0.9799997,-1.4319998,-0.95749843,-0.47199613,-0.322499,-2.5222418,-0.4,2.3064525,0.25844264,0.97939926,0.68350774,-0.5655972,-0.03999999,-0.2,-0.36399883,-0.6,-0.3856191,-0.4,-0.2,-0.92,0.12250023,-0.44499975,-0.2,0.04999999,-0.6896002,0.28500003,0.0,0.4905129,-1.5670003,-1.1914959,-0.027499989,-0.4,-0.2,-0.2,1.0030067,-0.4,-2.1000004,-0.4,1.8821217,0.5470123,-0.9474995,-2.1660013,-1.57,-1.2419997
